tree
version=v4
num_class=1
num_tree_per_iteration=1
label_index=0
max_feature_idx=16
objective=binary sigmoid:1
average_output
feature_names=Column_0 Column_1 Column_2 Column_3 Column_4 Column_5 Column_6 Column_7 Column_8 Column_9 Column_10 Column_11 Column_12 Column_13 Column_14 Column_15 Column_16
feature_infos=[-1.2562468324797429:15.798026433845127] [-1.6942035155796722:12.548603324937305] [-1.2921655819007334:41.078922051193565] [-0.96376721161209833:14.807636610531953] [-1.10382683767809:21.78669170307009] [-1.8862102267685008:19.869853026967405] [-1.5540989689317364:47.607737950131309] [-1.5642778150448371:4.654304240518413] [-1.2149773971882138:29.702922545606071] [-1.7658423311699982:4.0743700750396483] [-1.7340317224577881:7.3264240399689395] [-0.98320456849837912:6.0117620968914309] [0:3] [0:5] [0:6] [0:1] [0:3898]
tree_sizes=3326 3321 3306 3315 3301 3314 3330 3320 3339 3318 3319 3320 3305 3328 3314 3326 3339 3324 3325 3346 3317 3326 3327 3323 3307 3322 3315 3336 3365 3293 3301 3326 3329 3328 3316 3328 3341 3315 3328 3341 3320 3310 3289 3339 3325 3299 3322 3304 3313 3312 3305 3310 3326 3305 3323 3303 3317 3302 3331 3318 3323 3310 3330 3308 3328 3328 3331 3327 3315 3319 3301 3325 3317 3305 3329 3329 3309 3340 3312 3350 3330 3327 3315 3323 3339 3309 3320 3322 3320 3326 3309 3318 3315 3312 3317 3340 3326 3317 3330 3330

Tree=0
num_leaves=31
num_cat=0
split_feature=10 14 12 8 12 13 13 13 13 6 13 12 9 16 13 12 9 6 6 6 10 16 16 9 6 6 9 16 9 13
split_gain=8140.5 6553.17 3514.53 940.589 659.121 254.06 522.121 371.55 570.791 242.826 294.212 151.175 114.716 90.1417 80.9543 77.3547 73.3811 61.1654 59.0338 64.5241 92.8887 57.0943 43.5292 39.4258 33.1543 31.5167 27.2102 25.6928 25.5179 24.7495
threshold=1.5545919951050327 2.5000000000000004 1.0000000180025095e-35 -0.45179665319117174 1.0000000180025095e-35 3.5000000000000004 4.5000000000000009 1.5000000000000002 1.0000000180025095e-35 -0.76701510374969906 4.5000000000000009 1.0000000180025095e-35 1.2073145141141086 76.500000000000014 3.5000000000000004 1.5000000000000002 0.28121628348873834 -0.63298615818169257 -0.79096036212348564 -1.1962151517951807 -1.0000000180025095e-35 76.500000000000014 479.50000000000006 1.4378792364952018 1.389128252631624 1.4395281120934464 1.0371422900707137 78.500000000000014 0.67401329417339506 3.5000000000000004
decision_type=2 2 2 2 2 2 2 2 2 2 2 2 2 2 2 2 2 2 2 2 2 2 2 2 2 2 2 2 2 2
left_child=1 9 -2 4 25 7 -7 8 -5 10 18 -12 -4 -6 -14 24 -11 -8 19 20 -1 -18 -22 27 29 -3 -20 -23 -21 -15
right_child=2 3 12 5 13 6 17 -9 -10 16 11 -13 14 15 -16 -17 21 -19 26 28 22 23 -24 -25 -26 -27 -28 -29 -30 -31
leaf_value=-2.5454145259198859 4.8523800824270555 4.8300777862939137 -2.1777579914783223 -1.2490466821322368 -1.7273157545985329 4.4740107076617637 2.8825419873451139 -1.7483556255655015 3.7119470465925017 -2.7719404399774654 4.0886395150875741 -1.3059922758588705 -1.0548480766487569 1.8481203681979006 3.1017925672409756 -1.8372039638079782 -2.6694669132776951 -1.2960992646662961 -0.95331800729147487 -2.3981802362363065 4.894775087278247 -0.42313093133550117 -0.14166095857895189 -0.75757535105311158 -1.3279289528511009 1.3002938715513557 2.4598039411406747 -2.2874014073814992 -1.7520607854598222 4.3018624914102315
leaf_weight=7.3922847211360931 249.24319984763861 113.34836572408676 99.549434244632721 48.173055432736874 15.523797914385794 39.055904276669025 3.9425518512725821 85.627298019826412 44.723322562873363 2398.1803682819009 12.074065044522287 9.1171511560678464 13.182907752692701 14.168545715510854 7.269079975783824 6.2834420129656783 564.27773371338844 31.417210064828396 24.024925343692306 267.60070690512657 3.6961423605680448 7.5154894664883605 3.2033233791589737 18.234302312135696 2.4640949070453635 2.5872996523976317 2.5872996523976317 451.91500595211983 79.220651261508465 5.7906230315566054
leaf_count=60 2023 920 808 391 126 317 32 695 363 19465 98 74 107 115 59 51 4580 255 195 2172 30 61 26 148 20 21 21 3668 643 47
internal_value=-1.78313 -2.18285 2.71167 1.60207 3.49831 0.401339 1.95364 -0.24572 1.13934 -2.58907 -1.86056 1.76769 -1.73459 0.213993 0.422512 1.2638 -2.67567 -0.830188 -2.05886 -2.16479 -0.0824552 -2.45409 2.55643 -2.19967 2.13276 4.7513 -0.621487 -2.25691 -2.25059 2.56001
internal_weight=0 4262.14 369.245 413.106 160.166 252.939 74.4157 178.524 92.8964 3849.04 408.917 21.1912 120.001 44.2305 20.452 28.7067 3440.12 35.3598 387.725 361.113 14.2918 1041.94 6.89947 477.665 22.4233 115.936 26.6122 459.43 346.821 19.9592
internal_count=37591 34594 2997 3353 1300 2053 604 1449 754 31241 3319 172 974 359 166 233 27922 287 3147 2931 116 8457 56 3877 182 941 216 3729 2815 162
is_linear=0
shrinkage=1


Tree=1
num_leaves=31
num_cat=0
split_feature=10 14 12 8 12 13 13 13 13 4 13 12 0 9 12 16 9 3 1 16 7 13 16 4 9 5 9 16 16 5
split_gain=8439.5 6683.93 3534.4 923.174 638.729 218.02 547.761 395.04 625.557 159.152 159.388 159.381 129.422 102.83 76.2624 75.8216 75.424 64.407 89.8547 66.3572 63.6181 46.5718 45.2598 33.3565 31.7087 31.3013 29.6938 27.6977 27.2998 26.9946
threshold=1.5545919951050327 2.5000000000000004 1.0000000180025095e-35 -0.65940519176820822 1.0000000180025095e-35 3.5000000000000004 4.5000000000000009 1.5000000000000002 1.0000000180025095e-35 0.51574132262787054 4.5000000000000009 1.0000000180025095e-35 -0.59570726306402966 1.2073145141141086 1.5000000000000002 47.500000000000007 0.14413771909543371 0.73071822648642815 0.0075623848150442067 198.50000000000003 0.50326488860780871 1.0000000180025095e-35 76.500000000000014 -0.28550916962263012 1.4378792364952018 -0.032707282333061832 0.39774821677428002 78.500000000000014 530.50000000000011 3.5652865280214376
decision_type=2 2 2 2 2 2 2 2 2 2 2 2 2 2 2 2 2 2 2 2 2 2 2 2 2 2 2 2 2 2
left_child=1 9 -2 4 -3 7 -7 8 -5 16 17 20 -8 -4 15 -6 29 26 -19 -20 -12 -15 -18 -17 27 -14 -11 -24 -21 -1
right_child=2 3 13 5 14 6 12 -9 -10 10 11 -13 25 21 -16 23 22 18 19 28 -22 -23 24 -25 -26 -27 -28 -29 -30 -31
leaf_value=-2.7886841528637945 4.8611023056641907 4.7277533408201355 -2.1870875591218635 -1.186771205248923 -1.5443708325077738 4.3806438852236855 5.1653274368490862 -1.6917752160670596 3.8582433584029445 -2.4621088589616327 3.781821103816374 -1.929156396341859 -2.2211811546087987 -2.3714880154814875 -2.4028261254703884 0.80075651452702634 -2.6469096986779013 -2.3321825893937143 -2.3500156067853895 4.5245455562865686 -1.5396655742543679 1.0760629166180522 -0.45383674654530659 3.2376419461568418 -0.89181471772198384 0.03279021704930507 -1.9041831795674029 -2.3279337975086003 0.81716467588913866 0.36917214900235718
leaf_weight=2110.0044689029455 256.38907507807016 116.55168910324574 96.83892984688282 51.006764575839043 9.2403559014201146 40.78077071160078 3.0801186338067046 85.75050276517868 47.433826960623264 327.10859891027212 10.842017590999605 16.63264062255621 23.285696871578693 5.1745993047952679 9.1171511560678464 13.059703007340429 657.17411170899868 14.538159951567652 3.326528124511241 4.6817803233861905 2.8337091431021681 16.139821641147137 8.0083084478974325 9.8563796281814593 16.509435877203941 8.3779226839542407 134.66278667002916 516.59749726206064 3.4497328698635101 2.7105043977498999
leaf_count=17126 2081 946 786 414 75 331 25 696 385 2655 88 135 189 42 74 106 5334 118 27 38 23 131 65 80 134 68 1093 4193 28 22
internal_value=-1.78313 -2.17604 2.77575 1.62316 3.53061 0.464031 1.89487 -0.122659 1.24418 -2.59032 -2.07492 0.150211 -1.02284 -1.74942 0.150014 0.873807 -2.67097 -2.21319 -0.681681 1.4125 2.67917 0.239085 -2.47056 1.84888 -2.25638 -1.6248 -2.29941 -2.29932 2.95172 -2.78463
internal_weight=0 4246.62 374.542 417.541 157.825 259.716 75.5245 184.191 98.4406 3829.08 518.076 30.3084 34.7437 118.153 41.2736 32.1564 3311 487.768 25.9962 11.458 13.6757 21.3144 1198.29 22.9161 541.115 31.6636 461.771 524.606 8.13151 2112.71
internal_count=37508 34468 3040 3389 1281 2108 613 1495 799 31079 4205 246 282 959 335 261 26874 3959 211 93 111 173 9726 186 4392 257 3748 4258 66 17148
is_linear=0
shrinkage=1


Tree=2
num_leaves=31
num_cat=0
split_feature=1 9 12 8 12 6 13 13 13 13 13 9 12 0 9 9 9 9 9 16 12 4 9 9 16 6 1 9 9 6
split_gain=8401.93 4904.55 3308.47 797.31 629.605 269.049 256.797 170.577 323.34 313.016 511.358 152.565 144.202 132.957 121.944 204.614 115.558 99.5103 79.1214 72.6045 74.5222 69.7677 67.4369 60.0733 60.0698 60.6623 57.1664 53.6788 81.8099 52.8927
threshold=1.5367886032274958 1.2073145141141086 1.0000000180025095e-35 -0.66644444418183379 1.0000000180025095e-35 -0.76701510374969906 4.5000000000000009 3.5000000000000004 4.5000000000000009 1.5000000000000002 1.0000000180025095e-35 1.2073145141141086 1.0000000180025095e-35 -0.59570726306402966 1.3522425534371176 1.2933319211722456 0.60831107290320319 0.43059735594559129 1.5241409678362174 76.500000000000014 1.5000000000000002 2.7886407166264613 1.3522425534371176 1.2933319211722456 76.500000000000014 0.42074749990619625 1.5862336113674254 1.2933319211722456 1.3522425534371176 -0.79096036212348564
decision_type=2 2 2 2 2 2 2 2 2 2 2 2 2 2 2 2 2 2 2 2 2 2 2 2 2 2 2 2 2 2
left_child=1 5 26 4 14 6 17 9 18 10 -5 -4 -8 -10 15 -3 -7 -1 27 -6 -21 29 23 -12 -18 -26 -2 -9 -29 -19
right_child=2 3 11 7 19 16 12 8 13 -11 22 -13 -14 -15 -16 -17 24 21 -20 20 -22 -23 -24 -25 25 -27 -28 28 -30 -31
leaf_value=-2.2918627728211804 2.4272072725176823 4.4533475695573976 -2.1164532727899092 -1.4643713015570854 -1.9172850264385382 -2.7367065374905515 4.030753067681041 4.4889465629219787 4.8754499194517562 -1.8710526993776402 3.1361848150677787 0.84598290861285075 -1.4755029617079234 -1.6489574870433676 4.3402630925415657 -1.2243131593984384 -2.5516849630551066 -1.5899519093081071 4.240122510855536 1.4882071056652781 -2.1528918548212066 2.2794357080934473 3.4363538419585042 -1.9366717393854933 -1.6459466269080545 -2.6279181270252798 4.8396997947207332 -2.4219014967679802 2.5430508179317028 0.73810717114441293
leaf_weight=274.50017264485359 10.22599386423826 14.045340970158579 99.426229499280453 57.167001843452454 19.34314502030611 2736.1309847831726 11.458041317760946 4.4353708326816585 3.4497328698635092 99.056615263223648 4.4353708326816541 21.068011455237865 8.1315131932497007 33.018871754407883 96.962134592235088 11.581246063113211 342.87880631536245 97.701363064348698 23.778515852987766 22.300058908760551 7.5154894664883605 5.544213540852069 41.643203929066658 4.9281898140907288 210.68011455237865 89.693054616451263 248.75038086622953 5.6674182862043372 8.0083084478974325 10.842017590999601
leaf_count=2228 83 114 807 464 157 22208 93 36 28 804 36 171 66 268 787 94 2783 793 193 181 61 45 338 40 1710 728 2019 46 65 88
internal_value=-1.78313 -2.18091 2.73036 0.912437 2.61507 -2.55442 -1.78753 -0.111494 1.14533 -0.586725 0.589357 -1.59848 1.74514 -1.03178 3.82752 1.88748 -2.64705 -1.96562 3.0407 -0.408458 0.570409 -1.18067 2.89112 0.46626 -2.26566 -1.93917 4.74444 1.46594 0.485503 -1.35741
internal_weight=0 4244.9 379.471 457.336 171.747 3787.56 408.177 285.589 78.3582 207.23 108.174 120.494 19.5896 36.4686 122.589 25.6266 3379.38 388.588 41.8896 49.1587 29.8155 114.088 51.0068 9.36356 643.252 300.373 258.976 18.1111 13.6757 108.543
internal_count=37534 34454 3080 3712 1394 30742 3313 2318 636 1682 878 978 159 296 995 208 27429 3154 340 399 242 926 414 76 5221 2438 2102 147 111 881
is_linear=0
shrinkage=1


Tree=3
num_leaves=31
num_cat=0
split_feature=10 14 12 8 12 6 13 13 13 13 13 12 0 14 9 16 6 7 6 16 12 13 16 13 3 6 6 9 6 13
split_gain=8388.68 6675.45 3462.02 990.328 677.854 253.959 282.003 226.535 469.481 381.67 645.844 122.592 114.545 96.1318 79.3968 74.8947 74.2322 99.217 70.0864 62.7619 54.9976 52.5732 49.3122 45.1295 42.7369 38.6177 38.3266 37.5756 33.0106 32.3987
threshold=1.5545919951050327 2.5000000000000004 1.0000000180025095e-35 -0.45179665319117174 1.0000000180025095e-35 -0.76701510374969906 4.5000000000000009 3.5000000000000004 4.5000000000000009 1.5000000000000002 1.0000000180025095e-35 1.0000000180025095e-35 -0.59570726306402966 2.5000000000000004 0.19043967238642806 76.500000000000014 -1.1962151517951807 -1.209101377640555 -0.78139322540869027 76.500000000000014 1.5000000000000002 3.5000000000000004 78.500000000000014 4.5000000000000009 0.58046708627149524 1.389128252631624 0.6191547233832333 1.4378792364952018 -0.63298615818169257 3.5000000000000004
decision_type=2 2 2 2 2 2 2 2 2 2 2 2 2 2 2 2 2 2 2 2 2 2 2 2 2 2 2 2 2 2
left_child=1 5 -2 4 -3 6 16 9 -9 10 -5 -8 -10 -4 -7 -6 17 -1 -18 -16 25 -15 -21 -23 -19 29 27 -24 -14 -17
right_child=2 3 13 7 15 14 11 8 12 -11 -12 -13 28 21 19 20 18 24 -20 22 -22 23 26 -25 -26 -27 -28 -29 -30 -31
leaf_value=-2.6560950325625026 4.8330015739369259 4.8172318406439247 -2.1457818568973077 -1.3609735146307456 -1.6661193898146522 -2.7874387407476924 3.8265116863954374 4.324776447891133 5.1653274368490862 -1.6919725938815415 3.8445206909126961 -1.0610827998497232 2.0733005846108963 -0.92210042849483942 -2.6816366879415683 1.4759772154285227 -2.2320176973152406 -0.92210042849483886 -0.4092402054072557 0.13534009271513847 -1.6886654189455557 4.4696213950954951 -2.1541508099418261 -0.73763291742381143 4.0831180385657211 -1.7917329806868285 -2.6896345800299626 -0.50227781709180985 -1.6567899984501406 4.3018624914102315
leaf_weight=6.7762609943747512 255.77305135130882 117.78373655676842 96.83892984688282 48.41946492344141 14.784569442272185 2240.4782942309976 11.950860299170019 38.07026631385088 2.9569138884544364 87.352164454758167 46.941007979214191 8.9939464107155782 2.5872996523976353 13.306112498044969 634.25802907347679 13.552521988749513 355.93850932270288 2.4640949070453626 22.423263654112816 8.7475369200110418 5.544213540852069 4.3121660873293868 377.62254450470209 2.7105043977499008 5.5442135408520699 2.5872996523976317 149.07774187624454 14.291750460863112 28.583500921726227 5.7906230315566054
leaf_count=55 2076 956 786 393 120 18185 97 309 24 709 381 73 21 108 5148 110 2889 20 182 71 45 35 3065 22 45 21 1210 116 232 47
internal_value=-1.78313 -2.17542 2.77085 1.63481 3.5845 -2.58731 -1.84762 0.41072 1.91039 -0.181867 1.20142 1.72772 -0.782917 -1.73077 -2.67675 0.148672 -2.0381 0.160109 -2.12399 -2.46729 1.12524 0.246194 -2.21999 2.4598 2.54305 1.83662 -2.25807 -2.09391 -1.34718 2.32194
internal_weight=0 4253.52 372.941 414.954 160.043 3838.57 414.091 254.911 72.198 182.713 95.3605 20.9448 34.1277 117.168 3424.48 42.2592 393.146 14.7846 378.362 1184 27.4747 20.3288 549.74 7.02267 8.00831 21.9304 540.992 391.914 31.1708 19.3431
internal_count=37551 34524 3027 3368 1299 31156 3361 2069 586 1483 774 170 277 951 27795 343 3191 120 3071 9610 223 165 4462 57 65 178 4391 3181 253 157
is_linear=0
shrinkage=1


Tree=4
num_leaves=31
num_cat=0
split_feature=1 14 8 3 6 13 13 13 13 13 6 16 16 1 0 6 16 16 6 1 9 16 6 2 9 16 16 4 14 16
split_gain=8526.32 6265.78 1003.67 311.454 255.297 311.346 224.973 555.619 351.56 575.15 189.882 139.356 127.014 117.362 110.253 89.0256 119.54 75.7958 72.3161 104.461 71.3011 67.9421 54.962 53.2791 51.6592 51.0185 44.6361 63.2512 41.6283 40.2906
threshold=1.5367886032274958 2.5000000000000004 -0.45179665319117174 -0.68304693199866062 -0.76701510374969906 4.5000000000000009 3.5000000000000004 4.5000000000000009 1.5000000000000002 1.0000000180025095e-35 1.1868032978242142 44.500000000000007 5.5000000000000009 2.1301380947790842 -0.59570726306402966 -0.11964497448098628 66.500000000000014 47.500000000000007 -1.1962151517951807 -0.038451002431840693 0.63510755627194626 21.500000000000004 -0.78139322540869027 -0.19233661880232425 0.95063620311466379 9.5000000000000018 5.5000000000000009 1.9922874046633197 2.5000000000000004 76.500000000000014
decision_type=2 2 2 2 2 2 2 2 2 2 2 2 2 2 2 2 2 2 2 2 2 2 2 2 2 2 2 2 2 2
left_child=1 4 10 12 5 18 8 -8 9 -4 15 21 -2 24 -9 -3 25 -13 19 -1 -6 26 -20 28 -14 -17 -5 -28 -19 -22
right_child=3 2 6 11 20 -7 7 14 -10 -11 -12 17 13 -15 -16 16 -18 23 22 -21 29 -23 -24 -25 -26 -27 27 -29 -30 -31
leaf_value=-2.7855987546205307 4.6083078936150015 4.2860323007438526 -1.348477232565342 3.9101876707987904 -2.7495004330618746 1.8449122375705811 4.4226347125369729 5.1653274368490862 -1.8156404048020722 3.652068532469805 -0.84304292375011292 -2.2454543122652577 0.046162648288772701 2.2711718249060251 -1.6191341535342199 3.947841863780301 3.5652866598172297 2.9737022587612669 -2.2215687163068885 2.8869918615156882 -2.6167998757720259 4.9406991023345501 -0.54989083515033887 2.1855954787377954 2.8089037470385341 -1.159272942729018 -2.6265802307911383 3.6622588281221899 4.3830073898972568 -2.1263112367482324
leaf_weight=6.0370325222611427 12.566884025931357 103.4919860959053 48.665874414145947 11.950860299170019 2731.2027949690819 21.684035181999207 37.700652077794075 2.5872996523976317 83.656022094190121 43.61447985470295 9.4867653921246511 2.8337091431021681 59.384687259793282 61.848782166838646 32.279643282294273 2.4640949070453635 34.374123953282833 66.160948254168034 354.95287135988474 7.0226704850792867 355.81530457735062 66.776971980929375 20.821601964533329 54.702906936407089 7.6386942118406287 9.4867653921246511 3.0801186338067046 3.3265281245112419 30.677981592714787 316.38978606462479
leaf_count=49 102 840 395 97 22168 176 306 21 679 354 77 23 482 502 262 20 279 537 2881 57 2888 542 169 444 62 77 25 27 249 2568
internal_value=-1.78313 -2.18947 1.53617 2.75031 -2.58784 -1.84289 0.280094 1.7616 -0.330978 1.01493 3.49556 3.44515 1.57367 1.27775 -1.11569 3.77029 2.61811 2.8787 -2.04854 0.264757 -2.67769 4.47231 -2.12894 2.97451 0.361034 -0.10626 2.76849 0.638779 3.42016 -2.38594
internal_weight=0 4221.73 407.808 380.949 3813.93 410.518 248.504 72.5676 175.936 92.2804 159.304 239.51 141.439 128.872 34.8669 149.817 46.325 154.376 388.834 13.0597 3403.41 85.1345 375.774 151.542 67.0234 11.9509 18.3575 6.40665 96.8389 672.205
internal_count=37358 34266 3310 3092 30956 3332 2017 589 1428 749 1293 1944 1148 1046 283 1216 376 1253 3156 106 27624 691 3050 1230 544 97 149 52 786 5456
is_linear=0
shrinkage=1


Tree=5
num_leaves=31
num_cat=0
split_feature=10 9 12 8 12 6 16 6 12 9 9 9 9 9 6 16 12 4 6 16 6 9 9 6 9 1 10 1 4 8
split_gain=8317.65 5251.4 3576.01 807.638 599.675 260.152 189.123 159.342 141.59 124.773 121.399 186.849 111.707 97.9078 83.3948 78.7167 76.7035 69.0627 61.0419 58.7136 58.1879 55.6071 52.1758 49.2153 47.8075 40.7958 38.2584 33.1676 33.0057 31.0611
threshold=1.5545919951050327 1.2073145141141086 1.0000000180025095e-35 -0.45179665319117174 1.0000000180025095e-35 -0.76701510374969906 156.50000000000003 -0.11964497448098628 1.5000000000000002 0.48987269449851234 1.3522425534371176 1.2933319211722456 0.60831107290320319 1.2073145141141086 1.1386556468632671 76.500000000000014 1.5000000000000002 2.9242780960842438 1.5239952216041652 76.500000000000014 0.4114798547166873 1.085568183370887 1.1288227042962971 -0.79096036212348564 1.5103385271145806 -1.1731695944534202 0.34001309787153994 1.3916219853376297 -0.7762470915933305 -0.42973128220119022
decision_type=2 2 2 2 2 2 2 2 2 2 2 2 2 2 2 2 2 2 2 2 2 2 2 2 2 2 2 2 2 2
left_child=1 5 -2 4 10 9 7 24 14 -1 11 -3 -7 -4 25 -6 18 23 -17 -14 21 -21 29 -11 -5 -8 -13 -27 -12 -23
right_child=2 3 13 6 15 12 8 -9 -10 17 28 26 19 -15 -16 16 -18 -19 -20 20 -22 22 -24 -25 -26 27 -28 -29 -30 -31
leaf_value=-2.1703995564759202 4.8269749536771194 4.4595386988381946 -2.2272775922536709 -0.81172865408832451 -1.9366717393854933 -2.7417737819135803 -0.81530344840108615 -1.8010688105546975 -2.2066035560444748 -1.3185456343688751 2.1415070592926266 -1.8065984943995121 -2.5595277961068672 0.17803713753117134 -1.2777233622090891 2.1626655225368605 -2.1395860015636243 2.9107245237587431 -2.3714880154814879 -1.9033833796843735 -2.6283616454385181 3.084155517073385 -1.4293860839401664 0.88405948759621533 0.78161365960456108 1.5434169506587934 2.2433620614840022 4.1755017676874724 4.5095515431873121 -0.12274121385371783
leaf_weight=285.58859972655773 257.12830355018377 14.168545715510847 98.070977300405502 29.445934139192104 17.741483330726624 2749.8067115172744 7.0226704850792876 76.510146863758564 13.429317243397234 106.57210472971201 6.2834420129656783 9.6099701374769193 347.19097240269184 20.451987728476524 11.950860299170015 21.314420945942405 7.3922847211360923 4.435370832681655 3.4497328698635092 172.73305298388004 89.816259361803532 4.8049850687384597 23.655311107635498 11.211631827056406 52.238812029361725 91.664330542087555 3.0801186338067046 5.0513945594429961 93.019582740962505 8.1315131932497007
leaf_count=2318 2087 115 796 239 144 22319 57 621 109 865 51 78 2818 166 97 173 60 36 28 1402 729 39 192 91 424 744 25 41 755 66
internal_value=-1.78313 -2.17605 2.73222 1.00237 2.68889 -2.56322 -0.0310875 -0.764068 0.866953 -1.80855 3.84956 1.96338 -2.65385 -1.81222 1.22373 -0.24572 0.68722 -0.963011 1.53104 -2.27976 -1.95506 -1.66616 -0.546333 -1.10888 0.207241 1.51191 -0.823598 1.68089 4.35971 1.06839
internal_weight=0 4267.32 375.651 463.373 176.06 3803.95 287.313 158.195 129.119 407.808 126.162 26.8586 3396.14 118.523 115.689 49.8979 32.1564 122.219 24.7642 646.332 299.141 209.325 36.5918 117.784 81.6847 103.738 12.6901 96.7157 99.303 12.9365
internal_count=37685 34636 3049 3761 1429 30875 2332 1284 1048 3310 1024 218 27565 962 939 405 261 992 201 5246 2428 1699 297 956 663 842 103 785 806 105
is_linear=0
shrinkage=1


Tree=6
num_leaves=31
num_cat=0
split_feature=10 14 12 8 12 13 13 13 13 6 13 12 9 16 9 12 6 6 6 7 16 13 6 16 3 9 6 13 6 9
split_gain=8229.21 6514.97 3541.6 961.08 671.745 251.001 521.793 374.31 559.094 240.263 262.117 139.145 112.046 100.634 78.4806 73.7712 70.3511 62.2001 66.3052 102.083 59.207 47.6454 45.9498 41.3635 39.6987 36.0774 33.7944 33.7581 27.98 27.6655
threshold=1.5545919951050327 2.5000000000000004 1.0000000180025095e-35 -0.45179665319117174 1.0000000180025095e-35 3.5000000000000004 4.5000000000000009 1.5000000000000002 1.0000000180025095e-35 -0.76701510374969906 4.5000000000000009 1.0000000180025095e-35 1.4904214383852199 76.500000000000014 0.19043967238642806 1.5000000000000002 -0.63298615818169257 -0.78139322540869027 -1.1962151517951807 -1.209101377640555 76.500000000000014 3.5000000000000004 1.389128252631624 80.500000000000014 0.75400419565137822 1.4378792364952018 1.4395281120934464 1.0000000180025095e-35 0.6688404322157927 1.0000000180025095e-35
decision_type=2 2 2 2 2 2 2 2 2 2 2 2 2 2 2 2 2 2 2 2 2 2 2 2 2 2 2 2 2 2
left_child=1 9 -2 4 26 7 -7 8 -5 10 17 -12 -4 -6 -11 22 -8 18 19 -1 -16 -14 27 -22 -21 28 -3 -15 -25 -20
right_child=2 3 12 5 13 6 16 -9 -10 14 11 -13 21 15 20 -17 -18 -19 29 24 23 -23 -24 25 -26 -27 -28 -29 -30 -31
leaf_value=-2.6761050676617328 4.8237011028481689 4.8501208159898539 -2.0933941370027487 -1.3192248558139692 -1.9039436325825692 4.4067694473981298 3.0707286014619291 -1.7470728210878106 3.6069459033210416 -2.7790665619588415 3.8265116863954374 -1.4438799598100327 -0.51627190413857793 -0.15242564092262367 -2.6703331281579308 -2.0289054949210072 -1.4909395735130302 -0.41198077497439867 -2.5145552550577888 -0.36869789528175456 -0.53051150148441129 3.0479612228164168 -1.598481302421942 -2.1774994385387565 4.4889465629219822 -0.89504519353775513 1.1070421932864691 3.2446122834072373 -2.6969379697395865 -1.958144148081592
leaf_weight=7.2690799757838249 254.66420864313841 114.21079894155264 106.07928574830294 45.955370016396046 15.277388423681257 39.548723258078098 3.8193471059203139 86.366526491940022 46.201779507100582 2224.4616773352027 11.950860299170019 8.6243321746587736 11.088427081704141 3.5729376152157881 637.21494296193123 5.4210087954998007 29.445934139192104 22.053649418056011 171.7474150210619 2.710504397749899 14.045340970158575 5.6674182862043372 2.9569138884544364 387.72533362358809 4.4353708326816559 18.480711802840233 2.4640949070453635 16.139821641147137 141.56225240975618 186.28557497262955
leaf_count=59 2067 927 861 373 124 321 31 701 375 18055 97 70 90 29 5172 44 239 179 1394 22 114 46 24 3147 36 150 20 131 1149 1512
internal_value=-1.78313 -2.17547 2.69645 1.60658 3.52202 0.386895 1.95166 -0.251321 1.15045 -2.58079 -1.86229 1.61737 -1.71381 0.161646 -2.66791 1.28504 -0.967192 -2.04377 -2.14039 -0.0376024 -2.46168 0.689278 2.0775 -2.22502 2.64639 -2.26847 4.77107 2.6289 -2.31643 -2.22505
internal_weight=0 4249.95 377.499 411.381 160.043 251.338 72.814 178.524 92.1571 3838.57 415.077 20.5752 122.835 43.3681 3423.49 28.0907 33.2653 394.502 372.448 14.415 1199.03 16.7558 22.6697 561.814 7.14588 547.768 116.675 19.7128 529.288 358.033
internal_count=37559 34495 3064 3339 1299 2040 591 1449 748 31156 3369 167 997 352 27787 228 270 3202 3023 117 9732 136 184 4560 58 4446 947 160 4296 2906
is_linear=0
shrinkage=1


Tree=7
num_leaves=31
num_cat=0
split_feature=10 14 12 8 12 4 14 5 12 9 4 9 12 1 4 5 11 5 4 0 7 3 7 9 5 2 4 11 0 9
split_gain=8516.11 6517.56 3443.64 973.034 708.391 170.744 131.816 114.026 101.24 90.3236 83.3303 80.9692 80.9541 51.5633 50.2783 45.2763 41.1515 32.9938 32.7793 32.7085 29.5804 28.0886 27.4808 27.151 24.3282 23.874 23.314 22.1038 20.8308 20.7164
threshold=1.5545919951050327 2.5000000000000004 1.0000000180025095e-35 -0.65940519176820822 1.0000000180025095e-35 0.51574132262787054 2.5000000000000004 -0.66573531219996951 1.5000000000000002 0.12525812746320072 2.9242780960842438 0.28121628348873834 1.5000000000000002 1.2057804473481988 -0.058602847730706578 0.3908187724646624 -0.6974631278592297 -0.24402157703168278 1.6452641241520654 -0.59127588683097076 -1.0102753921908707 0.73071822648642815 -0.21587553246285227 1.0015658904643463 3.5652865280214376 0.69071461255544209 1.7931554700223586 -0.69871530067491416 0.40315787546963933 2.0960603886239708
decision_type=2 2 2 2 2 2 2 2 2 2 2 2 2 2 2 2 2 2 2 2 2 2 2 2 2 2 2 2 2 2
left_child=1 5 -2 4 -3 11 -4 29 13 -7 18 24 14 15 -6 19 -17 -13 23 25 -20 -12 -22 -11 -1 -9 -24 -27 -15 -5
right_child=2 3 6 7 12 9 -8 8 -10 10 21 17 -14 28 -16 16 -18 -19 20 -21 22 -23 26 -25 -26 27 -28 -29 -30 -31
leaf_value=-2.7777524458789489 4.824880247684634 4.8217688977115101 -2.1467147334845622 -0.53171569576312883 -0.023955333608030704 -2.4168186560621403 0.54650555743527884 0.55591703675327442 -2.417258149807382 -2.0775844214536399 -0.33299450604220127 -2.5902378934748764 -2.4439573948308206 3.4008555918218599 2.6171018187981403 3.3510352103152101 1.1070421932864691 -2.2247670530012842 1.4192179812528243 0.074614427324139365 -1.9095441642279893 3.4436306668528234 1.8232101774445748 -1.0615071735027155 0.092470882395814913 4.068493587237568 -0.9221004284948392 1.3775945428573102 0.89344823309896282 -2.224385991727619
leaf_weight=2294.0723584592342 258.48355574905872 116.42848435789347 98.194182045757771 58.275844551622868 22.546468399465084 299.38753120601177 22.300058908760548 19.959168747067451 9.3635606467723829 141.93186664581299 3.8193471059203139 578.93909841030836 9.8563796281814557 11.334836572408678 10.595608100295065 10.472403354942797 37.207833096385002 430.84699449688196 4.8049850687384597 77.002965845167637 23.039287380874157 4.0657565966248512 4.1889613419771221 32.279643282294273 2.9569138884544364 4.5585755780339232 11.827655553817747 9.2403559014201146 4.6817803233861914 8.2547179386019689
leaf_count=18620 2098 945 797 473 183 2430 181 162 76 1152 31 4699 80 92 86 85 302 3497 39 625 187 33 34 262 24 37 96 75 38 67
internal_value=-1.78313 -2.18084 2.76677 1.60975 3.54076 -2.58617 -1.64828 0.380066 0.786079 -2.05659 -1.5793 -2.67031 0.0721213 0.958009 0.820398 0.785156 1.59991 -2.4343 -1.69478 0.434423 -0.9221 1.61433 -1.21015 -1.88932 -2.77406 1.25515 -0.204096 2.26655 2.66792 -0.741732
internal_weight=0 4241.94 378.978 409.779 159.427 3832.16 120.494 250.352 183.821 525.345 225.958 3306.82 42.9985 174.458 33.1421 158.441 47.6802 1009.79 218.072 110.761 43.8609 7.8851 39.0559 174.212 2297.03 33.7581 16.0166 13.7989 16.0166 66.5306
internal_count=37506 34430 3076 3326 1294 31104 978 2032 1492 4264 1834 26840 349 1416 269 1286 387 8196 1770 899 356 64 317 1414 18644 274 130 112 130 540
is_linear=0
shrinkage=1


Tree=8
num_leaves=31
num_cat=0
split_feature=10 14 12 8 12 13 13 13 13 6 13 12 9 0 6 1 6 9 12 6 6 6 13 0 13 9 9 12 6 9
split_gain=8391.04 6515.19 3481.03 967.911 685.26 281.529 536.295 380.596 591.387 257.673 276.49 146.272 116.579 108.912 80.5157 97.1289 76.1439 71.8125 69.1125 57.0719 48.1227 45.2269 64.8624 93.9871 43.2606 39.6856 32.3441 27.5222 27.2884 26.763
threshold=1.5545919951050327 2.5000000000000004 1.0000000180025095e-35 -0.65940519176820822 1.0000000180025095e-35 3.5000000000000004 4.5000000000000009 1.5000000000000002 1.0000000180025095e-35 -0.76701510374969906 4.5000000000000009 1.0000000180025095e-35 1.4904214383852199 -0.59570726306402966 -1.1962151517951807 -0.038451002431840693 -0.79096036212348564 0.14413771909543371 1.5000000000000002 -0.11964497448098628 -0.63298615818169257 -0.12453939564475353 4.5000000000000009 -0.59708883346168939 3.5000000000000004 0.019068024320445947 0.016712107217328784 1.0000000180025095e-35 -0.32517094295937726 0.33359932021641192
decision_type=2 2 2 2 2 2 2 2 2 2 2 2 2 2 2 2 2 2 2 2 2 2 2 2 2 2 2 2 2 2
left_child=1 9 -2 4 -3 7 -7 8 27 10 14 -12 -4 -8 15 -1 26 -11 19 28 -15 22 -19 -24 -14 -17 -16 -5 -6 -18
right_child=2 3 12 5 18 6 13 -9 -10 17 11 -13 24 20 16 25 29 21 -20 -21 -22 -23 23 -25 -26 -27 -28 -29 -30 -31
leaf_value=-2.7855987546205303 4.8651525672522409 4.742148579334736 -2.0861235612292663 -0.62711493722266654 1.320636153473975 4.4910277348417589 5.1653274368490862 -1.8181605606204883 3.7303536490700395 -2.7838817551225397 4.0546388438740522 -1.3507925316880733 -0.44612870239798919 2.5827822818546879 -2.5509261356145028 -0.92210042849483831 -1.4690867004532788 -2.3632645398106416 -2.3187830123183373 -0.21479928604535448 -1.8268696494622625 -2.6476622320563985 4.7788240803193132 -1.447214014323229 2.9670895965860025 3.8401730716041493 -1.9456502465615169 -2.1258291024329035 4.4889465629219849 0.50581474979571106
leaf_weight=6.0370325222611436 253.18575169891119 118.15335079282522 102.87596236914396 27.967477194964886 7.0226704850792885 40.041542239487171 2.7105043977498999 86.48973123729229 44.600117817521095 2210.7859506011009 11.704450808465483 8.7475369200110418 9.979584373533724 2.7105043977499035 172.36343874782324 2.4640949070453608 14.168545715510847 486.41233465075493 9.4867653921246511 21.560830436646938 28.460296176373959 711.50740440934896 2.5872996523976317 38.563085295259953 5.9138277769088736 6.0370325222611427 180.98777092248201 21.807239927351475 4.4353708326816541 13.306112498044966
leaf_count=49 2055 959 835 227 57 325 22 702 362 17944 95 71 81 22 1399 20 115 3948 77 175 231 5775 21 313 48 49 1469 177 36 108
internal_value=-1.78313 -2.18182 2.76988 1.58123 3.50342 0.369172 2.01339 -0.302853 1.08585 -2.58624 -1.84258 1.74268 -1.69671 -0.914722 -2.02804 0.281628 -2.11622 -2.67587 0.0601222 0.743614 -1.44342 -2.48315 -2.26128 -1.05576 0.823906 2.4598 -2.2409 -1.28373 2.54708 -0.512632
internal_weight=0 4281.12 371.955 415.446 160.659 254.787 73.9228 180.865 94.3748 3865.67 415.816 20.452 118.769 33.8813 395.364 14.5382 380.826 3449.86 42.5056 33.0189 31.1708 1239.07 527.563 41.1504 15.8934 8.50113 353.351 49.7747 11.458 27.4747
internal_count=37767 34748 3019 3372 1304 2068 600 1468 766 31376 3375 166 964 275 3209 118 3091 28001 345 268 253 10057 4282 334 129 69 2868 404 93 223
is_linear=0
shrinkage=1


Tree=9
num_leaves=31
num_cat=0
split_feature=10 14 12 8 12 13 13 13 13 6 13 12 0 14 6 7 6 12 14 16 16 13 6 6 3 6 6 5 13 13
split_gain=8214.63 6518.46 3459.93 940.597 699.132 253.031 505.958 356.966 613.776 251.247 259.633 150.366 120.6 118.686 70.4843 88.8063 76.8915 69.2448 67.7287 65.3703 47.8721 45.8074 43.4211 42.7313 37.8848 37.8209 32.8701 30.3646 27.2558 49.293
threshold=1.5545919951050327 2.5000000000000004 1.0000000180025095e-35 -0.65940519176820822 1.0000000180025095e-35 3.5000000000000004 4.5000000000000009 1.5000000000000002 1.0000000180025095e-35 -0.76701510374969906 4.5000000000000009 1.0000000180025095e-35 -0.59570726306402966 2.5000000000000004 -1.1962151517951807 -1.2229066702968419 -0.79096036212348564 1.5000000000000002 1.5000000000000002 76.500000000000014 76.500000000000014 1.0000000180025095e-35 -0.63298615818169257 1.5785353930772599 0.75400419565137822 0.42074749990619625 -0.11413320998273847 -0.10301176881638337 1.5000000000000002 3.5000000000000004
decision_type=2 2 2 2 2 2 2 2 2 2 2 2 2 2 2 2 2 2 2 2 2 2 2 2 2 2 2 2 2 2
left_child=1 9 -2 4 -3 7 -7 8 -5 10 14 -12 -8 -4 15 -1 -16 19 -11 27 -20 -15 -14 -21 -17 -22 -9 -6 -23 -30
right_child=2 3 13 5 17 6 12 26 -10 18 11 -13 22 21 16 24 -18 -19 20 23 25 28 -24 -25 -26 -27 -28 -29 29 -31
leaf_value=-2.7920946093521235 4.824328383652813 4.7849982553437505 -2.1466263972773634 -1.39521658383245 -2.0494018850400106 4.4651759890778999 5.1653274368490862 -0.98672280498468978 3.7190236532390042 -2.7448647111806954 3.853558469232885 -1.5794283200577983 2.3421724848055216 -2.1593825149468562 -2.2433186040868693 -0.54633327631311501 -0.501647452810424 -2.2498110328702632 -2.6443369413774218 2.2852540381917441 -1.9059912722157031 4.3536703881365542 -1.7617456513008978 -2.1395860015636243 3.7223815724712663 -2.6598236311905339 -2.2189209010618409 1.9186992419989923 -1.4293860839401662 2.4161664654034416
leaf_weight=6.2834420129656783 252.20011373609304 115.68925588577986 99.426229499280453 47.557031705975533 8.87074166536331 38.563085295259953 3.0801186338067046 38.686290040612221 46.32498425245285 2727.9994715899229 12.197269789874555 8.7475369200110418 2.8337091431021717 5.0513945594429996 346.08212969452143 3.3265281245112401 27.351453468203545 9.979584373533724 364.93245573341846 19.096735529601577 236.30670158565044 2.464094907045367 28.583500921726227 2.4640949070453635 5.5442135408520699 92.649968504905701 49.158693395555019 2.4640949070453635 5.9138277769088727 7.6386942118406296
leaf_count=51 2047 939 807 386 72 313 25 314 376 22142 99 71 23 41 2809 27 222 81 2962 155 1918 20 232 20 45 752 399 20 48 62
internal_value=-1.78313 -2.17829 2.71828 1.59452 3.5067 0.404496 1.97619 -0.227377 1.12835 -2.58532 -1.8451 1.58449 -0.806149 -1.68977 -2.02996 0.0842223 -2.11575 0.0574857 -2.67391 0.757452 -2.39496 0.46626 -1.39159 1.77956 2.12161 -2.11831 -1.67627 -1.18677 1.29435 0.738107
internal_weight=0 4244.77 372.694 413.352 158.565 254.787 73.0604 181.727 93.882 3831.42 409.533 20.9448 34.4973 120.494 388.588 15.1542 373.434 42.8753 3421.89 32.8957 693.889 21.068 31.4172 21.5608 8.87074 328.957 87.845 11.3348 16.0166 13.5525
internal_count=37478 34453 3025 3355 1287 2068 593 1475 762 31098 3324 170 280 978 3154 123 3031 348 27774 267 5632 171 255 175 72 2670 713 92 130 110
is_linear=0
shrinkage=1


Tree=10
num_leaves=31
num_cat=0
split_feature=10 14 12 8 12 6 16 6 9 12 9 6 16 4 9 12 16 16 6 6 6 7 16 6 16 6 9 3 0 12
split_gain=8362.46 6451.71 3436.8 990.532 645.46 247.5 168.158 160.031 128.322 116.121 97.3074 93.7292 85.0807 76.9459 67.3107 57.3297 53.3221 45.6887 43.2953 36.8937 33.274 33.0929 32.8895 68.1454 43.5172 26.7343 26.2829 25.2857 25.0637 22.3321
threshold=1.5545919951050327 2.5000000000000004 1.0000000180025095e-35 -0.45179665319117174 1.0000000180025095e-35 -0.76701510374969906 156.50000000000003 -0.11964497448098628 1.4904214383852199 1.5000000000000002 0.60803338666072049 0.51541522803087458 76.500000000000014 2.9242780960842438 0.15071693540869527 1.5000000000000002 76.500000000000014 78.500000000000014 1.389128252631624 -0.78139322540869027 0.6191547233832333 -0.14800278651019586 28.500000000000004 -0.5162093525444017 146.50000000000003 1.1868032978242142 1.4378792364952018 3.4517621220175876 0.90114512854146345 1.0000000180025095e-35
decision_type=2 2 2 2 2 2 2 2 2 2 2 2 2 2 2 2 2 2 2 2 2 2 2 2 2 2 2 2 2 2
left_child=1 5 -2 4 25 10 7 22 -4 11 21 27 -6 19 -7 18 -16 -18 -14 29 26 -1 23 -5 -24 -3 -19 -8 -23 -12
right_child=2 3 8 6 12 14 9 -9 -10 -11 13 -13 15 -15 16 -17 17 20 -20 -21 -22 28 24 -25 -26 -27 -28 -29 -30 -31
leaf_value=-2.2387606828575675 4.8132834157207629 4.8293473948983685 -2.0968672095261232 1.7357906113032111 -1.7337574772073625 -2.7766497125471208 2.1811050073513769 -1.5278146439519462 0.89661258806470401 -1.9849846589517151 -1.1706848522458257 -0.086571113643712172 2.5118332391350657 3.1976739854247871 -2.6804298016218242 -1.5696991375739802 0.077328027009387235 -2.1873916664045669 -1.598481302421942 0.9671013228187928 -2.6862913066677603 -1.3136893555052673 1.3731592584381163 -1.9065359578738899 -1.9963524047320025 1.7834230672135718 -0.75142488086837411 -0.4148147730495122 2.0733005846109016 -2.3953135648566111
leaf_weight=279.30515771359205 255.64984660595655 113.10195623338223 102.99916711449623 8.7475369200110453 14.784569442272185 2228.0346149504185 77.742194317281246 66.037743508815765 16.63264062255621 10.349198609590529 86.48973123729229 27.228248722851276 19.219940274953849 4.0657565966248503 638.81660465151072 5.7906230315566054 8.2547179386019689 384.89162448048592 2.9569138884544364 7.1458752304315558 154.74516016244888 14.045340970158579 45.092936798930168 12.443679280579088 4.1889613419771186 2.9569138884544364 13.182907752692698 3.9425518512725821 2.5872996523976317 17.98789282143116
leaf_count=2267 2075 918 836 71 120 18084 631 536 135 84 702 221 156 33 5185 47 67 3124 24 58 1256 114 366 101 34 24 107 32 21 146
internal_value=-1.78313 -2.18117 2.74315 1.56654 3.52816 -2.58584 0.348557 -0.409321 -1.68068 1.21605 -1.85316 1.52022 0.206501 -1.07553 -2.67382 1.23219 -2.48287 -2.25793 1.96379 -1.23118 -2.2928 -2.15716 0.638779 -0.403017 1.08675 4.75174 -2.13984 2.05581 -0.786824 -1.38153
internal_weight=0 4254.14 375.282 414.584 158.811 3839.55 255.773 136.511 119.632 119.262 411.627 108.913 42.752 115.689 3427.93 27.9675 1199.89 561.074 22.1769 111.623 552.82 295.938 70.4731 21.1912 49.2819 116.059 398.075 81.6847 16.6326 104.478
internal_count=37575 34529 3046 3365 1289 31164 2076 1108 971 968 3341 884 347 939 27823 227 9739 4554 180 906 4487 2402 572 172 400 942 3231 663 135 848
is_linear=0
shrinkage=1


Tree=11
num_leaves=31
num_cat=0
split_feature=10 9 12 8 12 6 16 9 6 12 9 9 9 9 16 4 12 4 6 6 16 6 9 6 9 16 6 5 6 10
split_gain=8171.55 5295.94 3491.05 831.077 561.764 293.32 214.424 153.441 142.746 130.853 127.174 178.434 120.532 107.541 92.5916 92.5461 63.2395 57.2315 53.2141 82.386 50.8965 47.8621 46.9826 45.4797 43.7411 46.634 37.6841 37.6172 36.7111 34.4278
threshold=1.5545919951050327 1.2073145141141086 1.0000000180025095e-35 -0.45179665319117174 1.0000000180025095e-35 -0.76701510374969906 156.50000000000003 0.60803338666072049 -0.11964497448098628 1.5000000000000002 1.3522425534371176 1.2933319211722456 0.96385078574233163 1.4904214383852199 76.500000000000014 -0.82992518327144771 1.5000000000000002 3.3100844439428911 -0.34922550002128888 -0.5162093525444017 76.500000000000014 -0.79096036212348564 1.368885422151559 1.6771556004762556 0.10129809579872541 76.500000000000014 0.42074749990619625 -0.67298640575015256 -0.78139322540869027 0.34001309787153994
decision_type=2 2 2 2 2 2 2 2 2 2 2 2 2 2 2 2 2 2 2 2 2 2 2 2 2 2 2 2 2 2
left_child=1 5 -2 4 10 7 8 28 18 15 11 -3 24 -4 -6 -8 23 21 19 22 -14 -9 -5 -16 -7 -26 -22 -17 -1 -13
right_child=2 3 13 6 14 12 9 17 -10 -11 -12 29 20 -15 16 27 -18 -19 -20 -21 26 -23 -24 -25 25 -27 -28 -29 -30 -31
leaf_value=-2.1977910604902151 4.8284580562799233 4.4406336433557598 -2.0473094461415506 -1.4481744415492526 -1.9295768351135307 -2.7795751521217582 -1.2065596745389477 -1.052312789250859 -1.7673024605820293 -2.1395860015636243 4.4452261262042621 -1.7608127121644466 -2.4115222506207612 0.73243124772684287 2.1272815003273493 0.57104225545744414 -1.9573772763424455 3.5420133394240398 1.3721563046749818 -2.20290676422914 -1.00881592515216 1.3206361534739754 1.0720569756695502 -2.2133730059920356 -2.7249122559118661 -2.3050971827676845 -2.3615776730063658 1.9603894916920914 -0.6411422193251195 2.0435695571855348
leaf_weight=280.04438618570566 252.32331848144531 13.798931479454042 106.2024904936552 9.979584373533724 17.618278585374355 2137.8487413525581 13.182907752692698 92.157149523496628 76.017327882349491 12.32047453522682 97.208544082939625 9.2403559014201146 96.346110865473747 16.016616895794868 22.053649418056018 26.119406014680862 6.0370325222611418 3.0801186338067046 24.517744325101376 17.371869094669819 72.074776031076908 9.3635606467723829 28.583500921726227 2.7105043977498999 574.38052283227444 490.60129599273205 28.829910412430763 76.7565563544631 16.016616895794868 3.2033233791589728
leaf_count=2273 2048 112 862 81 143 17352 107 748 617 100 789 75 782 130 179 212 49 25 199 141 585 76 232 22 4662 3982 234 623 130 26
internal_value=-1.78313 -2.16838 2.70366 1.04902 2.78563 -2.555 0.00119457 -1.74574 -0.784694 0.959043 3.91787 1.96443 -2.65037 -1.68303 -0.10115 1.28798 0.944711 -0.704607 0.143743 -0.394702 -1.89168 -0.833449 0.419857 1.65218 -2.69709 -2.53152 -1.39532 1.60765 -2.11358 -0.781467
internal_weight=0 4257.46 374.542 456.72 171.871 3800.74 284.849 400.662 156.47 128.379 123.451 26.2426 3400.08 122.219 48.4195 116.059 30.8012 104.601 80.4527 55.935 197.251 101.521 38.5631 24.7642 3202.83 1064.98 100.905 102.876 296.061 12.4437
internal_count=37596 34556 3040 3707 1395 30849 2312 3252 1270 1042 1002 213 27597 992 393 942 250 849 653 454 1601 824 313 201 25996 8644 819 835 2403 101
is_linear=0
shrinkage=1


Tree=12
num_leaves=31
num_cat=0
split_feature=10 9 8 3 6 13 16 6 6 9 9 9 16 16 1 13 13 13 13 13 16 9 2 16 16 4 16 16 13 13
split_gain=8441.13 5237.95 776.953 340.572 267.732 294.33 231.094 156.24 149.634 152.666 233.062 130.34 129.97 126.307 121.106 93.5386 259.229 281.873 155.968 91.4891 90.5342 84.0673 69.7902 57.1976 57.9044 56.1537 48.694 55.1812 48.1348 113.629
threshold=1.5545919951050327 1.2073145141141086 -0.45179665319117174 -0.68304693199866062 -0.76701510374969906 4.5000000000000009 156.50000000000003 -0.11964497448098628 1.389128252631624 1.3522425534371176 1.2933319211722456 0.96385078574233163 44.500000000000007 5.5000000000000009 2.1301380947790842 1.0000000180025095e-35 1.5000000000000002 3.5000000000000004 4.5000000000000009 3.5000000000000004 47.500000000000007 0.48987269449851234 -0.19233661880232425 21.500000000000004 5.5000000000000009 2.0600906986387564 32.500000000000007 34.500000000000007 1.5000000000000002 1.0000000180025095e-35
decision_type=2 2 2 2 2 2 2 2 2 2 2 2 2 2 2 2 2 2 2 2 2 2 2 2 2 2 2 2 2 2
left_child=1 4 8 13 5 21 7 19 9 10 -3 -6 23 -2 -15 -8 -17 -18 -19 28 -14 -1 -22 24 -5 -26 -13 -28 29 -4
right_child=3 2 6 12 11 -7 15 -9 -10 -11 -12 26 20 14 -16 16 17 18 -20 -21 22 -23 -24 -25 25 -27 27 -29 -30 -31
leaf_value=-2.2910610856658709 4.4341048704414074 3.657964346382971 -1.5082971858983283 4.1612156240088494 -2.701454020556092 1.8800489063460153 -0.85370236259209853 -1.8084299256889147 -1.3995457512669118 3.4372329497058525 -1.5498208078948124 -2.6813333428658073 -2.3268914743434372 0.28007086063597364 2.21526624056703 3.8614606919293699 -1.5621655508016949 4.005817367259767 -0.17808146717502615 2.0061832352733964 3.5679172877872052 -1.2639909796483639 2.1192035960752449 4.8889567571799475 -2.6265802307911383 3.4743752520313276 1.8748258880145319 -1.6623139801791278 -1.486301059916959 2.1812941695236328
leaf_weight=272.65210146456957 13.675726734101771 17.248664349317551 16.63264062255621 11.950860299170019 3178.6824300885201 20.698397219181061 21.930444672703743 77.002965845167637 8.3779226839542371 127.88652567565441 17.125459603965282 51.86919779330492 3.2033233791589728 65.298515036702156 64.066467583179474 30.677981592714787 36.715014114975929 22.423263654112816 14.784569442272185 20.575192473828793 92.649968504905701 112.60913725197315 51.86919779330492 68.748247906565666 3.0801186338067046 2.9569138884544373 4.5585755780339232 135.77162937819958 25.256972797214985 16.755845367908478
leaf_count=2213 111 140 135 97 25800 168 178 625 68 1038 139 421 26 530 520 249 298 182 120 167 752 914 421 558 25 24 37 1102 205 136
internal_value=-1.78313 -2.17516 1.03646 2.76003 -2.56071 -1.79349 0.0195278 -0.794079 2.72157 2.93435 1.0634 -2.6531 3.50192 1.54398 1.23845 1.02406 1.41775 0.403606 2.34334 0.191877 2.93141 -1.99086 3.04796 4.47357 2.88602 0.361643 -1.85342 -1.54741 -0.444655 0.343306
internal_weight=0 4230.23 453.393 377.499 3776.84 405.96 282.755 156.224 170.639 162.261 34.3741 3370.88 234.459 143.041 129.365 126.531 104.601 73.9228 37.2078 79.2207 147.722 385.261 144.519 86.7361 17.9879 6.03703 192.199 140.33 58.6455 33.3885
internal_count=37399 34335 3680 3064 30655 3295 2295 1268 1385 1317 279 27360 1903 1161 1050 1027 849 600 302 643 1199 3127 1173 704 146 49 1560 1139 476 271
is_linear=0
shrinkage=1


Tree=13
num_leaves=31
num_cat=0
split_feature=1 14 12 8 12 13 13 13 13 6 13 12 14 0 16 6 7 6 12 14 13 13 6 16 4 13 6 6 3 12
split_gain=8275.37 6402.57 3344.29 929.681 689.636 223.535 512.272 366.135 559.023 222.853 201.285 134.905 125.302 108.78 75.9897 72.5281 97.4794 71.5783 65.1413 57.7669 43.4812 68.2017 42.3316 39.1538 36.5715 34.5669 34.1217 33.0919 33.0468 29.7037
threshold=1.5367886032274958 2.5000000000000004 1.0000000180025095e-35 -0.45179665319117174 1.0000000180025095e-35 3.5000000000000004 4.5000000000000009 1.5000000000000002 1.0000000180025095e-35 -0.76701510374969906 4.5000000000000009 1.0000000180025095e-35 2.5000000000000004 -0.59570726306402966 76.500000000000014 -1.1962151517951807 -1.209101377640555 -0.78139322540869027 1.5000000000000002 1.5000000000000002 3.5000000000000004 4.5000000000000009 -0.47013277996886199 76.500000000000014 0.47359117286334357 1.0000000180025095e-35 0.51541522803087458 -0.11413320998273847 1.0993817654297653 1.0000000180025095e-35
decision_type=2 2 2 2 2 2 2 2 2 2 2 2 2 2 2 2 2 2 2 2 2 2 2 2 2 2 2 2 2 2
left_child=1 9 -2 4 -3 7 -7 8 -5 10 15 -12 -4 -8 -6 16 -1 -17 25 29 24 -22 -15 -21 -14 -16 -25 -9 -18 -11
right_child=2 3 12 5 14 6 13 27 -10 19 11 -13 20 22 18 17 28 -19 -20 23 21 -23 -24 26 -26 -27 -28 -29 -30 -31
leaf_value=-2.6265802307911379 4.7195749984444051 4.7551351649191016 -2.1631271265578085 -1.177017843291486 -1.7175243362331121 4.4396737840266312 5.1653274368490862 -1.002198163565154 3.7223815724712672 -2.6223664999906049 3.7159398498624352 -1.598481302421942 2.1892515915698301 1.8067465456248477 -0.85664421488899223 -2.2403025696520396 0.22480627077285731 -0.36869789528175501 -1.8149231820786149 -2.6469408166075121 4.9398671455400516 -1.2602908654583906 -1.8476742559740325 -1.971729128673618 -1.4585404319542656 2.4598039411406747 -2.689418195852753 -2.2526015399919501 4.6734140739930101 -2.8332770969087666
leaf_weight=6.1602372676134109 257.99073676764965 114.58041317760944 97.701363064348698 49.035488650202751 15.400593169033526 37.207833096385002 2.7105043977498999 37.454242587089539 44.353708326816559 1167.6113717034459 10.349198609590532 8.87074166536331 3.6961423605680492 3.572937615215781 3.819347105920321 354.46005237847567 2.8337091431021673 21.684035181999207 6.1602372676134101 361.48272286355495 4.435370832681655 2.9569138884544373 28.090681940317154 238.89400123804808 10.718812845647333 17.741483330726624 91.664330542087555 48.665874414145947 4.0657565966248512 1559.7720761597157
leaf_count=50 2094 930 793 398 125 302 22 304 360 9477 84 72 30 29 31 2877 23 176 50 2934 36 24 228 1939 87 144 744 395 33 12660
internal_value=-1.78313 -2.19239 2.6938 1.56938 3.47226 0.374241 1.86841 -0.22158 1.14987 -2.59412 -1.89597 1.26313 -1.67937 -0.914828 0.0634831 -2.05197 0.264757 -2.13241 1.05293 -2.67751 0.487982 2.4598 -1.43531 -2.41948 -0.523209 1.87232 -2.17075 -1.70879 2.84631 -2.74298
internal_weight=0 4236.64 377.499 408.793 157.702 251.091 71.582 179.509 93.3892 3827.85 408.424 19.2199 119.509 34.3741 43.1217 389.204 13.0597 376.144 27.7211 3419.42 21.8072 7.39228 31.6636 692.041 14.415 21.5608 330.558 86.1201 6.89947 2727.38
internal_count=37451 34387 3064 3318 1280 2038 581 1457 758 31069 3315 156 970 279 350 3159 106 3053 225 27754 177 60 257 5617 117 175 2683 699 56 22137
is_linear=0
shrinkage=1


Tree=14
num_leaves=31
num_cat=0
split_feature=1 14 12 8 12 6 13 13 13 13 13 14 12 0 16 12 14 6 7 6 6 13 13 13 13 6 16 6 1 5
split_gain=8227.37 6363.8 3412.92 932.662 620.347 263.407 311.082 252.651 495.689 328.109 626.822 150.679 128.245 122.829 92.6893 74.4045 62.4489 56.8106 96.681 51.5709 49.3047 47.392 45.1897 62.458 48.8492 38.3166 35.8149 41.4753 29.6466 29.3812
threshold=1.5367886032274958 2.5000000000000004 1.0000000180025095e-35 -0.65940519176820822 1.0000000180025095e-35 -0.76701510374969906 4.5000000000000009 3.5000000000000004 4.5000000000000009 1.5000000000000002 1.0000000180025095e-35 2.5000000000000004 1.0000000180025095e-35 -0.59322252011197318 76.500000000000014 1.5000000000000002 1.5000000000000002 -1.1962151517951807 -1.209101377640555 1.389128252631624 -0.78139322540869027 1.0000000180025095e-35 1.5000000000000002 3.5000000000000004 4.5000000000000009 -0.62757236194554833 76.500000000000014 0.4114798547166873 0.96939989990705133 1.0012065272063679
decision_type=2 2 2 2 2 2 2 2 2 2 2 2 2 2 2 2 2 2 2 2 2 2 2 2 2 2 2 2 2 2
left_child=1 5 -2 4 -3 6 17 9 -9 10 -5 -4 -8 -10 -6 19 -7 18 -1 -16 -19 -13 -23 -24 -25 -15 -18 -28 -20 -12
right_child=2 3 11 7 14 16 12 8 13 -11 29 21 -14 25 15 -17 26 20 28 -21 -22 22 23 24 -26 -27 27 -29 -30 -31
leaf_value=-2.6613655328788175 4.7285786439704429 4.7545878962464894 -2.149365002150522 -1.4331812384696825 -1.7719122957365838 -2.7381229052930052 3.959896176384941 4.3561989147680658 5.1653274368490862 -1.7071853714459406 4.0274904526726516 -1.7675765209037178 -0.97694212097541511 2.3245277663552484 2.7454803350974624 -1.7917329806868285 -2.6212560711275645 -2.1892678979428641 4.2377193811776319 -1.6525917723361103 -0.6322229110975095 4.4274573925649685 -1.8925599432598128 4.7015234090133573 -0.45383674654530681 -1.7866916325581792 -1.9393179869360688 -2.7095585692699373 -0.11044337978231655 1.4935455498162422
leaf_weight=6.8994657397270203 258.72996523976326 111.99311352521181 102.25993864238262 49.405102886259556 14.41495520621538 2721.4696200862527 12.443679280579092 39.548723258078098 3.0801186338067046 82.793588876724243 39.548723258078098 5.9138277769088772 9.1171511560678464 2.464094907045367 19.83596400171519 6.0370325222611418 360.62028964608908 358.27939948439598 4.3121660873293859 3.0801186338067046 21.560830436646938 4.0657565966248539 5.6674182862043363 4.3121660873293877 3.2033233791589737 28.33709143102169 236.18349684029818 99.303024753928185 2.4640949070453644 5.1745993047952643
leaf_count=56 2100 909 830 401 117 22089 101 321 25 672 321 48 74 20 161 49 2927 2908 35 25 175 33 46 35 26 230 1917 806 20 42
internal_value=-1.78313 -2.17972 2.6533 1.58644 3.51112 -2.57839 -1.82615 0.392049 1.95138 -0.25514 1.02205 -1.62772 1.87232 -0.855692 0.299997 1.33154 -2.66976 -2.02879 -0.0263528 2.15434 -2.10089 0.67531 1.51287 0.61398 2.50416 -1.45779 -2.40248 -2.16731 2.65657 3.73431
internal_weight=0 4238.37 384.152 405.713 155.361 3832.65 415.077 250.352 73.43 176.922 94.1284 125.422 21.5608 33.8813 43.3681 28.9531 3417.58 393.516 13.6757 22.9161 379.84 23.1625 17.2487 13.1829 7.51549 30.8012 696.107 335.487 6.77626 44.7233
internal_count=37519 34401 3118 3293 1261 31108 3369 2032 596 1436 764 1018 175 275 352 235 27739 3194 111 186 3083 188 140 107 61 250 5650 2723 55 363
is_linear=0
shrinkage=1


Tree=15
num_leaves=31
num_cat=0
split_feature=10 14 12 2 12 13 13 13 13 4 13 9 9 12 16 12 3 1 13 5 13 2 11 12 11 4 4 13 13 13
split_gain=8078.13 6623.13 3466.86 813.17 664.623 250.086 457.469 363.156 583.194 148.302 179.648 137.954 99.8379 90.4496 85.9858 75.2054 64.334 56.8547 52.7955 50.0069 70.6577 46.3156 133.159 38.9369 38.8012 37.8949 37.41 36.3091 35.6426 43.3796
threshold=1.5545919951050327 2.5000000000000004 1.0000000180025095e-35 -0.51356829951071503 1.0000000180025095e-35 3.5000000000000004 4.5000000000000009 1.5000000000000002 1.0000000180025095e-35 1.2144589538204951 4.5000000000000009 1.4904214383852199 0.60803338666072049 1.0000000180025095e-35 76.500000000000014 1.5000000000000002 0.73071822648642815 -0.038451002431840693 3.5000000000000004 -0.23832937235523147 4.5000000000000009 -0.78877307547467901 1.2734076113421187 1.0000000180025095e-35 -0.43986672449022274 2.2068148403612775 0.62769377526255443 1.0000000180025095e-35 4.5000000000000009 3.5000000000000004
decision_type=2 2 2 2 2 2 2 2 2 2 2 2 2 2 2 2 2 2 2 2 2 2 2 2 2 2 2 2 2 2
left_child=1 9 -2 4 21 7 -7 8 -5 12 16 -4 23 -12 -6 27 -11 -18 -13 -14 -21 -3 -23 -1 -8 -19 -22 -16 29 -29
right_child=2 3 11 5 14 6 24 -9 -10 10 13 18 19 -15 15 -17 17 25 -20 20 26 22 -24 -25 -26 -27 -28 28 -30 -31
leaf_value=-2.5905762782439212 4.8133026941842161 4.8323988030066083 -2.1214643988309123 -1.3593190044587675 -1.7161127587570904 4.3403645348789803 0.2544612597649103 -1.8134060660997129 3.8445837185298917 -2.1648815464421989 3.8327561628434506 -0.4030174322252027 -2.568167661431783 -1.6696792891511107 -0.86412492501537397 -2.1230215719980627 -2.9512430502761471 -0.51627190413857682 3.2555461457607962 -2.1986942413455308 -1.0573766032802596 4.3564595876166745 -0.33743221543920798 -2.8252289144723091 -2.0274057590586412 3.4565757553490357 2.4598039411406747 1.8449122375705793 -0.9221004284948392 5.1653274368490862
leaf_weight=1275.4155238866806 249.98242831975222 87.105754964053631 104.84723829478025 44.600117817521095 17.002254858613014 37.577447332441807 14.66136469691992 79.097446516156197 41.643203929066658 181.85020413994789 8.2547179386019689 10.595608100295069 388.95738107711077 4.6817803233861914 4.3121660873293903 6.0370325222611418 4.3121660873293886 4.9281898140907252 6.2834420129656783 346.82135816663504 33.265281245112419 35.852580897510052 7.269079975783824 1587.1235296279192 15.154183678328989 4.6817803233861923 3.326528124511241 13.552521988749509 2.9569138884544364 5.544213540852069
leaf_count=10352 2029 707 851 362 138 305 119 642 338 1476 67 86 3157 38 35 49 35 40 51 2815 270 291 59 12882 123 38 27 110 24 45
internal_value=-1.78313 -2.17892 2.6822 1.62964 3.22804 0.395929 2.0196 -0.26588 1.15342 -2.58752 -1.76778 -1.69432 -2.63459 1.8414 0.105121 1.06075 -2.00627 0.0655354 0.95893 -2.31554 -2.05925 4.4128 3.5652 -2.72068 -0.905331 1.41922 -0.737633 1.78974 2.30866 2.8089
internal_weight=0 4255.98 371.709 412.366 179.633 232.734 67.393 165.341 86.2433 3843.62 208.709 121.726 3634.91 12.9365 49.4051 32.4028 195.772 13.9221 16.8791 772.371 383.413 130.227 43.1217 2862.54 29.8155 9.60997 36.5918 26.3658 22.0536 19.0967
internal_count=37561 34544 3017 3347 1458 1889 547 1342 700 31197 1694 988 29503 105 401 263 1589 113 137 6269 3112 1057 350 23234 242 78 297 214 179 155
is_linear=0
shrinkage=1


Tree=16
num_leaves=31
num_cat=0
split_feature=10 14 12 8 12 6 13 13 13 13 13 12 0 14 12 6 6 6 10 14 6 13 13 6 6 13 1 12 13 6
split_gain=8453.63 6599.61 3530.76 994.399 656.761 242.515 290.164 236.644 515.522 398.528 598.85 133.818 120.257 115.58 62.745 64.1695 60.3715 55.7885 76.8612 52.0703 39.3997 38.9724 52.144 33.8444 33.8062 34.7983 30.5929 28.2275 27.9858 90.5856
threshold=1.5545919951050327 2.5000000000000004 1.0000000180025095e-35 -0.65940519176820822 1.0000000180025095e-35 -0.76701510374969906 4.5000000000000009 3.5000000000000004 4.5000000000000009 1.5000000000000002 1.0000000180025095e-35 1.0000000180025095e-35 -0.59570726306402966 2.5000000000000004 1.5000000000000002 -0.11964497448098628 -0.78139322540869027 -1.1962151517951807 -0.096658224860680222 1.5000000000000002 -0.42163238579581069 3.5000000000000004 4.5000000000000009 -0.11413320998273847 -0.1092299914492334 4.5000000000000009 0.52426313063387953 1.0000000180025095e-35 4.5000000000000009 -0.39227169789987693
decision_type=2 2 2 2 2 2 2 2 2 2 2 2 2 2 2 2 2 2 2 2 2 2 2 2 2 2 2 2 2 2
left_child=1 5 -2 4 -3 6 16 9 -9 10 -5 -8 -10 -4 15 -6 17 18 -1 27 -14 -15 -23 -11 25 -21 -17 28 -7 -30
right_child=2 3 13 7 14 19 11 8 12 23 -12 -13 20 21 -16 26 -18 -19 -20 24 -22 22 -24 -25 -26 -27 -28 -29 29 -31
leaf_value=-2.79515515629297 4.8497046766680283 4.7820685995766459 -2.1667418136023331 -1.2670546741976616 2.7672497929257203 -2.6739370069451693 3.9229952194319573 4.3947669475650448 5.1653274368490862 -1.0781883224780167 3.7204928998739133 -1.1722686969336307 1.3457648546725027 -0.63222291109750972 -2.1834593555480848 -0.92210042849483942 -0.43230738185797168 -2.2380119002651431 1.8679706764544604 -2.2981074536591968 -1.9505699765209819 4.673414073993011 -0.51627190413857793 -2.3507824785245361 -2.6422706550363588 -1.1014200090243502 1.8800489063460153 -2.8319380132464023 1.5940364225139831 -2.3646315170410781
leaf_weight=6.4066467583179474 256.6354845687747 117.41412232071161 99.426229499280453 49.281898140907288 10.842017590999605 1071.0188513472676 12.074065044522287 38.932699531316757 2.9569138884544364 36.838218860328197 47.06421272456646 8.9939464107155782 4.1889613419771221 12.936498261988165 9.1171511560678464 15.770207405090334 21.43762569129467 350.51750052720308 7.8851037025451642 293.96652241051197 26.98183923214674 4.0657565966248503 3.6961423605680466 48.296260178089142 372.20153570920229 26.489020250737667 5.1745993047952643 1567.4107703715563 6.1602372676134101 93.758811213076115
leaf_count=52 2083 953 807 400 88 8693 98 316 24 299 382 73 34 105 74 128 174 2845 64 2386 219 33 30 392 3021 215 42 12722 50 761
internal_value=-1.78313 -2.18698 2.75531 1.61206 3.57991 -2.59562 -1.86609 0.388101 1.90775 -0.223679 1.16932 1.74782 -0.929426 -1.71919 0.129142 0.792446 -2.06321 -2.15905 -0.222396 -2.68223 -1.50758 0.430661 2.20214 -1.80012 -2.43728 -2.19919 -0.229805 -2.74418 -2.62672 -2.12057
internal_weight=0 4251.18 376.76 412.859 158.318 3838.32 407.315 254.541 73.0604 181.481 96.3461 21.068 34.1277 120.125 40.904 31.7868 386.247 364.809 14.2918 3431.01 31.1708 20.6984 7.7619 85.1345 692.657 320.456 20.9448 2738.35 1170.94 99.919
internal_count=37563 34505 3058 3351 1285 31154 3306 2066 593 1473 782 171 277 975 332 258 3135 2961 116 27848 253 168 63 691 5622 2601 170 22226 9504 811
is_linear=0
shrinkage=1


Tree=17
num_leaves=31
num_cat=0
split_feature=10 14 12 8 12 6 16 6 14 12 16 6 6 9 9 6 1 12 16 6 16 6 16 9 6 1 16 6 6 3
split_gain=8514.71 6549.76 3380.23 989.886 659.159 244.33 171.756 178.659 128.112 124.522 89.7543 89.4773 83.798 70.4914 68.909 62.363 69.6275 61.1255 50.3923 39.1274 31.8093 48.2378 34.3772 31.26 30.0369 29.0711 28.8237 28.1058 116.459 25.9672
threshold=1.5545919951050327 2.5000000000000004 1.0000000180025095e-35 -0.65940519176820822 1.0000000180025095e-35 -0.76701510374969906 156.50000000000003 -0.11964497448098628 2.5000000000000004 1.5000000000000002 76.500000000000014 0.51541522803087458 -0.78139322540869027 0.14413771909543371 0.60803338666072049 -1.1443219107003644 -0.0582213216895303 1.5000000000000002 76.500000000000014 0.6191547233832333 28.500000000000004 -0.74221578704776092 146.50000000000003 1.4378792364952018 1.389128252631624 -1.1682093735203616 78.500000000000014 -0.24797703738415736 -0.34922550002128888 -0.030217500464458504
decision_type=2 2 2 2 2 2 2 2 2 2 2 2 2 2 2 2 2 2 2 2 2 2 2 2 2 2 2 2 2 2
left_child=1 5 -2 4 -3 12 7 20 -4 11 -6 25 14 -7 -1 16 -16 24 27 23 21 -5 -22 26 -12 -8 -20 28 -15 -17
right_child=2 3 8 6 10 13 9 -9 -10 -11 17 -13 -14 18 15 29 -18 -19 19 -21 22 -23 -24 -25 -26 -27 -28 -29 -30 -31
leaf_value=-2.2323670429085984 4.840508077913988 4.7646143980939542 -2.1126688035195866 1.4452326302500194 -1.8506911198184888 -2.7842968680158795 -0.71218912279332458 -1.598481302421942 0.54650555743527884 -2.0816104980841583 2.3752563318997852 0.022500447161976744 -0.015462235784041933 -2.5756455446642574 -2.4101383511344654 0.092470882395814913 3.0213276855329871 -1.7161127587570904 -0.32529377502974843 -2.6984105830254412 1.3969197106837987 -1.6260886850312115 -1.6830289116628299 -0.66195393852287654 -1.3279289528511009 2.2045658755078055 -2.1997557608832574 -2.8296375582540012 0.39506232599478186 -1.7025398984107269
leaf_weight=282.38527634739876 255.52664186060429 117.29091757535934 96.592520356178284 8.8707416653633135 14.538159951567648 2210.2931316196918 3.5729376152157775 65.05210554599762 22.300058908760548 10.349198609590529 19.712759256362922 28.583500921726227 23.162492126226425 218.31880876421928 3.6961423605680466 8.87074166536331 6.5298515036702138 5.6674182862043372 8.3779226839542371 154.25234118103981 44.846527308225632 12.074065044522284 3.9425518512725821 14.41495520621538 2.4640949070453635 78.358218044042587 393.8855708912015 419.38895317912102 14.045340970158575 88.091392926871777
leaf_count=2292 2074 952 784 72 118 17940 29 528 181 84 160 232 188 1772 30 72 53 46 68 1252 364 98 32 117 20 636 3197 3404 114 715
internal_value=-1.78313 -2.18289 2.79098 1.5898 3.54327 -2.59032 0.369706 -0.406468 -1.6139 1.23529 0.163255 1.5459 -1.86338 -2.67772 -1.97325 -1.29061 1.05815 1.21478 -2.48506 -2.26815 0.705516 -0.325294 1.14803 -2.10887 1.96379 2.07737 -2.16072 -2.67506 -2.39608 -1.53832
internal_weight=0 4261.04 374.419 415.323 159.673 3845.71 255.65 134.786 118.893 120.864 42.3824 110.515 412.736 3432.98 389.573 107.188 10.226 27.8443 1222.68 570.931 69.7339 20.9448 48.7891 416.678 22.1769 81.9312 402.263 651.753 232.364 96.9621
internal_count=37624 34585 3039 3371 1296 31214 2075 1094 965 981 344 897 3350 27864 3162 870 83 226 9924 4634 566 170 396 3382 180 665 3265 5290 1886 787
is_linear=0
shrinkage=1


Tree=18
num_leaves=31
num_cat=0
split_feature=10 14 12 8 12 13 13 13 13 6 13 12 0 14 6 1 9 12 6 6 13 13 9 1 6 9 6 6 13 0
split_gain=8393.57 6669.26 3538.21 999.407 636.647 265.361 539.376 397.785 592.082 254.26 265.712 136.361 123.472 100.435 76.3006 98.5453 72.004 71.1766 83.9113 62.0318 59.0913 57.8373 40.4237 33.5927 31.8209 31.0153 30.6089 27.9396 53.4174 59.3777
threshold=1.5545919951050327 2.5000000000000004 1.0000000180025095e-35 -0.45179665319117174 1.0000000180025095e-35 3.5000000000000004 4.5000000000000009 1.5000000000000002 1.0000000180025095e-35 -0.76701510374969906 4.5000000000000009 1.0000000180025095e-35 -0.59570726306402966 2.5000000000000004 -1.1962151517951807 -0.038451002431840693 0.19043967238642806 1.5000000000000002 -0.11964497448098628 -0.79096036212348564 3.5000000000000004 4.5000000000000009 1.4378792364952018 1.2208551039801312 1.4395281120934464 1.0660015034792536 -0.36898112239559905 -0.12453939564475353 4.5000000000000009 -0.59127588683097076
decision_type=2 2 2 2 2 2 2 2 2 2 2 2 2 2 2 2 2 2 2 2 2 2 2 2 2 2 2 2 2 2
left_child=1 9 -2 4 24 7 -7 8 -5 10 14 -12 -8 -4 15 -1 -11 18 -6 -16 -15 -22 27 -17 -3 -21 -14 28 -18 -30
right_child=2 3 13 5 17 6 12 -9 -10 16 11 -13 26 20 19 23 22 -19 -20 25 21 -23 -24 -25 -26 -27 -28 -29 29 -31
leaf_value=-2.79515515629297 4.8352276801956675 4.8461849203521323 -2.1628339618629866 -1.3111070451057636 3.2284185706032922 4.5292325710869203 5.1653274368490862 -1.7933707067738192 3.7052036455143877 -2.7789185988942275 3.6680959877677308 -1.3073806731368598 0.89344823309896104 -0.97694212097541533 -2.2367048650998336 3.6745287759485352 -2.4220453005043314 -2.1936964714777925 -0.15701386618385405 -0.99494144568698883 4.726593897004479 -1.1065679395658674 -1.3534929543853536 -0.63222291109750994 1.3002938715513557 2.7303562907115158 -1.8764460451317102 -2.6384917169779962 3.5420133394240398 -1.5268118058468847
leaf_weight=6.4066467583179483 257.49791778624058 115.93566537648439 98.93341051787138 47.557031705975533 10.842017590999601 39.302313767373562 3.0801186338067046 87.228959709405899 46.571393743157387 2251.5667213127017 12.690088771283628 9.7331748828291875 4.681780323386195 13.675726734101774 342.87880631536245 6.0370325222611392 453.51666764169931 9.2403559014201146 22.546468399465084 24.024925343692306 4.5585755780339232 2.7105043977499008 31.294005319476128 2.5872996523976326 2.5872996523976317 2.4640949070453635 26.98183923214674 668.26253879070282 2.4640949070453635 37.207833096385002
leaf_count=52 2090 941 803 386 88 319 25 708 378 18275 103 79 38 111 2783 49 3681 75 183 195 37 22 254 21 21 20 219 5424 20 302
internal_value=-1.78313 -2.17424 2.74599 1.62678 3.57676 0.396402 1.99163 -0.25491 1.17078 -2.58538 -1.83773 1.50841 -0.878927 -1.74168 -2.03293 0.175632 -2.67368 0.262544 0.942315 -2.1228 0.247641 2.55152 -2.47503 2.3825 4.76878 -0.648402 -1.46689 -2.50525 -2.32471 -1.21198
internal_weight=0 4267.69 377.376 416.555 161.152 255.403 74.0461 181.357 94.1284 3851.13 406.822 22.4233 34.7437 119.878 384.399 15.031 3444.31 42.6288 33.3885 369.368 20.9448 7.26908 1192.75 8.62433 118.523 26.489 31.6636 1161.45 493.189 39.6719
internal_count=37702 34639 3063 3381 1308 2073 601 1472 764 31258 3302 182 282 973 3120 122 27956 346 271 2998 170 59 9681 70 962 215 257 9427 4003 322
is_linear=0
shrinkage=1


Tree=19
num_leaves=31
num_cat=0
split_feature=10 14 12 8 12 13 13 13 13 4 14 13 12 3 1 12 16 14 13 7 13 5 11 16 4 5 12 5 13 4
split_gain=8426.43 6368.78 3433.09 905.279 762.441 276.417 480.321 381.963 604.814 152.304 140.991 125.973 138.929 75.3631 103.882 71.2379 72.7638 66.2899 66.259 65.9268 46.0941 38.4367 37.4206 35.3382 34.3277 31.4499 30.0118 29.7467 29.5053 26.5605
threshold=1.5545919951050327 2.5000000000000004 1.0000000180025095e-35 -0.45179665319117174 1.0000000180025095e-35 3.5000000000000004 4.5000000000000009 1.5000000000000002 1.0000000180025095e-35 0.51574132262787054 2.5000000000000004 4.5000000000000009 1.0000000180025095e-35 0.75400419565137822 0.0075623848150442067 1.5000000000000002 163.50000000000003 1.5000000000000002 3.5000000000000004 0.50326488860780871 4.5000000000000009 3.5652865280214376 -0.43986672449022274 76.500000000000014 -0.26281132459546097 -0.062780794641747864 1.0000000180025095e-35 -0.85255841672005872 4.5000000000000009 1.9922874046633197
decision_type=2 2 2 2 2 2 2 2 2 2 2 2 2 2 2 2 2 2 2 2 2 2 2 2 2 2 2 2 2 2
left_child=1 9 -2 4 -3 7 -7 8 -5 17 -4 13 19 -11 -15 16 24 21 -12 -13 -20 26 25 -19 -6 -8 28 -25 -1 -16
right_child=2 3 10 5 15 6 22 -9 -10 11 18 12 -14 14 29 -17 -18 23 20 -21 -22 -23 -24 27 -26 -27 -28 -29 -30 -31
leaf_value=-2.6671778782878057 4.8250182164250406 4.7759397269123749 -2.157894055293982 -1.3789231129796364 -2.0381288704745586 4.4180876142248584 -0.30093431978627549 -1.8151574265371178 3.7566664432157815 -2.2936014269074017 -0.62271873019923651 3.6434704705131029 -1.9366717393854933 -2.2072240889563344 -0.92210042849483886 -2.3199542346108517 2.1452081858257435 -2.5976279984204531 4.9517334766615804 -2.1395860015636243 -0.029277674911064144 0.20520102805033202 -1.7365182154682894 -2.7189261848128137 0.88568118000123408 3.4008555918218617 -2.8320839126898933 -1.9746284011680557 -2.0963378564649395 2.8463072976704478
leaf_weight=1013.8518495038152 255.64984660595655 115.56605114042759 98.317386791110039 47.06421272456646 9.8563796281814557 38.809494785964489 12.074065044522284 85.380888529121876 44.723322562873363 471.38135571777821 15.030978932976724 9.8563796281814593 16.755845367908478 14.784569442272188 2.4640949070453626 11.088427081704138 15.893412150442598 361.97554184496403 4.6817803233861914 2.4640949070453635 3.0801186338067055 4.435370832681655 18.111097566783428 68.871452651917934 6.7762609943747547 2.8337091431021681 1527.3692281320691 243.69898630678654 99.426229499280453 7.7618989571928978
leaf_count=8229 2075 938 798 382 80 315 98 693 363 3826 122 80 136 120 20 90 129 2938 38 20 25 36 147 559 55 23 12397 1978 807 63
internal_value=-1.78313 -2.18689 2.74734 1.56885 3.43145 0.378117 2.03286 -0.292756 1.12338 -2.58558 -1.63839 -2.08535 -0.0622942 -2.20385 -0.512274 -0.131079 0.615129 -2.66477 0.602499 2.48686 2.97514 -2.73613 -0.770672 -2.38494 -0.846947 0.402712 -2.74107 -2.13863 -2.6162 1.93826
internal_weight=0 4253.27 376.76 408.177 159.181 248.997 71.8284 177.168 91.7875 3845.1 121.11 525.468 29.0763 496.392 25.0106 43.6145 32.5261 3319.63 22.7929 12.3205 7.7619 2645.08 33.0189 674.546 16.6326 14.9078 2640.65 312.57 1113.28 10.226
internal_count=37580 34522 3058 3313 1292 2021 583 1438 745 31209 983 4265 236 4029 203 354 264 26944 185 100 63 21469 268 5475 135 121 21433 2537 9036 83
is_linear=0
shrinkage=1


Tree=20
num_leaves=31
num_cat=0
split_feature=1 14 12 2 12 13 13 13 13 4 13 12 9 0 16 9 12 3 1 1 13 0 16 3 5 13 13 13 5 3
split_gain=8410.46 6339.44 3345.54 859.114 643.672 274.319 435.16 327.451 555.431 161.727 158.739 180.737 153.403 109.32 93.2083 81.978 75.5221 56.5212 94.9056 47.6663 47.3444 45.8865 43.97 43.8066 37.8773 32.9371 59.8269 39.8236 32.6634 29.9112
threshold=1.5367886032274958 2.5000000000000004 1.0000000180025095e-35 -0.51356829951071503 1.0000000180025095e-35 3.5000000000000004 4.5000000000000009 1.5000000000000002 1.0000000180025095e-35 0.51574132262787054 4.5000000000000009 1.0000000180025095e-35 1.085568183370887 -0.59570726306402966 76.500000000000014 0.28121628348873834 1.5000000000000002 0.75400419565137822 0.0075623848150442067 1.5862336113674254 1.0000000180025095e-35 2.7229670562030157 76.500000000000014 -0.36988960489468375 -0.032707282333061832 4.5000000000000009 3.5000000000000004 2.5000000000000004 -0.66573531219996951 0.96579495493179846
decision_type=2 2 2 2 2 2 2 2 2 2 2 2 2 2 2 2 2 2 2 2 2 2 2 2 2 2 2 2 2 2
left_child=1 9 19 4 21 7 -7 8 -5 15 17 23 -4 -8 -6 -1 25 -11 -19 -2 -14 -3 -17 -12 -15 26 27 -16 -24 -20
right_child=2 3 12 5 14 6 13 -9 -10 10 11 -13 20 24 16 22 -18 18 29 -21 -22 -23 28 -25 -26 -27 -28 -29 -30 -31
leaf_value=-2.7689359961773938 2.6530556194055617 4.5422371772313914 -2.1561082824534465 -1.3495731408167682 -1.7487881632946316 4.4043989536810955 5.1653274368490774 -1.8198423157071757 3.7909560764093504 -2.2759206753692749 0.39087420912836035 -2.0147156863770821 -1.7487881632946316 -2.0332975785179368 2.1940828835264528 -2.6181616909397794 -1.7917329806868285 -2.2748621763490449 -0.33299450604220104 4.8434009921440691 1.3339028590756838 1.2229932002454011 -2.5683859518268441 4.3419072425030452 0.67222591719047586 -1.0781883224780167 5.1653274368490862 -1.5518343455993833 -2.0055265380804439 3.3206523261388048
leaf_weight=2303.8055333420634 10.349198609590529 121.97269789874554 96.83892984688282 46.201779507100582 16.63264062255621 35.482966661453247 2.8337091431021717 81.315131932497025 38.563085295259953 472.36699368059635 4.1889613419771186 16.016616895794868 6.6530562490224865 20.698397219181068 13.798931479454049 546.41304563730955 6.8994657397270194 14.784569442272188 3.819347105920313 248.503971375525 19.835964001715183 4.3121660873293868 156.71643608808517 8.5011274293065089 6.8994657397270158 3.2033233791589728 5.6674182862043372 3.5729376152157775 301.35880713164806 5.4210087954998016
leaf_count=18699 84 990 786 375 135 288 23 660 313 3834 34 130 54 168 112 4435 56 120 31 2017 161 35 1272 69 56 26 46 29 2446 44
internal_value=-1.78313 -2.18429 2.71361 1.56286 3.22848 0.298834 2.0249 -0.386214 0.989069 -2.58316 -2.0676 0.218748 -1.5728 -0.749582 0.182878 -2.66499 1.1523 -2.19982 -0.703577 4.75583 0.559646 4.4289 -2.4266 3.03768 -1.35692 1.92632 2.34406 1.42365 -2.19809 1.81048
internal_weight=0 4241.45 382.181 408.054 176.06 231.995 65.9145 166.08 84.7649 3833.39 525.099 28.7067 123.328 30.4316 49.7747 3308.29 33.1421 496.392 24.0249 258.853 26.489 126.285 1004.49 12.6901 27.5979 26.2426 23.0393 17.3719 458.075 9.24036
internal_count=37528 34426 3102 3312 1429 1883 535 1348 688 31114 4262 233 1001 247 404 26852 269 4029 195 2101 215 1025 8153 103 224 213 187 141 3718 75
is_linear=0
shrinkage=1


Tree=21
num_leaves=31
num_cat=0
split_feature=10 14 12 8 12 6 13 13 13 13 13 14 12 0 16 6 7 6 12 14 6 6 3 13 16 6 12 16 13 6
split_gain=8279.93 6491.37 3511.82 968.805 634.018 246.772 268.129 226.083 516.035 370.133 593.563 128.205 122.378 107.402 72.1782 68.4727 95.6298 68.8974 64.6729 64.206 51.3283 47.3926 42.2489 42.1642 41.6382 38.586 28.5106 33.8889 34.4963 58.9624
threshold=1.5545919951050327 2.5000000000000004 1.0000000180025095e-35 -0.65940519176820822 1.0000000180025095e-35 -0.76701510374969906 4.5000000000000009 3.5000000000000004 4.5000000000000009 1.5000000000000002 1.0000000180025095e-35 2.5000000000000004 1.0000000180025095e-35 -0.59322252011197318 76.500000000000014 -1.1962151517951807 -1.209101377640555 -0.78139322540869027 1.5000000000000002 1.5000000000000002 -0.36898112239559905 1.389128252631624 0.75400419565137822 1.0000000180025095e-35 76.500000000000014 0.4114798547166873 1.0000000180025095e-35 76.500000000000014 4.5000000000000009 -0.36382117828666349
decision_type=2 2 2 2 2 2 2 2 2 2 2 2 2 2 2 2 2 2 2 2 2 2 2 2 2 2 2 2 2 2
left_child=1 5 -2 4 -3 6 15 9 -9 10 -5 -4 -8 -10 -6 16 -1 -17 21 26 -15 -16 -18 -13 -21 -26 27 -7 -29 -30
right_child=2 3 11 7 14 19 12 8 13 -11 -12 23 -14 20 18 17 22 -19 -20 24 -22 -23 -24 -25 25 -27 -28 28 29 -31
leaf_value=-2.6613655328788179 4.8204417763628378 4.7376893711417507 -2.1924984536937151 -1.2670546741976616 -1.598481302421942 -2.7622171420426533 3.7983260916490451 4.4889465629219831 5.1653274368490862 -1.7456936102766645 3.739443432354113 -1.9614173811145337 -1.186771205248923 1.4935455498162422 2.5329261977814408 -2.224133610804512 -0.58390999153128753 -0.39771525657382689 -1.869033651992783 -2.6328918886051373 -1.9459797330633892 -2.1395860015636243 4.1755017676874715 1.364711097639651 -1.9160105872880417 -2.6606497859222813 -2.8278481622087845 -2.5007095239521719 2.9517173039967499 -1.8657442617244446
leaf_weight=6.8994657397270194 255.15702762454748 116.92130333930254 100.16545797139406 49.281898140907288 14.784569442272185 693.02669260650873 11.704450808465483 36.961423605680466 2.7105043977498999 83.779226839542389 45.585755780339241 5.0513945594429996 8.5011274293065053 5.1745993047952643 18.234302312135704 354.82966661453247 2.9569138884544355 21.930444672703743 5.544213540852069 361.23631337285042 26.858634486794472 2.4640949070453635 5.051394559442997 15.523797914385794 229.9000548273325 99.795843735337257 1564.084242247045 430.60058500617743 2.7105043977498999 40.534361220896244
leaf_count=56 2071 949 813 400 120 5625 95 300 22 680 370 41 69 42 148 2880 24 178 45 2932 218 20 41 126 1866 810 12695 3495 22 329
internal_value=-1.78313 -2.17898 2.71785 1.61157 3.55088 -2.58268 -1.85139 0.388055 1.88802 -0.214 1.13867 -1.72548 1.70094 -0.878927 0.16864 -2.03465 0.0673162 -2.11782 1.1642 -2.6707 -1.39036 1.97667 2.41818 0.548117 -2.39837 -2.14141 -2.7396 -2.6213 -2.4152 -1.5638
internal_weight=0 4242.06 375.898 408.301 157.948 3833.76 411.873 250.352 71.7052 178.647 94.8677 120.741 20.2056 34.7437 41.0272 391.668 14.9078 376.76 26.2426 3421.89 32.0332 20.6984 8.00831 20.5752 690.932 329.696 2730.96 1166.87 473.845 43.2449
internal_count=37482 34431 3051 3314 1282 31117 3343 2032 582 1450 770 980 164 282 333 3179 121 3058 213 27774 260 168 65 167 5608 2676 22166 9471 3846 351
is_linear=0
shrinkage=1


Tree=22
num_leaves=31
num_cat=0
split_feature=10 14 12 8 12 13 13 13 13 4 13 9 0 12 9 12 16 7 13 13 0 10 4 4 4 12 16 16 4 9
split_gain=8255.26 6648.13 3489.22 915.926 675.357 247.464 533.659 374.542 655.341 156.745 177.541 139.081 107.972 96.0471 95.6713 84.5848 88.0789 65.6046 53.0747 49.855 120.264 48.5813 50.9075 33.4212 33.267 31.4725 29.5165 56.1302 28.4943 26.0784
threshold=1.5545919951050327 2.5000000000000004 1.0000000180025095e-35 -0.67151145018010638 1.0000000180025095e-35 3.5000000000000004 4.5000000000000009 1.5000000000000002 1.0000000180025095e-35 1.2144589538204951 4.5000000000000009 1.4904214383852199 -0.59570726306402966 1.0000000180025095e-35 0.26588357914040933 1.5000000000000002 49.500000000000007 -0.92656933543718878 3.5000000000000004 4.5000000000000009 -0.6171145575941327 0.10185826631959054 1.9922874046633197 0.55226009915368512 -0.28550916962263012 1.0000000180025095e-35 32.500000000000007 34.500000000000007 0.96594015452962445 0.96385078574233163
decision_type=2 2 2 2 2 2 2 2 2 2 2 2 2 2 2 2 2 2 2 2 2 2 2 2 2 2 2 2 2 2
left_child=1 9 -2 4 -3 7 -7 8 -5 14 17 -4 -8 -12 25 16 -6 21 -13 26 -21 -11 -23 -22 -18 -1 -16 -28 -9 -29
right_child=2 3 11 5 15 6 12 28 -10 10 13 18 -14 -15 19 -17 24 -19 -20 20 23 22 -24 -25 -26 -27 27 29 -30 -31
leaf_value=-2.6186571313371907 4.8332320053252094 4.7238403392230275 -2.1415139280451267 -1.3680107824171515 -1.6323003461182972 4.4847454394814426 5.1653274368490862 -1.869033651992783 3.830225764032142 -2.564739693746374 4.3256822140430282 -0.34234539370018013 -1.4097238492329831 -1.598481302421942 -2.7227395232571956 -2.4563302156953406 0.81417624787473408 -2.1428854204608294 3.4383975459713767 3.8125656889948809 -2.0744530285187919 -1.869033651992783 2.6890855933193532 0.75918917240967354 3.2555461457607944 -2.8446398606068279 -0.32087298500408123 -2.5041026402069733 0.47575337762117331 -2.0395533855756534
leaf_weight=1085.433806553483 252.93934220820665 117.78373655676842 103.73839558660984 49.897921867668629 9.8563796281814557 39.671928003430367 2.7105043977498999 79.467060752213001 47.187417469918728 5.1745993047952679 7.1458752304315549 10.349198609590532 31.786824300885201 4.4353708326816559 319.46990469843149 10.102789118885992 11.950860299170015 181.85020413994789 5.7906230315566054 3.6961423605680457 119.75501248240471 3.6961423605680448 7.2690799757838249 4.3121660873293868 10.4724033549428 1425.8485179618001 13.306112498044966 514.37981184571981 5.544213540852069 157.94848354160786
leaf_count=8810 2053 956 842 405 80 322 22 645 383 42 58 84 258 36 2593 82 97 1476 47 30 972 30 59 35 85 11573 108 4175 45 1282
internal_value=-1.78313 -2.17961 2.72714 1.61613 3.49207 0.443669 1.98342 -0.183482 1.15854 -2.58977 -1.74879 -1.71666 -0.893113 2.05685 -2.63814 0.0688762 0.859208 -1.9714 1.0141 -2.3969 -1.80851 -0.039191 1.15264 -1.97596 1.95438 -2.74696 -2.47169 -2.35472 -1.71611 -2.39497
internal_weight=0 4270.15 372.818 416.432 160.166 256.266 74.1693 182.097 97.0853 3853.72 209.571 119.878 34.4973 11.5812 3644.15 42.3824 32.2796 197.99 16.1398 1132.87 127.763 16.1398 10.9652 124.067 22.4233 2511.28 1005.1 685.634 85.0113 672.328
internal_count=37685 34659 3026 3380 1300 2080 602 1478 788 31279 1701 973 280 94 29578 344 262 1607 131 9195 1037 131 89 1007 182 20383 8158 5565 690 5457
is_linear=0
shrinkage=1


Tree=23
num_leaves=31
num_cat=0
split_feature=10 14 12 2 12 6 13 13 13 13 13 12 9 6 10 12 16 9 6 16 6 6 13 13 11 2 9 13 6 16
split_gain=8254.03 6526.93 3608.04 810.855 670.639 256.265 304.805 223.188 459.338 388.348 634.472 128.972 101.23 85.7048 97.0916 83.8134 87.5038 73.0681 66.1459 62.5761 52.0239 45.2954 33.6715 36.8461 32.1929 140.936 32.1802 30.7631 30.4981 30.0815
threshold=1.5545919951050327 2.5000000000000004 1.0000000180025095e-35 -0.56689801616836544 1.0000000180025095e-35 -0.76701510374969906 4.5000000000000009 3.5000000000000004 4.5000000000000009 1.5000000000000002 1.0000000180025095e-35 1.0000000180025095e-35 1.2073145141141086 -1.1962151517951807 0.10185826631959054 1.5000000000000002 159.50000000000003 0.19043967238642806 -0.63298615818169257 76.500000000000014 -0.78139322540869027 0.6191547233832333 3.5000000000000004 4.5000000000000009 1.2734076113421187 -0.78877307547467901 0.96385078574233163 1.0000000180025095e-35 1.1868032978242142 537.50000000000011
decision_type=2 2 2 2 2 2 2 2 2 2 2 2 2 2 2 2 2 2 2 2 2 2 2 2 2 2 2 2 2 2
left_child=1 5 -2 4 24 6 13 9 -9 10 -5 -8 -4 14 -1 16 -6 -7 -10 -19 -15 26 -14 -24 28 -26 -21 -18 -3 -16
right_child=2 3 12 7 15 17 11 8 18 -11 -12 -13 22 20 29 -17 27 19 -20 21 -22 -23 23 -25 25 -27 -28 -29 -30 -31
leaf_value=-2.2748621763490449 4.855265024623316 4.7765096889628476 -2.2015598156278808 -1.3664773087266298 -0.9221004284948392 -2.7742225120318564 4.0058173672597652 4.2751229318095447 3.3616451063768116 -1.7655392291147807 3.8745520763628631 -0.97694212097541511 -0.66384591299540019 -2.2156876906900336 4.3328586689388047 -2.473797727504075 -0.67860331388108341 -2.681694899697658 -1.3488299927321101 -2.1950811456379311 -0.56108732400614025 -2.6828725744921682 4.1180280191555072 -0.5839099915312882 5.017753427992262 -0.96719248675664604 -1.5122942658550536 2.7743996964556068 1.3002938715513557 0.22480627077285598
leaf_weight=7.3922847211360914 254.78741338849068 102.87596236914396 100.04225322604179 46.694598488509655 16.755845367908478 2237.0285613611341 12.074065044522287 38.193471059203148 3.326528124511241 81.807950913906097 45.708960525691509 9.1171511560678464 13.552521988749506 353.47441441565752 4.8049850687384605 10.472403354942797 3.0801186338067081 630.68509145826101 28.706705667078495 308.13506812602282 20.08237349241972 152.77388423681259 3.8193471059203139 2.9569138884544373 13.552521988749506 5.544213540852069 88.953826144337654 15.893412150442598 2.5872996523976317 2.833709143102169
leaf_count=60 2068 835 812 379 136 18157 98 310 27 664 371 74 110 2869 39 85 25 5119 233 2501 163 1240 31 24 110 45 722 129 21 23
internal_value=-1.78313 -2.16987 2.72369 1.59596 3.26795 -2.5784 -1.83113 0.427934 1.93294 -0.178751 1.22609 1.86207 -1.78817 -2.03253 0.308691 0.0140107 0.743196 -2.668 -0.859665 -2.46672 -2.12674 -2.22015 0.246194 2.06627 4.4749 3.28019 -2.04213 2.21385 4.69123 2.8089
internal_weight=0 4242.56 375.158 415.2 170.762 3827.36 409.779 244.438 70.2267 174.212 92.4036 21.1912 120.371 388.588 15.031 46.2018 35.7294 3417.58 32.0332 1180.55 373.557 549.863 20.3288 6.77626 124.56 19.0967 397.089 18.9735 105.463 7.63869
internal_count=37480 34435 3045 3370 1386 31065 3326 1984 570 1414 750 172 977 3154 122 375 290 27739 260 9582 3032 4463 165 55 1011 155 3223 154 856 62
is_linear=0
shrinkage=1


Tree=24
num_leaves=31
num_cat=0
split_feature=10 14 8 3 6 13 13 13 13 13 6 16 16 16 0 1 16 2 14 16 16 6 6 16 6 1 16 16 16 16
split_gain=8239.78 6517.4 953.855 343.423 265.65 305.245 246.792 497.202 404.547 594.224 166.698 154.15 139.937 134.146 117.189 110.044 101.606 81.7934 64.3789 55.7842 68.8103 62.7875 55.3995 52.9517 52.8551 84.5613 47.8233 55.4389 46.6314 43.9707
threshold=1.5545919951050327 2.5000000000000004 -0.45179665319117174 -0.68304693199866062 -0.76701510374969906 4.5000000000000009 3.5000000000000004 4.5000000000000009 1.5000000000000002 1.0000000180025095e-35 -0.11964497448098628 78.500000000000014 5.5000000000000009 44.500000000000007 -0.59570726306402966 2.1301380947790842 47.500000000000007 1.2590983943315373 1.5000000000000002 21.500000000000004 5.5000000000000009 -0.49629404051688458 -0.79096036212348564 24.500000000000004 -1.1962151517951807 -0.038451002431840693 86.500000000000014 142.50000000000003 64.500000000000014 9.5000000000000018
decision_type=2 2 2 2 2 2 2 2 2 2 2 2 2 2 2 2 2 2 2 2 2 2 2 2 2 2 2 2 2 2
left_child=1 4 10 12 5 22 8 -8 9 -4 -3 29 -2 19 -9 23 -15 26 -6 20 -5 -22 24 -14 25 -1 -18 -28 -7 -12
right_child=3 2 6 13 18 28 7 14 -10 -11 11 -13 15 16 -16 -17 17 -19 -20 -21 21 -23 -24 -25 -26 -27 27 -29 -30 -31
leaf_value=-2.8063042915774825 4.4086979846594456 4.2137295176688863 -1.2777233622090891 4.2925779221044351 -2.7429572057929228 3.4565757553490348 4.4274573925649738 5.1653274368490862 -1.8200543473290964 3.7651643339487766 3.1361848150677716 3.2162825501380929 -1.7293937296336392 -2.3914795684054417 -1.4253277986966038 2.077847682923017 4.2567561136634255 0.27582714340015024 -2.4027874227939732 4.8770754008577226 3.9478418637802992 -2.6613655328788179 -0.68285653859049278 0.63949781038755016 -2.2144075241052974 2.0234291837683509 0.21284374978962139 3.0750046355165823 0.53812370119825181 -1.0940616676288484
leaf_weight=6.8994657397270203 14.538159951567648 107.18812845647335 47.803441196680069 11.458041317760946 2736.6238037645817 9.3635606467723864 37.947061568498611 2.9569138884544364 85.75050276517868 45.708960525691509 2.9569138884544399 37.454242587089539 11.458041317760943 3.5729376152157775 30.801186338067055 62.834420129656792 33.018871754407883 10.22599386423826 698.32449665665627 65.914538763463497 2.4640949070453644 3.4497328698635092 28.213886685669422 53.470859482884407 351.50313849002123 7.6386942118406278 7.269079975783824 98.070977300405502 13.182907752692698 14.538159951567648
leaf_count=56 118 870 388 93 22212 76 308 24 696 371 24 304 93 29 250 510 268 83 5668 535 20 28 229 434 2853 62 59 796 107 118
internal_value=-1.78313 -2.17748 1.59723 2.69541 -2.58232 -1.82841 0.375873 1.9438 -0.251298 1.18725 3.48774 2.07157 1.46895 3.43668 -0.848044 1.13444 2.87823 3.00495 -2.6738 4.45693 2.86275 0.0924709 -2.03306 0.221458 -2.13713 -0.268648 3.20665 2.8775 1.75016 -0.37909
internal_weight=0 4264.86 413.106 377.746 3851.75 416.802 250.968 71.7052 179.263 93.5124 162.137 54.9493 142.301 235.444 33.7581 127.763 152.158 148.585 3434.95 83.2864 17.3719 5.91383 394.255 64.9289 366.041 14.5382 138.359 105.34 22.5465 17.4951
internal_count=37682 34616 3353 3066 31263 3383 2037 582 1455 759 1316 446 1155 1911 274 1037 1235 1206 27880 676 141 48 3200 527 2971 118 1123 855 183 142
is_linear=0
shrinkage=1


Tree=25
num_leaves=31
num_cat=0
split_feature=10 14 12 8 12 13 13 13 13 6 13 12 0 9 16 6 6 10 9 12 13 16 6 9 6 9 16 6 13 16
split_gain=8297.72 6655.62 3518.73 1036.54 630.844 241.577 500.338 384.354 595.222 229.829 277.673 139.792 132.838 125.236 88.6209 69.6338 74.361 87.659 67.6781 62.2139 54.1647 53.8171 50.3705 46.2912 38.7415 34.2398 30.284 27.7787 25.9697 29.6321
threshold=1.5545919951050327 2.5000000000000004 1.0000000180025095e-35 -0.45179665319117174 1.0000000180025095e-35 3.5000000000000004 4.5000000000000009 1.5000000000000002 1.0000000180025095e-35 -0.76701510374969906 4.5000000000000009 1.0000000180025095e-35 -0.59570726306402966 1.530216414299866 76.500000000000014 -0.78139322540869027 -1.1962151517951807 -1.0000000180025095e-35 0.19043967238642806 1.5000000000000002 3.5000000000000004 76.500000000000014 1.389128252631624 1.4378792364952018 -0.62757236194554833 0.38761102260611452 78.500000000000014 -0.12453939564475353 3.5000000000000004 332.50000000000006
decision_type=2 2 2 2 2 2 2 2 2 2 2 2 2 2 2 2 2 2 2 2 2 2 2 2 2 2 2 2 2 2
left_child=1 9 -2 4 -3 7 -7 8 -5 10 15 -12 -8 -4 -6 16 17 -1 -11 22 -15 -20 28 26 -14 -19 -23 -9 29 -16
right_child=2 3 13 5 14 6 12 27 -10 18 11 -13 24 20 19 -17 -18 25 21 -21 -22 23 -24 -25 -26 -27 -28 -29 -30 -31
leaf_value=-2.4101383511344654 4.839092400320566 4.7804179085936624 -2.1347832971333727 -1.3531618144691069 -1.6661193898146522 4.4226347125369729 5.1653274368490862 -1.1676654591562714 3.6798012734229824 -2.7762976269325619 3.9101876707987904 -1.3507925316880733 2.3245277663552484 -0.57038237405274583 0.26156610087758714 -0.30863870563072271 -2.2640663678130815 -0.36869789528175456 -2.6796966000203621 -1.5696991375739802 3.3052800335495531 -0.40724334535629825 -1.6525917723361103 -0.70850646830733299 -1.8065984943995121 4.0973576359115542 -2.3374958636042766 -2.3121430119198298 4.4745554804980028 3.2328106542002208
leaf_weight=7.3922847211360931 254.41779915243387 119.50860299170017 104.10800982266665 47.557031705975533 14.784569442272185 37.700652077794075 3.326528124511241 38.686290040612221 46.448188997805119 2229.2666624039412 11.950860299170019 8.7475369200110418 2.464094907045367 9.2403559014201146 5.9138277769088834 21.191216200590134 355.07607610523701 2.710504397749899 637.09173821657896 5.7906230315566054 5.9138277769088736 8.2547179386019689 3.0801186338067046 18.727121293544769 28.829910412430763 4.6817803233861923 529.53399552404881 46.941007979214191 5.7906230315566054 7.7618989571928978
leaf_count=60 2065 970 845 386 120 306 27 314 377 18094 97 71 20 75 48 172 2882 22 5171 47 48 67 25 152 234 38 4298 381 47 63
internal_value=-1.78313 -2.17698 2.73812 1.62925 3.59735 0.358889 1.90211 -0.26242 1.13364 -2.5885 -1.88263 1.6868 -0.842668 -1.74382 0.318575 -2.07156 -2.17257 0.0248328 -2.67341 1.35407 0.942071 -2.48124 2.10498 -2.25405 -1.48131 2.4598 -2.30787 -1.79507 2.69953 1.94795
internal_weight=0 4249.21 373.68 414.584 162.63 251.954 72.3212 179.633 94.0052 3834.62 411.75 20.6984 34.6205 119.262 43.1217 391.052 369.861 14.7846 3422.87 28.3371 15.1542 1193.61 22.5465 556.516 31.294 7.39228 537.789 85.6273 19.4663 13.6757
internal_count=37522 34489 3033 3365 1320 2045 587 1458 763 31124 3342 168 281 968 350 3174 3002 120 27782 230 123 9688 183 4517 254 60 4365 695 158 111
is_linear=0
shrinkage=1


Tree=26
num_leaves=31
num_cat=0
split_feature=10 14 8 3 13 13 13 13 6 13 6 16 16 16 1 16 6 10 9 16 6 6 16 6 2 3 16 16 8 6
split_gain=7980.46 6361.73 948.623 338.281 279.05 523.231 387.441 618.226 244.064 294.311 178.349 153.02 121.673 95.49 93.5065 77.1384 76.8698 97.2401 74.4165 71.5958 70.8786 70.2183 104.756 65.3304 63.5896 69.3237 60.1975 49.6934 45.627 43.631
threshold=1.5545919951050327 2.5000000000000004 -0.65940519176820822 -0.71477396557076334 3.5000000000000004 4.5000000000000009 1.5000000000000002 1.0000000180025095e-35 -0.76701510374969906 4.5000000000000009 1.1868032978242142 44.500000000000007 5.5000000000000009 47.500000000000007 2.1301380947790842 21.500000000000004 -1.1962151517951807 -1.0000000180025095e-35 0.14413771909543371 5.5000000000000009 -0.49629404051688458 -0.11964497448098628 55.500000000000007 -0.78139322540869027 1.2590983943315373 -0.56877468181713564 76.500000000000014 9.5000000000000018 0.072827000364037817 0.6191547233832333
decision_type=2 2 2 2 2 2 2 2 2 2 2 2 2 2 2 2 2 2 2 2 2 2 2 2 2 2 2 2 2 2
left_child=1 8 10 12 6 -6 7 -4 9 16 21 15 -2 -13 28 19 17 -1 -10 -5 -21 -3 27 -18 25 -15 -20 -23 -14 -28
right_child=3 2 4 11 5 -7 -8 -9 18 -11 -12 13 14 24 -16 -17 23 -19 26 20 -22 22 -24 -25 -26 -27 29 -29 -30 -31
leaf_value=-2.5314204388731181 4.5488790454218533 4.2069853793330942 -1.3719103692837993 4.1416158438783341 4.5017084662036266 -0.84910968670414466 -1.8465522246645469 3.6876404616204814 -2.7850427146888235 1.7676932794478255 -0.83871100568190871 -1.9963524047320025 0.93794697480469336 2.2181455318152636 1.8713346396868558 4.8470305550010373 -2.2477695722829041 2.5430508179317037 -2.6837306147454285 4.0058173672597652 -1.8186983311423941 3.947841863780301 3.5652866598172297 -0.43558085251218626 0.66505073111628321 3.5871053976858462 -2.0690598142912013 -1.1608230898808753 -0.94891729133776404 -2.6892120345500574
leaf_weight=7.1458752304315576 9.7331748828291875 102.25993864238262 50.021126613020897 13.675726734101774 39.179109022021294 34.250919207930565 85.996912255883217 46.694598488509655 2202.1616184264421 21.191216200590134 8.9939464107155782 4.1889613419771186 23.655311107635498 63.450443856418133 46.448188997805119 69.117862142622471 356.80094254016876 8.0083084478974307 657.91334018111229 3.4497328698635101 5.2978040501475316 2.4640949070453635 34.374123953282833 21.068011455237865 12.443679280579088 88.707416653633118 412.61269218474627 8.3779226839542371 27.967477194964886 156.47002659738064
leaf_count=58 79 830 406 111 318 278 698 379 17874 172 73 34 192 515 377 561 2896 65 5340 28 43 20 279 171 101 720 3349 68 227 1270
internal_value=-1.78313 -2.18691 1.5445 2.66625 0.359412 2.00586 -0.302275 1.07085 -2.5875 -1.86243 3.48449 3.28311 1.17661 2.71851 0.841928 4.32418 -2.05817 0.150211 -2.67508 2.71252 0.478294 3.74815 2.71045 -2.14673 2.8385 3.01624 -2.47773 0.000237127 -0.0842921 -2.23957
internal_weight=0 4255.98 412.613 368.136 256.143 73.43 182.713 96.7157 3843.37 414.214 156.47 260.332 107.804 168.791 98.071 91.5411 393.023 15.1542 3429.16 22.4233 8.74754 147.476 45.2161 377.869 164.602 152.158 1227 10.842 51.6228 569.083
internal_count=37532 34544 3349 2988 2079 596 1483 785 31195 3362 1270 2113 875 1370 796 743 3190 123 27833 182 71 1197 367 3067 1336 1235 9959 88 419 4619
is_linear=0
shrinkage=1


Tree=27
num_leaves=31
num_cat=0
split_feature=10 14 12 2 12 6 13 13 13 13 13 12 9 0 6 1 12 9 6 6 13 9 6 0 2 6 13 0 6 9
split_gain=8277.42 6660.07 3486.53 781.531 612.728 263.615 306.679 232.482 443.342 425.583 607.214 132.166 125.023 113.181 75.179 84.9887 70.0667 66.3794 64.1355 62.5065 57.5669 49.0019 46.9494 42.2378 128.703 35.338 74.7629 79.3715 29.5662 28.9018
threshold=1.5545919951050327 2.5000000000000004 1.0000000180025095e-35 -0.56689801616836544 1.0000000180025095e-35 -0.76701510374969906 4.5000000000000009 3.5000000000000004 4.5000000000000009 1.5000000000000002 1.0000000180025095e-35 1.0000000180025095e-35 1.4904214383852199 -0.59322252011197318 -1.1962151517951807 -0.038451002431840693 1.5000000000000002 0.19043967238642806 -0.79096036212348564 0.87837208639158482 3.5000000000000004 0.098813380439998849 -0.42163238579581069 0.90114512854146345 -0.78877307547467901 -0.12453939564475353 4.5000000000000009 -0.59708883346168939 -0.49629404051688458 0.10920880656440531
decision_type=2 2 2 2 2 2 2 2 2 2 2 2 2 2 2 2 2 2 2 2 2 2 2 2 2 2 2 2 2 2
left_child=1 5 -2 4 23 6 14 9 -9 10 -5 -8 -4 -10 15 -1 19 -7 29 -6 -14 -17 -15 -3 -25 26 -19 -28 -11 -16
right_child=2 3 12 7 16 17 11 8 13 28 -12 -13 20 22 18 21 -18 25 -20 -21 -22 -23 -24 24 -26 -27 27 -29 -30 -31
leaf_value=-2.7747958657734246 4.8555952949724874 4.7843671532291276 -2.1019467329550769 -1.2602908654583906 1.5293976711233024 -2.7812531480987008 3.9045009534121551 4.3669762413941449 5.1653274368490774 -0.61553931297392217 3.9368735252841862 -1.086625505936567 -0.61772903522764344 1.8679706764544532 -2.4933852279254936 -1.4052296241570552 -2.3019174113061291 -2.3991690374148686 -0.58719339383190472 -1.5598309667689647 3.2555461457607962 3.81256568899488 -1.8499998183546336 4.652210911800938 -0.15701386618385405 -2.6366358986288372 4.3923207237895401 -1.3388603609145693 -2.0944073942456525 -1.9142679564951635
leaf_weight=5.667418286204339 251.83049950003624 94.498039685189724 103.61519084125757 44.353708326816559 27.228248722851276 2235.4268996715546 12.690088771283628 37.577447332441807 2.9569138884544399 17.125459603965282 45.585755780339241 9.1171511560678464 9.8563796281814593 3.9425518512725892 192.19940274953842 2.587299652397629 9.2403559014201146 461.89459032565355 25.380177542567253 8.6243321746587736 6.2834420129656783 5.9138277769088745 24.517744325101372 21.437625691294674 7.5154894664883605 680.21339908987284 2.5872996523976317 36.591809369623661 64.189672328531742 156.2236171066761
leaf_count=46 2044 767 841 360 221 18144 103 305 24 139 370 74 80 32 1560 21 75 3749 206 70 51 48 199 174 61 5521 21 297 521 1268
internal_value=-1.78313 -2.17916 2.74327 1.65744 3.30825 -2.58903 -1.83113 0.49934 2.04914 -0.125042 1.37389 1.81782 -1.69869 -0.723165 -2.03623 0.224806 0.153456 -2.67993 -2.12193 0.786284 0.890187 2.22454 -1.33496 4.4606 3.40386 -2.48819 -2.28667 -0.960386 -1.78295 -2.23372
internal_weight=0 4235.29 371.586 408.793 168.544 3826.49 409.779 240.249 68.9947 171.255 89.9395 21.8072 119.755 31.4172 387.972 14.1685 45.0929 3416.71 373.803 35.8526 16.1398 8.50113 28.4603 123.451 28.9531 1181.29 501.074 39.1791 81.3151 348.423
internal_count=37392 34376 3016 3318 1368 31058 3326 1950 560 1390 730 177 972 255 3149 115 366 27732 3034 291 131 69 231 1002 235 9588 4067 318 660 2828
is_linear=0
shrinkage=1


Tree=28
num_leaves=31
num_cat=0
split_feature=10 12 15 6 6 13 16 16 16 12 13 12 6 6 6 1 6 2 13 3 16 16 13 13 3 1 13 6 6 16
split_gain=8359.84 3571.4 1142.83 371.33 318.93 245.651 215.224 183.657 203.54 154.969 132.802 100.003 95.9001 93.2561 79.7515 76.4963 76.2079 74.8614 64.5237 59.3546 59.1996 65.7503 56.6688 136.392 50.219 73.8309 49.1996 48.927 50.2156 119.722
threshold=1.5545919951050327 1.0000000180025095e-35 1.0000000180025095e-35 -0.76701510374969906 -0.11964497448098628 4.5000000000000009 129.50000000000003 156.50000000000003 157.50000000000003 1.0000000180025095e-35 3.5000000000000004 1.0000000180025095e-35 -0.79096036212348564 -1.1962151517951807 1.3089405530762519 -0.038451002431840693 -0.76701510374969906 -0.58524029120963561 3.5000000000000004 -0.44743835582656977 28.500000000000004 34.500000000000007 1.5000000000000002 1.0000000180025095e-35 0.52551332986506361 -0.33211884396986918 4.5000000000000009 -0.11964497448098628 -0.28856675808453991 34.500000000000007
decision_type=2 2 2 2 2 2 2 2 2 2 2 2 2 2 2 2 2 2 2 2 2 2 2 2 2 2 2 2 2 2
left_child=2 -2 3 5 10 12 -6 27 -9 -7 17 -10 13 15 18 -1 -12 -4 -8 -3 -18 -22 23 -19 -15 -26 -20 28 -5 -30
right_child=1 19 4 7 6 9 14 8 11 -11 16 -13 -14 24 -16 -17 20 22 26 -21 21 -23 -24 -25 25 -27 -28 -29 29 -31
leaf_value=-2.3268914743434372 4.8384856722668621 -2.0581258624546286 -0.056053989920136438 -2.6038999627858423 -2.415243112447123 4.0058173672597652 -0.80004673695912143 1.5062177910139398 -1.8189283128093925 -1.7337574772073625 2.3102523911266424 -2.4652719181688596 0.16196206807325697 -2.1869443851106865 -2.310461169713629 2.7057606225687136 -1.9733429915863605 -2.0494018850400106 2.1850242111077884 -0.12112307779169118 4.2878603571598717 0.30418359496649328 -1.9975460180389326 0.58075159974088497 -1.8806524645510401 -0.1043862376277449 -0.41946876988846027 -2.7831060118526523 -0.20154774239290529 -2.3680164284467895
leaf_weight=4.8049850687384614 257.0050988048315 101.89032440632582 119.50860299170017 728.38645452260971 169.77613909542561 12.936498261988165 65.544924527406693 15.030978932976721 404.48117899149656 7.3922847211360923 24.517744325101376 586.45458787679672 26.98183923214674 213.26741420477629 23.408901616930962 8.1315131932496989 10.22599386423826 36.591809369623661 15.770207405090332 18.727121293544769 4.5585755780339232 45.462551034986973 49.281898140907288 42.752046637237072 80.329493969678879 33.018871754407883 13.429317243397236 1326.2990837171674 30.185162611305714 164.60153979063034
leaf_count=39 2086 827 970 5912 1378 105 532 122 3283 60 199 4760 219 1731 190 66 83 297 128 152 37 369 400 347 652 268 109 10765 245 1336
internal_value=-1.78313 2.73168 -2.1774 -2.39116 -0.923308 -1.46493 -1.69399 -2.50123 -2.14605 1.9187 -0.256734 -2.20145 -1.65259 -1.79678 -0.657614 0.83649 0.823906 -0.62589 -0.249238 -1.75739 0.219033 0.667228 -1.15534 -0.632223 -1.90108 -1.36322 0.987177 -2.66006 -2.48329 -2.03229
internal_weight=0 377.623 4263.13 3642.3 620.829 386.863 287.929 3255.44 1005.97 20.3288 332.899 990.936 366.534 339.552 118.153 12.9365 84.7649 248.134 94.7444 120.617 60.2471 50.0211 128.626 79.3439 326.616 113.348 29.1995 2249.47 923.173 194.787
internal_count=37667 3065 34602 29563 5039 3140 2337 26423 8165 165 2702 8043 2975 2756 959 105 688 2014 769 979 489 406 1044 644 2651 920 237 18258 7493 1581
is_linear=0
shrinkage=1


Tree=29
num_leaves=31
num_cat=0
split_feature=1 14 8 3 13 13 13 13 4 16 13 16 5 1 16 0 3 16 2 16 16 9 3 1 5 5 16 4 9 11
split_gain=8233.85 6337.58 1029.82 316.457 245.466 506.347 338.961 562.062 171.923 161.082 155.16 128.915 119.461 116.369 108.446 106.762 84.3888 76.5069 73.1133 71.941 76.2056 70.231 61.2603 84.8987 58.3929 57.2507 55.3129 48.3129 44.0133 42.6621
threshold=1.5367886032274958 2.5000000000000004 -0.65940519176820822 -0.68304693199866062 3.5000000000000004 4.5000000000000009 1.5000000000000002 1.0000000180025095e-35 0.59582032643013905 44.500000000000007 4.5000000000000009 5.5000000000000009 -0.10301176881638337 2.1301380947790842 76.500000000000014 -0.59570726306402966 -0.1227085518678399 47.500000000000007 -0.19233661880232425 21.500000000000004 5.5000000000000009 0.28121628348873834 0.75400419565137822 0.0075623848150442067 -0.71724107352680366 -1.1678322392586444 198.50000000000003 2.0600906986387564 1.3522425534371176 -0.44342969703540269
decision_type=2 2 2 2 2 2 2 2 2 2 2 2 2 2 2 2 2 2 2 2 2 2 2 2 2 2 2 2 2 2
left_child=1 8 12 11 6 -6 7 -4 21 19 22 -2 14 28 24 -7 -12 -11 -19 20 -5 -1 -10 -24 -3 -16 -25 -22 -13 -26
right_child=3 2 4 9 5 15 -8 -9 10 17 16 13 -14 -15 25 -17 -18 18 -20 -21 27 -23 23 26 29 -27 -28 -29 -30 -31
leaf_value=-2.7664825786263938 4.5971675027503194 -2.1962132375203116 -1.323808866309413 4.1507561259584298 4.3430604920749607 5.1653274368490862 -1.7950697003115459 3.6917833900793262 -2.2467859891294291 -2.2748621763490449 -1.109668233869582 0.06026226935166723 4.2340911880002983 2.1866248697293402 -0.020259263258702198 -1.5227266445421064 2.6602130889709272 3.3961938432220533 1.9262320220334475 4.9455646980280061 -2.6613655328788179 -2.452763383103246 -2.2066035560444748 -1.9366717393854935 2.7941944855540717 3.7633743527092731 3.246865321710394 3.136184815067776 3.0009086402823568 -0.45383674654530615
