tree
version=v4
num_class=1
num_tree_per_iteration=1
label_index=0
max_feature_idx=51
objective=binary sigmoid:1
average_output
feature_names=Column_0 Column_1 Column_2 Column_3 Column_4 Column_5 Column_6 Column_7 Column_8 Column_9 Column_10 Column_11 Column_12 Column_13 Column_14 Column_15 Column_16 Column_17 Column_18 Column_19 Column_20 Column_21 Column_22 Column_23 Column_24 Column_25 Column_26 Column_27 Column_28 Column_29 Column_30 Column_31 Column_32 Column_33 Column_34 Column_35 Column_36 Column_37 Column_38 Column_39 Column_40 Column_41 Column_42 Column_43 Column_44 Column_45 Column_46 Column_47 Column_48 Column_49 Column_50 Column_51
feature_infos=[-1.2504883594784932:15.798026433845127] [-1.6942035155796722:31.698713898142451] [-1.2882573311383756:41.078922051193565] [-0.95864077175868101:14.807636610531953] [-1.1115839361460276:21.78669170307009] [-1.8862102267685008:19.869853026967405] [-1.5540989689317364:47.607737950131309] [-1.5642778150448371:4.6628140028417828] [-1.2137602981557114:29.702922545606071] [-1.7627598234802535:4.0743700750396483] [-1.7340317224577881:7.3264240399689395] [-0.9780609384227239:5.9920763381780535] [-1.5579095479715643:59.004612215098327] [-0.96585018940973733:14.807636610531953] [-5.7175227242526372:7.6513710065328215] [-0.77324764779361999:9.7791031611688801] [-0.062260658358432017:40.225310711442269] [-0.038678174249927491:0.037962509996518311] [-1.0557133852894609:1.0125788042377051] [-0.83569064898836887:9.7702713795261822] [-1.1906518626512872:3.3511901225083855] [-0.68528103434752552:12.781567845435854] [-2.2227376334689892:11.035072096676103] [-0.86951015623001549:119.05123222314909] [-1.5754389148421519:4.8727056555570245] [-4.2402729805030015:2.3910309440712902] [-0.28049198077108334:4.1110789158789149] [-1.6801137147764449:9.4631116693494146] [-1.7369647438352842:8.8738217139887006] [-1.6333961596839974:4.4334029956433021] [-0.72481424855633592:34.139763059305217] [-1.0164738168665284:7.3065175406773983] [-0.12253561608413749:12.364032253258062] [-1.6685082708758705:55.441284723942204] [-2.36423798798715:4.7794127332731167] [-0.80572008151020869:2.4136534418011872] [0:3] [0:5] [0:6] [0:1] [0:3898] [0:0.40000000000000002] [0:0.56000000000000005] [0:0.40000000000000002] [0:1] [0:4] [0:1] [0:1] [0:34] [0:4] [0:56] [0:35]
tree_sizes=3313 3318 3310 3305 3296 3315 3325 3328 3325 3321 3304 3315 3311 3316 3324 3319 3318 3310 3338 3320 3321 3319 3324 3316 3316 3321 3292 3321 3319 3332 3313 3305 3324 3305 3326 3320 3320 3310 3318 3321 3312 3313 3312 3316 3322 3320 3327 3323 3321 3305 3334 3323 3327 3323 3297 3306 3328 3321 3321 3319 3314 3328 3330 3318 3317 3333 3322 3306 3302 3320 3306 3332 3329 3310 3321 3336 3322 3307 3326 3307 3320 3324 3330 3322 3295 3316 3328 3306 3332 3294 3303 3315 3316 3318 3337 3310 3307 3307 3311 3325

Tree=0
num_leaves=31
num_cat=0
split_feature=1 38 48 8 48 37 37 50 37 6 37 48 9 48 40 0 9 40 10 27 33 10 6 6 9 9 37 5 40 37
split_gain=8394.31 6470.84 3477.32 1056.57 685.144 231.833 528.588 374.296 658.576 213.824 274.8 134.991 112.526 89.3263 90.3806 88.2771 82.4638 65.9874 61.9645 48.4761 54.3347 116.935 46.2769 45.9636 45.8707 43.3099 38.7571 37.6084 37.0175 36.9491
threshold=1.5752150289127298 3.5000000000000004 10.500000000000002 -0.66309693963793515 7.0000000000000009 3.5000000000000004 4.5000000000000009 20.500000000000004 1.0000000180025095e-35 -0.75566749401856337 4.5000000000000009 7.0000000000000009 1.490897182495422 17.000000000000004 47.500000000000007 -0.59977381803326557 0.19071137557242882 76.500000000000014 1.5533166730361787 -0.36699602772095657 -1.1980357717543451 0.1160101461373705 1.5007394701121848 0.61923758152287556 1.0890052374495738 1.0003101947913879 1.0000000180025095e-35 -0.036407544766435894 78.500000000000014 3.5000000000000004
decision_type=2 2 2 2 2 2 2 2 2 2 2 2 2 2 2 2 2 2 2 2 2 2 2 2 2 2 2 2 2 2
left_child=1 3 18 4 -1 7 -7 8 -5 10 19 -12 -4 14 -6 -8 -11 -18 24 -3 21 -21 26 25 -2 28 -16 -17 -19 -14
right_child=2 9 12 5 13 6 15 -9 -10 16 11 -13 29 -15 22 27 17 23 -20 20 -22 -23 -24 -25 -26 -27 -28 -29 -30 -31
leaf_value=4.8483300322170546 -1.7335094778859752 -2.5053128915576992 -2.1127907824822363 -1.4647487436978959 -1.7445294689394171 4.5513054197994176 4.7903252257516584 -1.8017577486590084 3.817011177225075 -2.7877403867165684 4.227256159068645 -1.025330052820048 -0.43981694792079651 -2.5385339525335677 -0.91803013993127314 -2.0891972742279208 -2.6784726424759842 -0.071186212055232234 4.913548762076509 -2.7713922716465076 -1.9078087014608585 3.9748458877969521 -2.141249146863327 -2.6776412322625815 4.3825855567743037 -1.3894054797894815 2.9940666840406203 0.43064722668612321 -2.25513154817371 2.7016995744595076
leaf_weight=117.23166605830193 2.4525453150272361 170.57452666014433 101.90325783938169 48.928279034793377 9.0744176656007749 35.561907067894936 2.4525453150272361 85.716458760201931 45.617342859506607 2236.8439545705914 10.300690323114397 9.3196721971034986 9.9328085258603078 9.5649267286062223 2.9430543780326905 23.053925961256027 632.51143674552441 7.9707722738385192 249.54648580402136 5.3955996930599195 224.04001452773809 4.9050906300544739 2.4525453150272361 146.90746437013149 2.4525453150272369 84.858067899942398 18.148835331201553 7.9707722738385227 295.0412013977766 6.0087360218167296
leaf_count=956 20 1391 831 399 74 290 20 699 372 18241 84 76 81 78 24 188 5158 65 2035 44 1827 40 20 1198 20 692 148 65 2406 49
internal_value=-1.78972 -2.18809 2.76452 1.5941 3.60474 0.308398 1.86662 -0.288391 1.08365 -2.59185 -1.92266 1.73228 -1.7263 0.148731 0.936725 -0.98524 -2.67531 -2.45985 4.84436 -2.09976 -1.80456 0.441102 1.97013 -2.20127 1.32454 -2.02085 2.44819 -1.44181 -2.19768 0.744293
internal_weight=0 4237.39 372.296 408.717 159.415 249.301 69.0392 180.262 94.5456 3828.67 424.536 19.6204 117.845 42.1838 32.6189 33.4772 3404.13 1167.29 254.452 404.915 234.341 10.3007 23.5444 534.778 4.90509 387.87 21.0919 31.0247 303.012 15.9415
internal_count=37591 34555 3036 3333 1300 2033 563 1470 771 31222 3462 160 961 344 266 273 27760 9519 2075 3302 1911 84 192 4361 40 3163 172 253 2471 130
is_linear=0
shrinkage=1


Tree=1
num_leaves=31
num_cat=0
split_feature=10 38 48 8 36 14 37 37 37 42 37 9 36 9 36 14 40 40 14 10 40 42 6 6 9 9 27 40 4 6
split_gain=8404.32 6352.96 3544.84 1027 737.961 229.499 228.827 225.935 549.394 388.17 659.615 133.572 128.786 85.1554 71.681 68.491 67.5587 64.6558 62.3443 97.3898 48.2384 46.7111 44.091 43.2824 38.7911 37.7619 37.6098 35.0788 35.0508 30.7214
threshold=1.5533166730361787 3.5000000000000004 10.500000000000002 -0.66309693963793515 1.0000000180025095e-35 -1.1040471977610926 4.5000000000000009 3.5000000000000004 4.5000000000000009 0.20500000000000004 1.0000000180025095e-35 1.490897182495422 1.0000000180025095e-35 0.14410195879834964 1.5000000000000002 -1.1636087354228659 76.500000000000014 76.500000000000014 -2.5356937126209957 0.1160101461373705 400.50000000000006 0.32500000000000007 -0.63193547807614692 1.3104152922049743 1.0003101947913879 0.33313508064234537 0.64405308748742895 80.500000000000014 0.50493004672728092 0.93018110473104565
decision_type=2 2 2 2 2 2 2 2 2 2 2 2 2 2 2 2 2 2 2 2 2 2 2 2 2 2 2 2 2 2
left_child=1 3 -2 4 -1 6 15 9 -9 10 -5 -4 -8 -7 16 18 -6 -15 19 -3 -21 -13 -10 -18 27 -17 -24 -19 -11 -12
right_child=2 5 11 7 14 13 12 8 22 28 29 21 -14 17 -16 25 23 24 -20 20 -22 -23 26 -25 -26 -27 -28 -29 -30 -31
leaf_value=4.889838363104662 4.8964764291107254 -2.5556730727091606 -2.1344776695612122 -1.4139297373361588 -1.3990713224326414 -2.7967057805254369 3.7920660361864145 4.6075453741411199 2.4798004348799965 -2.003403508378093 3.9916023125494475 -0.62678751923316289 -1.3710742165727734 -2.6791250239005939 -2.6121597504709735 -1.5975962548935245 2.1936673338432571 -0.63905036642045121 -2.2486012375492712 4.9432276016181635 -0.62678751923316289 2.7917324220757842 1.3471902432762377 -2.1800814962897417 -1.7008214875460186 0.82642308301307033 -1.8023970018684501 -2.3979872211717033 -0.18409873577203739 0.58883385411546474
leaf_weight=113.55284808576107 251.9990311190486 7.4802632108330709 103.37478502839804 49.909297160804272 10.913826651871203 2199.6878930479288 10.668572120368482 35.561907067894936 3.310936175286769 77.623059220612049 44.758951999247074 8.5839086025953311 8.8291631340980512 652.00917199999094 8.7065358683466894 13.979508295655252 18.639344394207004 11.649590246379374 353.04389809817076 3.9240725040435791 2.5751725807785988 7.4802632108330718 4.4145815670490292 2.5751725807785979 116.25064793229103 11.894844777882097 26.855371199548244 424.16771223396063 12.262726575136183 2.8204271122813216
leaf_count=926 2055 61 843 407 89 17938 87 290 27 633 365 70 72 5317 71 114 152 95 2879 32 21 61 36 21 948 97 219 3459 100 23
internal_value=-1.78972 -2.1916 2.76966 1.53945 3.57877 -2.59432 -1.88979 0.316839 1.84776 -0.256254 1.1258 -1.7176 1.45404 -2.67968 -0.0670419 -2.05573 0.622666 -2.4659 -2.16659 -0.0953975 2.73624 0.965042 -0.990324 1.66275 -2.21407 -0.483237 -1.35775 -2.35097 -1.7552 3.78989
internal_weight=0 4228.07 371.438 411.905 154.388 3816.16 412.395 257.517 70.1428 187.374 97.4887 119.439 19.4977 3403.77 40.8349 392.898 32.1283 1204.08 367.023 13.9795 6.49925 16.0642 34.5809 21.2145 552.068 25.8744 31.27 435.817 89.8858 47.5794
internal_count=37508 34479 3029 3359 1259 31120 3363 2100 572 1528 795 974 159 27757 333 3204 262 9819 2993 114 53 131 282 173 4502 211 255 3554 733 388
is_linear=0
shrinkage=1


Tree=2
num_leaves=31
num_cat=0
split_feature=1 38 48 8 36 37 37 37 37 14 37 9 36 36 0 14 9 40 14 14 7 14 10 9 42 40 48 37 37 37
split_gain=8198.53 6422.53 3409.02 1067.98 701.398 230.371 558.012 389.255 623.788 196.608 246.037 156.087 131.066 90.2059 85.3773 83.9856 80.1108 71.7402 58.9416 52.5455 90.8993 51.3751 42.8912 42.2692 41.2384 40.1745 36.8032 33.3794 48.0275 55.203
threshold=1.5752150289127298 3.5000000000000004 10.500000000000002 -0.66309693963793515 1.0000000180025095e-35 3.5000000000000004 4.5000000000000009 1.5000000000000002 1.0000000180025095e-35 -1.1040471977610926 4.5000000000000009 1.2076642291503952 1.0000000180025095e-35 1.5000000000000002 -0.58875742476864135 0.091010059426123321 0.14410195879834964 76.500000000000014 -1.1636087354228659 -2.5356937126209957 -1.2079337783711881 0.93411713595279167 1.5533166730361787 1.4381881939406149 0.115 183.50000000000003 1.5000000000000002 1.5000000000000002 3.5000000000000004 4.5000000000000009
decision_type=2 2 2 2 2 2 2 2 2 2 2 2 2 2 2 2 2 2 2 2 2 2 2 2 2 2 2 2 2 2
left_child=1 3 22 4 -1 7 -7 8 -5 10 18 -4 -12 15 -8 -6 -11 -18 19 20 -3 23 -2 -19 -13 -17 -16 -26 -29 -30
right_child=2 9 11 5 13 6 14 -9 -10 16 12 24 -14 -15 26 25 17 21 -20 -21 -22 -23 -24 -25 27 -27 -28 28 29 -31
leaf_value=4.870147277350398 1.8525086364533006 -2.7999055352113573 -2.2426666279795215 -1.3925098058767831 2.9594941630886455 4.5390916923413709 4.4214179062007197 -1.7838545387773443 3.7731682020662203 -2.7881881713278971 3.8236615161536638 -2.0247520985840834 -1.4203181379468497 -2.6305367496361498 0.83619866845966051 -1.5275378925262819 -2.6934237239240777 -2.0794895061217806 -0.6853020183688554 -2.2892642321770236 2.6496919636205605 -2.7012771259406541 4.8762723487828481 -0.23846402496901753 4.1107591107893988 1.2252168380266051 -2.0635844480104981 -1.4277047261529612 4.7320767016120353 -0.76120719032459738
leaf_weight=115.88276613503695 4.7824633643031111 6.376617819070816 96.630285412073135 47.947260908782482 12.507981106638907 36.420297928154469 2.5751725807785979 90.376294858753681 45.617342859506607 2189.3872027248144 10.913826651871206 4.2919543012976673 8.4612813368439657 9.1970449313521367 5.2729724273085621 11.894844777882101 653.23544465750456 396.69920470565557 26.855371199548244 358.07161599397659 5.8861087560653669 152.6709458604455 245.49978603422642 12.875862903892992 3.6788179725408581 9.5649267286062223 25.751725807785988 5.8861087560653669 4.2919543012976646 3.188308909535408
leaf_count=945 39 52 788 391 102 297 21 737 372 17854 89 35 69 75 43 97 5327 3235 219 2920 48 1245 2002 105 30 78 210 48 35 26
internal_value=-1.78972 -2.18969 2.72963 1.55649 3.58848 0.283926 1.82761 -0.303702 1.12601 -2.59456 -1.94608 -1.70214 1.53357 0.147653 -1.11148 0.899871 -2.6739 -2.46803 -2.11582 -2.21956 -0.184099 -2.20617 4.81849 -2.02161 0.745735 -0.300596 -1.57074 1.44334 0.709188 2.39068
internal_weight=0 4234.44 368.25 413.009 159.048 253.961 70.0202 183.941 93.5646 3821.43 416.565 117.967 19.3751 43.1648 33.5999 33.9678 3404.87 1215.48 397.19 370.334 12.2627 562.246 250.282 409.575 21.3371 21.4598 31.0247 17.0452 13.3664 7.48026
internal_count=37534 34531 3003 3368 1297 2071 571 1500 763 31163 3397 962 158 352 274 277 27766 9912 3239 3020 100 4585 2041 3340 174 175 253 139 109 61
is_linear=0
shrinkage=1


Tree=3
num_leaves=31
num_cat=0
split_feature=1 38 48 8 36 37 37 42 37 14 37 36 38 0 51 37 21 33 1 42 37 14 42 51 37 37 14 6 48 35
split_gain=8364.72 6546.09 3438.43 1001.09 670.326 244.678 581.771 365.179 673.34 224.856 284.319 145.312 134.037 103.947 97.1328 112.974 75.6743 60.6293 102.794 57.9036 87.0751 55.0958 47.79 49.8787 44.0913 52.3895 38.7636 35.6835 34.4856 33.6765
threshold=1.5752150289127298 3.5000000000000004 10.500000000000002 -0.66309693963793515 1.0000000180025095e-35 3.5000000000000004 4.5000000000000009 0.20500000000000004 1.0000000180025095e-35 -1.1040471977610926 4.5000000000000009 1.0000000180025095e-35 3.5000000000000004 -0.59977381803326557 14.500000000000002 3.5000000000000004 -0.044751410084351746 -1.1980357717543451 -1.0000000180025095e-35 0.20500000000000004 1.0000000180025095e-35 -1.1636087354228659 0.115 11.500000000000002 3.5000000000000004 4.5000000000000009 0.059793378546238625 1.1866355654362202 1.5000000000000002 -0.11055416296449883
decision_type=2 2 2 2 2 2 2 2 2 2 2 2 2 2 2 2 2 2 2 2 2 2 2 2 2 2 2 2 2 2
left_child=1 3 -2 4 27 7 -7 8 -5 10 17 -12 22 -8 15 19 -11 18 -3 20 -6 -19 -4 -24 -25 -26 -21 -1 -15 -20
right_child=2 9 12 5 14 6 13 -9 -10 16 11 -13 -14 28 -16 -17 -18 21 29 26 -22 -23 23 24 25 -27 -28 -29 -30 -31
leaf_value=4.9045990479187012 4.8352791157549628 -2.825199559341466 -2.2955290216115141 -1.4555973651999192 -0.96333454759542225 4.5569647862740528 5.1980648947290096 -1.7125852507678587 3.8680050119686631 -2.7619117860875741 4.0702743209618646 -1.2399298785976016 -2.1544511784865041 0.74999577861244182 -2.0671146615947178 5.1980648947290096 -2.4017532056261617 -2.2759805157428001 -0.34719460336297825 1.8002343199177426 4.6544120027592051 -0.75060080725941147 5.1980648947290007 -1.2955668704658563 4.7038349929382779 -0.51029047095391933 -2.3904233890161537 1.5737122815969915 -2.0215457578057561 3.838932664804505
leaf_weight=112.44920269399881 253.5931855738163 7.6028904765844354 4.537208832800391 49.296160832047462 5.5182269588112884 38.995470508933067 2.4525453150272361 88.414258606731892 45.862597391009331 2653.7766581252217 11.526962980628015 9.3196721971034986 98.469694398343563 5.3955996930599204 13.488999232649801 5.6408542245626441 747.78106655180454 352.55338903516531 3.0656816437840453 2.9430543780326834 5.5182269588112831 25.383844010531902 2.8204271122813251 6.621872350573538 4.0466997697949409 3.6788179725408554 8.8291631340980512 3.310936175286769 26.732743933796883 5.1503451615571949
leaf_count=917 2068 62 37 402 45 318 20 721 374 21641 94 76 803 44 110 46 6098 2875 25 24 45 207 23 54 33 30 72 27 218 42
internal_value=-1.78972 -2.18788 2.74735 1.58469 3.56837 0.368187 1.90896 -0.249359 1.11016 -2.59799 -1.90271 1.6963 -1.65862 -1.07708 0.143047 1.19097 -2.68274 -2.09325 -0.175249 0.199966 1.84554 -2.17353 0.590837 1.35366 0.597925 2.22092 -1.34276 4.80933 -1.5561 2.27694
internal_weight=0 4231.01 373.768 414.848 157.699 257.149 73.5764 183.573 95.1588 3816.16 414.603 20.8466 120.175 34.5809 41.9385 28.4495 3401.56 393.756 15.8189 22.8087 11.0365 377.937 21.705 17.1678 14.3474 7.72552 11.7722 115.76 32.1283 8.21603
internal_count=37551 34503 3048 3383 1286 2097 600 1497 776 31120 3381 170 980 282 342 232 27739 3211 129 186 90 3082 177 140 117 63 96 944 262 67
is_linear=0
shrinkage=1


Tree=4
num_leaves=31
num_cat=0
split_feature=1 38 48 8 36 37 37 42 37 14 37 36 9 51 37 0 9 40 42 37 21 33 14 9 42 51 48 37 51 48
split_gain=8212.46 6486.8 3438.05 1113.96 684.207 248.257 571.73 398.965 663.589 214.835 276.092 125.88 124.013 100.445 109.736 97.9522 83.7983 66.02 58.0035 85.6293 48.4319 56.6128 44.0112 49.0881 34.138 53.5875 34.0504 33.6283 55.6605 33.5213
threshold=1.5752150289127298 3.5000000000000004 10.500000000000002 -0.66309693963793515 1.0000000180025095e-35 3.5000000000000004 4.5000000000000009 0.20500000000000004 1.0000000180025095e-35 -1.1040471977610926 4.5000000000000009 1.0000000180025095e-35 1.2076642291503952 14.500000000000002 3.5000000000000004 -0.59977381803326557 0.19071137557242882 76.500000000000014 0.20500000000000004 1.0000000180025095e-35 0.12142790280143308 -1.1980357717543451 0.83216577220627619 1.4970819565142135 0.115 11.500000000000002 13.500000000000002 3.5000000000000004 14.500000000000002 1.5000000000000002
decision_type=2 2 2 2 2 2 2 2 2 2 2 2 2 2 2 2 2 2 2 2 2 2 2 2 2 2 2 2 2 2
left_child=1 3 -2 4 -1 7 26 8 -5 10 20 -12 -4 14 18 -8 -11 -18 19 -6 -3 -22 23 -19 -14 -26 -7 -27 -29 -17
right_child=2 9 12 5 13 6 15 -9 -10 16 11 -13 24 -15 -16 29 17 22 -20 -21 21 -23 -24 -25 25 27 -28 28 -30 -31
leaf_value=4.8380483492253923 4.8243200982017438 -2.2914424983531303 -2.1655918136679451 -1.50339897163143 -1.0151110134973083 4.9432276016181653 4.8097414004648655 -1.9030192279102676 3.7464262826630441 -2.7908759400525138 4.0732658078949324 -1.0312911590916465 -1.9973410284007322 -1.9892106262277045 5.1980648947290096 0.73234471069134255 -2.6794084612228639 -2.0682894570033983 -1.3436924317208145 4.6544120027592051 1.6766768444700602 -1.6596313359274231 -2.6433236662343633 0.51908508679218279 4.8844189955156541 -1.3577493907891998 2.4285124262035995 4.8844189955156594 -0.91803013993127125 -2.0548158529787273
leaf_weight=119.43895684182644 251.50852205604315 297.6163739785552 98.592321664094925 49.541415363550186 5.1503451615572029 31.392580032348633 2.5751725807785979 87.310613214969635 46.843615517020226 2212.8090104833245 10.668572120368482 8.8291631340980512 4.1693270355463055 14.470017358660696 5.6408542245626441 5.1503451615572002 631.03990955650806 371.43798796087503 11.159081183373926 5.5182269588112831 5.3955996930599204 88.659513138234615 159.53807274252176 7.4802632108330718 3.1883089095354107 6.2539905533194524 6.499245084822177 3.188308909535408 3.4335634410381317 26.610116668045521
leaf_count=974 2051 2427 804 404 42 256 21 712 382 18045 87 72 34 118 46 42 5146 3029 91 45 44 723 1301 61 26 51 53 26 28 217
internal_value=-1.78972 -2.18181 2.73002 1.5604 3.61792 0.262989 1.83369 -0.354598 1.04804 -2.59347 -1.91093 1.76177 -1.70279 0.143047 1.26629 -1.1219 -2.67645 -2.45993 0.250213 1.9174 -2.09376 -1.46824 -2.20272 -2.01721 0.552304 1.21404 4.5119 0.305189 1.87574 -1.60284
internal_weight=0 4210.78 370.334 417.301 161.377 255.923 72.2275 183.696 96.385 3793.47 411.169 19.4977 118.826 41.9385 27.4685 34.3356 3382.31 1169.5 21.8277 10.6686 391.671 94.0551 538.456 378.918 20.2335 16.0642 37.8918 12.8759 6.62187 31.7605
internal_count=37358 34338 3020 3403 1316 2087 589 1498 786 30935 3353 159 969 342 224 280 27582 9537 178 87 3194 767 4391 3090 165 131 309 105 54 259
is_linear=0
shrinkage=1


Tree=5
num_leaves=31
num_cat=0
split_feature=10 20 36 8 36 42 42 42 42 14 42 36 51 42 21 0 9 40 40 6 25 14 40 14 9 42 42 48 6 40
split_gain=8473.19 6573.36 3719.09 1012.53 670.622 243.647 527.558 404.066 709.672 197.827 260.954 131.768 98.5269 103.643 95.9779 88.9489 83.1324 73.1964 64.6483 61.2729 75.2584 46.3547 44.5739 44.0093 52.632 39.1865 55.5226 33.4556 35.0371 31.3478
threshold=1.5533166730361787 1.0036173498886563 1.0000000180025095e-35 -0.46296321150152436 1.0000000180025095e-35 0.38500000000000006 0.43500000000000005 0.20500000000000004 0.080000000000000016 -1.1040471977610926 0.53500000000000014 1.0000000180025095e-35 14.500000000000002 0.38500000000000006 3.0370677020790411 -0.59977381803326557 0.14410195879834964 310.50000000000006 76.500000000000014 -1.1961339953951045 -1.7403479988578949 -1.1636087354228659 479.50000000000006 0.93411713595279167 1.4381881939406149 0.38500000000000006 0.51500000000000012 13.500000000000002 0.20429487922477182 80.500000000000014
decision_type=2 2 2 2 2 2 2 2 2 2 2 2 2 2 2 2 2 2 2 2 2 2 2 2 2 2 2 2 2 2
left_child=1 9 -2 4 -3 7 27 8 -5 10 19 -12 13 17 -4 -8 -11 -6 -18 20 -1 -21 -22 24 29 -16 -27 -7 -29 -20
right_child=2 3 14 5 12 6 15 -9 -10 16 11 -13 -14 -15 25 -17 18 -19 23 21 22 -23 -24 -25 -26 26 -28 28 -30 -31
leaf_value=-2.7794503678713562 4.8881440061951551 4.8348609478138709 -2.2597375976772587 -1.4597132750461108 -1.3257698089086234 4.8844189955156612 4.7903252257516584 -1.8183100358214359 3.9049774534709107 -2.793678035179636 3.8538681838146602 -1.2399298785976016 -1.972529283838216 5.1980648947290096 -0.8746535794017658 -1.471037383281121 -2.6817448189659392 2.3140526019623731 -0.59412479541655205 -2.2951453171876484 4.2386774383117114 -0.9083680624673528 -0.62678751923316267 -2.6764278330830011 -0.087449332755183518 4.6719491928227495 -1.1839473153512836 -0.3620215004167 4.3825855567743037 -2.1660397187371503
leaf_weight=5.640854224562645 258.13039440661669 115.63751160353422 100.43173065036535 50.767688021063805 12.26272657513619 31.88308909535408 2.4525453150272361 86.084340557456017 47.947260908782482 2201.772556565702 11.15908118337393 9.3196721971034986 14.224762827157972 5.3955996930599204 11.526962980628015 30.288934640586376 654.58434458076954 10.05543579161167 13.121117435395716 352.18550723791122 4.169327035546301 25.87435307353735 3.4335634410381317 153.40670945495367 13.243744701147078 3.8014452382922164 2.8204271122813225 2.6977998465299597 3.6788179725408554 383.21020547300577
leaf_count=46 2105 943 819 414 100 260 20 702 391 17955 91 76 116 44 94 247 5338 82 107 2872 34 211 28 1251 108 31 23 22 30 3125
internal_value=-1.78972 -2.19009 2.75853 1.59844 3.59249 0.370083 1.9446 -0.234857 1.14599 -2.59887 -1.94406 1.53573 0.166891 1.265 -1.87729 -1.00202 -2.67773 0.31415 -2.46805 -2.12617 -0.011942 -2.20023 2.04137 -2.21958 -2.04847 0.239069 2.17777 4.46622 2.37525 -2.114
internal_weight=0 4244.5 376.711 413.377 157.576 255.8 71.0012 184.799 98.7149 3831.12 411.782 20.4788 41.9385 27.7138 118.581 32.7415 3419.34 22.3182 1217.57 391.304 13.2437 378.06 7.60289 562.982 409.575 18.1488 6.62187 38.2597 6.37662 396.331
internal_count=37685 34613 3072 3371 1285 2086 579 1507 805 31242 3358 167 342 226 967 267 27884 182 9929 3191 108 3083 62 4591 3340 148 54 312 52 3232
is_linear=0
shrinkage=1


Tree=6
num_leaves=31
num_cat=0
split_feature=10 38 36 2 36 37 37 42 37 14 37 36 51 37 0 9 9 14 10 40 40 14 37 27 2 6 9 40 6 40
split_gain=8357.76 6679.35 3686.68 941.06 663.981 224.687 530.224 394.167 648.068 200.952 228.634 145.533 123.731 128.691 116.909 113.535 84.1385 83.7778 93.3654 71.5331 66.5513 66.1985 48.9311 44.5842 118.9 43.2901 43.6045 36.4795 36.0163 33.0473
threshold=1.5533166730361787 3.5000000000000004 1.0000000180025095e-35 -0.56678628267000886 1.0000000180025095e-35 3.5000000000000004 4.5000000000000009 0.20500000000000004 1.0000000180025095e-35 -1.1040471977610926 4.5000000000000009 1.0000000180025095e-35 14.500000000000002 3.5000000000000004 -0.59977381803326557 1.5103426696609259 0.14410195879834964 -2.5356937126209957 0.1160101461373705 76.500000000000014 73.500000000000014 -1.1636087354228659 3.5000000000000004 2.5247586429819404 -0.78883381738022273 0.40243998780329232 1.490897182495422 479.50000000000006 1.1866355654362202 82.500000000000014
decision_type=2 2 2 2 2 2 2 2 2 2 2 2 2 2 2 2 2 2 2 2 2 2 2 2 2 2 2 2 2 2
left_child=1 3 -2 4 23 7 -7 8 -5 10 17 -12 13 20 -8 -4 -11 18 -3 -18 -6 -19 -17 28 -25 26 29 -20 -1 -21
right_child=2 9 15 5 12 6 14 -9 -10 16 11 -13 -14 -15 -16 22 19 21 27 25 -22 -23 -24 24 -26 -27 -28 -29 -30 -31
leaf_value=4.9195148264052584 4.8781160635697471 -2.2413957322261857 -2.2050030741013265 -1.3585528978716264 -1.9973410284007322 4.5046300835430362 5.1980648947290007 -1.8221485363593126 3.9175601491803005 -2.7966242786789466 3.8236615161536638 -1.6162145046185177 -2.0300474189604132 5.1980648947290096 -1.6836172821039364 -0.72253851781884193 -2.6933248301171693 -2.3069783629657401 4.7320767016120353 -0.55397686405863533 1.4343141041688368 -0.61525315801739566 2.9894750211016858 4.7725974140569889 -0.57824708245014445 -2.6038246434927599 -0.18568219079719217 -0.10255080197656752 1.2979463219021641 -2.1352592671511732
leaf_weight=104.11054862290621 256.29098542034626 6.9897541478276235 105.0915667489171 48.805651769042015 8.3386540710926074 36.052416130900383 2.6977998465299633 84.612813368439674 44.51369746774435 2186.0762665495276 10.913826651871206 8.951790399849413 16.186799079179764 6.8671268820762625 29.062661983072758 8.951790399849413 652.99019012600183 349.3650801256299 4.2919543012976646 13.734253764152525 17.535699002444744 24.770707681775093 5.8861087560653678 14.102135561406614 5.8861087560653678 184.18615315854549 12.630608372390268 2.4525453150272369 2.8204271122813216 350.59135278314352
leaf_count=849 2090 57 857 398 68 294 22 690 363 17827 89 73 132 56 237 73 5325 2849 35 112 143 202 48 115 48 1502 103 20 23 2859
internal_value=-1.78972 -2.1817 2.73674 1.59506 3.36125 0.331232 1.88011 -0.259071 1.15817 -2.59984 -1.93646 1.37236 0.231612 1.34974 -1.09907 -1.83941 -2.67939 -2.10593 0.319751 -2.46831 0.328378 -2.19497 0.749996 4.56774 3.19689 -2.20647 -2.01232 2.97403 4.82399 -2.07565
internal_weight=0 4229.54 376.22 421.593 175.847 245.745 67.8129 177.932 93.3193 3807.94 407.736 19.8656 48.9283 32.7415 31.7605 119.929 3400.21 387.87 13.7343 1214.13 25.8744 374.136 14.8379 126.919 19.9882 561.142 376.956 6.7445 106.931 364.326
internal_count=37559 34491 3068 3438 1434 2004 553 1451 761 31053 3325 162 399 267 259 978 27728 3163 112 9901 211 3051 121 1035 163 4576 3074 55 872 2971
is_linear=0
shrinkage=1


Tree=7
num_leaves=31
num_cat=0
split_feature=10 38 48 8 36 42 42 42 42 14 42 20 36 51 42 9 40 40 6 10 14 48 14 9 15 42 42 40 40 6
split_gain=8406.47 6617.97 3522.97 1087.43 646.553 246.065 590.803 365.751 660.301 208.568 267.752 136.642 123.151 90.1762 99.2052 83.9637 73.0179 67.0494 63.5015 92.2471 60.8384 52.3245 51.5188 46.0517 45.3016 43.8506 74.1902 36.955 31.7428 31.5619
threshold=1.5533166730361787 3.5000000000000004 10.500000000000002 -0.66309693963793515 1.0000000180025095e-35 0.38500000000000006 0.48000000000000004 0.20500000000000004 0.080000000000000016 -1.1040471977610926 0.53500000000000014 0.99016561130741865 1.0000000180025095e-35 14.500000000000002 0.38500000000000006 0.14410195879834964 76.500000000000014 377.50000000000006 -1.1961339953951045 0.1160101461373705 -1.1636087354228659 1.5000000000000002 0.93411713595279167 1.4381881939406149 -0.60092737515543737 0.33500000000000008 0.51500000000000012 80.500000000000014 757.50000000000011 1.1866355654362202
decision_type=2 2 2 2 2 2 2 2 2 2 2 2 2 2 2 2 2 2 2 2 2 2 2 2 2 2 2 2 2 2
left_child=1 3 -2 4 29 7 -7 8 -5 10 18 -4 -12 14 17 -11 -17 -6 19 -3 -20 -8 23 27 -23 -13 -27 -18 -21 -1
right_child=2 9 11 5 13 6 21 -9 -10 15 12 25 -14 -15 -16 16 22 -19 20 28 -22 24 -24 -25 -26 26 -28 -29 -30 -31
leaf_value=4.9375283650310209 4.8605710397525677 -2.5198645537708684 -2.2444743795158213 -1.472239398735439 -1.1033663531027951 4.5354879326408124 1.8168091032095051 -1.8053238882880998 3.7327504593416507 -2.7948489997981438 3.8538681838146602 -0.61600075550360311 -1.144552178252022 -2.068582671203997 5.1980648947290096 -2.6916674072881777 -0.4962304823684931 2.5203715462210261 -2.2947578535881803 4.4567200420429138 -0.75565593547126353 0.93533199178396353 -2.69816186546654 -0.26150016445926361 -2.2771623698557777 4.9834650689514568 -0.91803013993127125 -2.1383167268837582 -0.10255080197656752 1.7479600033821847
leaf_weight=115.14700254052877 254.81945823132992 6.8671268820762617 96.875539943575859 50.522433489561081 13.488999232649808 39.240725040435791 5.0277178958058348 84.244931571185589 47.088870048522949 2186.8120301440358 11.15908118337393 13.243744701147081 8.8291631340980512 12.385353840887545 5.0277178958058348 660.22519880533218 14.224762827157972 8.216026805341242 350.46872551739216 4.0466997697949409 27.713762059807777 5.3955996930599239 150.83153687417507 14.470017358660696 23.544435024261475 4.6598360985517484 3.9240725040435791 375.11680593341589 2.4525453150272369 3.1883089095354071
leaf_count=939 2078 56 790 412 110 320 41 687 384 17833 91 108 72 101 41 5384 116 67 2858 33 226 44 1230 118 192 38 32 3059 20 26
internal_value=-1.78972 -2.18479 2.76448 1.62004 3.68651 0.344395 1.89244 -0.278789 1.03871 -2.5964 -1.92401 -1.73519 1.64598 0.162033 1.19548 -2.67775 -2.46696 0.268331 -2.10626 0.0358562 -2.18197 -1.16091 -2.19948 -2.01322 -1.67822 0.525093 2.28564 -2.07832 2.73624 4.85159
internal_weight=0 4225.74 373.523 412.518 157.453 255.065 73.2085 181.856 97.6113 3813.22 411.537 118.703 19.9882 39.1181 26.7327 3401.68 1214.87 21.705 391.549 13.3664 378.182 33.9678 554.643 403.812 28.94 21.8277 8.58391 389.342 6.49925 118.335
internal_count=37506 34460 3046 3364 1284 2080 597 1483 796 31096 3356 968 163 319 218 27740 9907 177 3193 109 3084 277 4523 3293 236 178 70 3175 53 965
is_linear=0
shrinkage=1


Tree=8
num_leaves=31
num_cat=0
split_feature=10 38 36 8 36 37 37 42 37 14 37 21 36 0 36 40 21 37 14 14 10 37 40 37 6 40 37 37 40 35
split_gain=8658.52 6478.86 3672.3 1053.59 682.227 236.797 586.223 380.965 696.061 230.327 271.123 147.18 144.56 94.847 82.5002 84.5855 81.8213 63.5597 56.3097 54.0559 85.6262 53.8248 47.5684 44.1621 36.8508 31.8474 30.5155 37.2351 30.4284 28.2369
threshold=1.5533166730361787 3.5000000000000004 1.0000000180025095e-35 -0.66309693963793515 1.0000000180025095e-35 3.5000000000000004 4.5000000000000009 0.20500000000000004 1.0000000180025095e-35 -1.1040471977610926 4.5000000000000009 3.0370677020790411 1.0000000180025095e-35 -0.59977381803326557 1.5000000000000002 76.500000000000014 -0.044751410084351746 3.5000000000000004 -1.1636087354228659 -2.5356937126209957 0.1160101461373705 4.5000000000000009 76.500000000000014 1.0000000180025095e-35 1.1866355654362202 479.50000000000006 1.5000000000000002 3.5000000000000004 78.500000000000014 -0.32006278858523252
decision_type=2 2 2 2 2 2 2 2 2 2 2 2 2 2 2 2 2 2 2 2 2 2 2 2 2 2 2 2 2 2
left_child=1 3 -2 4 24 7 -7 8 -5 10 18 -4 -12 -8 15 -6 -11 -13 19 20 -3 -19 -18 -17 -1 -22 -25 -28 -24 -20
right_child=2 9 11 5 14 6 13 -9 -10 16 12 17 -14 -15 -16 23 22 21 29 -21 25 -23 28 26 -26 -27 27 -29 -30 -31
leaf_value=4.9576943475152877 4.9337531931993635 -2.4306127829117705 -2.2279184484817014 -1.5839366344922732 -1.3436924317208145 4.6059676856529865 4.7903252257516584 -1.7901241023302359 3.7601920066476677 -2.7665357458246169 4.1787157222856273 -0.72489029673147298 -1.2170392305146627 -1.6743214614215209 -2.5159288426803537 -1.3884989887512931 -2.6240824230648188 4.9941950602403331 -1.7140933031727679 -2.2531007301716555 4.6155796533327909 -0.34719460336297869 0.26725959546800837 4.6420562552144347 1.2979463219021641 -0.10255080197656752 0.1205520357657579 3.5055606084079254 -2.1537857984717084 0.36559474388631852
leaf_weight=112.32657542824745 257.27200354635715 7.6028904765844327 101.53537604212761 48.805651769042015 11.159081183373926 37.15606152266264 2.4525453150272361 87.433240480720997 48.683024503290653 2681.4904201850295 10.791199386119844 11.649590246379377 9.1970449313521367 30.411561906337738 9.0744176656007749 3.1883089095354107 402.83056799322367 4.905090630054473 12.875862903892996 356.72271607071161 3.4335634410381317 3.0656816437840462 5.2729724273085585 5.3955996930599239 2.8204271122813216 2.4525453150272369 6.4992450848221761 6.4992450848221779 335.01769003272057 13.243744701147078
leaf_count=916 2098 62 828 398 91 303 20 713 397 21867 88 95 75 248 74 26 3285 40 105 2909 28 25 43 44 23 20 53 53 2732 108
internal_value=-1.78972 -2.19559 2.79602 1.57344 3.6117 0.318525 1.88473 -0.274515 1.08477 -2.59978 -1.89745 -1.74341 1.69601 -1.19189 0.152137 0.891601 -2.68516 0.763896 -2.07868 -2.1788 -0.213753 2.93981 -2.39154 2.04735 4.86805 2.64969 2.6429 1.81306 -2.11627 -0.659604
internal_weight=0 4252.84 378.428 411.905 156.963 254.942 70.0202 184.922 97.4887 3840.93 416.32 121.156 19.9882 32.8641 41.8159 32.7415 3424.61 19.6204 396.331 370.212 13.489 7.97077 743.121 21.5824 115.147 5.88611 18.3941 12.9985 340.291 26.1196
internal_count=37767 34681 3086 3359 1280 2079 571 1508 795 31322 3395 988 163 268 341 267 27927 160 3232 3019 110 65 6060 176 939 48 150 106 2775 213
is_linear=0
shrinkage=1


Tree=9
num_leaves=31
num_cat=0
split_feature=10 38 48 8 36 37 37 37 37 6 37 36 20 51 37 9 40 6 7 6 6 9 50 37 40 6 27 6 40 15
split_gain=8356.12 6602.01 3579.87 966.939 729.042 285.776 590.175 412.864 685.741 198.673 262.914 141.354 121.917 92.9254 112.748 88.9969 75.4989 72.2614 91.9977 67.3686 54.7933 49.179 37.089 61.1832 35.7674 33.8356 33.8227 29.8775 29.6857 29.2414
threshold=1.5533166730361787 3.5000000000000004 10.500000000000002 -0.66309693963793515 1.0000000180025095e-35 3.5000000000000004 4.5000000000000009 1.5000000000000002 1.0000000180025095e-35 -0.75566749401856337 4.5000000000000009 1.0000000180025095e-35 0.99016561130741865 14.500000000000002 3.5000000000000004 0.19071137557242882 76.500000000000014 -1.1961339953951045 -1.2079337783711881 -0.11108117361688562 -0.63193547807614692 1.4381881939406149 33.500000000000007 4.5000000000000009 479.50000000000006 0.65222428367894703 -0.23214794170485314 1.1866355654362202 504.50000000000006 -0.60092737515543737
decision_type=2 2 2 2 2 2 2 2 2 2 2 2 2 2 2 2 2 2 2 2 2 2 2 2 2 2 2 2 2 2
left_child=1 3 -2 4 27 7 -7 8 -5 10 17 -12 -4 14 19 -11 -17 18 -3 -6 -8 25 -14 -24 -20 -18 -19 -1 -21 -22
right_child=2 9 12 5 13 6 20 -9 -10 15 11 -13 22 -15 -16 16 21 26 24 28 29 -23 23 -25 -26 -27 -28 -29 -30 -31
leaf_value=4.9479726552686412 4.9083812369640789 -2.7832222427000088 -2.2368854374431351 -1.4555973651999192 2.2434296122844279 4.63650726679613 3.1593665498422498 -1.8161979422240395 3.8389326648045032 -2.7879370340487251 4.0069152999637101 -1.2238348916642852 -0.63820879847622591 -2.2643403676866787 5.1980648947290096 -2.6830990542128634 -2.0749881897806355 -2.4861633665384599 4.4785243024160373 -2.4057289321459336 0.68690259966043232 -0.5384104481247709 4.9432276016181653 -0.55825984377478433 -0.021002868181096979 -2.6466066968317996 -1.8955972708236213 1.6525025557955138 0.6234247062026208 -1.8027482895991105
leaf_weight=111.95869363099337 251.9990311190486 5.7634814903140068 97.243421740829945 49.296160832047462 8.4612813368439692 40.957506760954857 2.9430543780326834 87.678495012223721 48.560397237539291 2215.7520648613572 10.913826651871206 9.810181260108946 12.50798110663891 12.998490169644354 5.1503451615571967 628.58736424148083 383.33283273875713 199.75981590896845 4.169327035546301 9.0744176656007784 5.7634814903140095 17.780953533947468 3.9240725040435773 4.1693270355463028 3.0656816437840462 141.87974647432566 188.47810745984316 2.8204271122813216 5.0277178958058348 25.996980339288712
leaf_count=913 2055 47 793 402 69 334 24 715 396 18069 89 80 102 106 42 5126 3126 1629 34 74 47 145 32 34 25 1157 1537 23 41 212
internal_value=-1.78972 -2.17608 2.78083 1.60304 3.5774 0.427702 2.06567 -0.240261 1.17176 -2.58947 -1.94242 1.53082 -1.76873 -0.0583381 0.976336 -2.67007 -2.44716 -2.12181 0.197484 0.01268 -0.968457 -2.17403 0.441102 2.10913 2.57194 -2.2294 -2.19946 4.86699 -1.32577 -1.35096
internal_weight=0 4225.98 369.844 416.687 155.491 261.196 75.661 185.535 97.8566 3809.29 421.96 20.724 117.845 40.7123 27.7138 3387.33 1171.58 401.236 12.9985 22.5634 34.7035 542.994 20.6014 8.0934 7.23501 525.213 388.238 114.779 14.1021 31.7605
internal_count=37478 34462 3016 3398 1268 2130 617 1513 798 31064 3441 169 961 332 226 27623 9554 3272 106 184 283 4428 168 66 59 4283 3166 936 115 259
is_linear=0
shrinkage=1


Tree=10
num_leaves=31
num_cat=0
split_feature=10 38 48 8 36 14 37 37 37 42 37 36 21 0 9 14 25 36 40 40 37 37 14 14 40 33 9 42 14 9
split_gain=8349.02 6490.65 3645.42 1079.37 700.823 231.985 275.243 231.864 580.272 412.555 674.87 150.125 138.114 106.059 87.9362 82.819 91.2464 78.241 89.2655 72.7764 54.1554 59.0639 52.699 47.7546 44.4243 43.0805 41.4163 33.2396 32.8796 30.917
threshold=1.5533166730361787 3.5000000000000004 10.500000000000002 -0.66309693963793515 1.0000000180025095e-35 -1.1040471977610926 4.5000000000000009 3.5000000000000004 4.5000000000000009 0.20500000000000004 1.0000000180025095e-35 1.0000000180025095e-35 3.0370677020790411 -0.61027759628814848 0.14410195879834964 -2.5356937126209957 -1.7403479988578949 1.5000000000000002 159.50000000000003 76.500000000000014 3.5000000000000004 4.5000000000000009 -1.1636087354228659 0.93411713595279167 479.50000000000006 -0.30510701355659531 0.96372665652284228 0.115 1.4196140844921408 0.60799754504455727
decision_type=2 2 2 2 2 2 2 2 2 2 2 2 2 2 2 2 2 2 2 2 2 2 2 2 2 2 2 2 2 2
left_child=1 3 -2 4 28 6 15 9 -9 10 -5 -8 -4 -10 -7 16 -3 18 25 -16 -14 -22 -17 26 -18 -6 -21 -20 -1 -24
right_child=2 5 12 7 17 14 11 8 13 -11 -12 -13 20 -15 19 22 24 -19 27 23 21 -23 29 -25 -26 -27 -28 -29 -30 -31
leaf_value=4.9282691692584031 4.8872937046739118 -2.6169454273369044 -2.2180344480533409 -1.5056249009888587 2.5885310132739536 -2.8020094187340066 4.1343961930489588 4.5318236055503291 5.1980648947290096 -1.8641663883870052 3.756561014506048 -1.3710742165727734 -0.70114733728374379 -1.6234352706715569 -2.693670633864901 -2.2631217476458141 4.5542654173963495 -2.4271964471851066 -0.91803013993127236 -2.1894764195380678 4.9834650689514568 -0.54049340939668622 -1.5975962548935245 -2.6768752403483402 -0.34719460336297869 -1.5608629513820513 -1.4126932727018313 3.070727491368912 1.6099558077283116 0.64408937108585684
leaf_weight=114.90174800902605 254.20632190257311 5.8861087560653687 102.88427596539259 48.928279034793377 3.0656816437840471 2184.6047393605113 11.281708449125292 37.523943319916725 2.4525453150272361 88.782140403985977 48.560397237539291 8.8291631340980512 11.526962980628015 32.250970892608166 650.04713574796915 356.1095797419548 4.6598360985517484 9.4422994628548604 2.4525453150272396 319.32140001654625 4.6598360985517493 3.3109361752867699 17.65832626819611 153.65196398645639 3.0656816437840462 13.611626498401165 87.433240480720997 14.102135561406611 3.0656816437840453 9.4422994628548604
leaf_count=937 2073 48 839 399 25 17815 92 306 20 724 396 72 94 263 5301 2904 38 77 20 2604 38 27 144 1253 25 111 713 115 25 77
internal_value=-1.78972 -2.18507 2.72852 1.55012 3.58578 -2.59576 -1.89181 0.285073 1.806 -0.304676 1.11554 1.71736 -1.75557 -1.14135 -2.68221 -2.07472 0.349269 0.113036 0.834799 -2.466 0.68472 2.6889 -2.16082 -2.20192 2.60924 -0.798107 -2.0225 2.4798 4.84203 -0.816556
internal_weight=0 4231.13 376.588 419.14 160.642 3811.99 416.933 258.498 72.2275 186.271 97.4887 20.1109 122.382 34.7035 3395.06 396.822 13.6116 42.6743 33.232 1210.45 19.4977 7.97077 383.21 560.407 7.72552 16.6773 406.755 16.5547 117.967 27.1006
internal_count=37575 34504 3071 3418 1310 31086 3400 2108 589 1519 795 164 998 283 27686 3236 111 348 271 9871 159 65 3125 4570 63 136 3317 135 962 221
is_linear=0
shrinkage=1


Tree=11
num_leaves=31
num_cat=0
split_feature=10 38 48 8 48 37 37 42 37 14 37 48 0 20 51 37 9 40 33 10 14 42 51 40 40 48 9 12 9 4
split_gain=8452.99 6537.32 3603 1089.73 712.168 235.04 570.379 387.127 650.868 228.593 297.035 116.535 105.495 96.3769 90.2672 114.176 76.6905 62.1473 59.7595 96.2323 58.9481 49.8564 61.145 47.851 39.3306 36.9546 32.8718 30.6885 28.9368 28.6663
threshold=1.5533166730361787 3.5000000000000004 10.500000000000002 -0.66309693963793515 7.0000000000000009 3.5000000000000004 4.5000000000000009 0.20500000000000004 1.0000000180025095e-35 -1.1040471977610926 4.5000000000000009 7.0000000000000009 -0.59977381803326557 0.99016561130741865 14.500000000000002 3.5000000000000004 0.96372665652284228 310.50000000000006 -1.1980357717543451 0.1160101461373705 -1.1636087354228659 0.33500000000000008 14.500000000000002 76.500000000000014 76.500000000000014 1.5000000000000002 0.10976154454037063 0.71938832751894155 0.57207969385532487 0.50493004672728092
decision_type=2 2 2 2 2 2 2 2 2 2 2 2 2 2 2 2 2 2 2 2 2 2 2 2 2 2 2 2 2 2
left_child=1 3 -2 4 -1 7 -7 8 -5 10 18 -12 -8 -4 15 17 24 -6 19 -3 -20 -15 -23 -18 -11 -14 -26 -25 -21 -9
right_child=2 9 13 5 14 6 12 29 -10 16 11 -13 25 21 -16 -17 23 -19 20 28 -22 22 -24 27 26 -27 -28 -29 -30 -31
leaf_value=4.8831094092976528 4.8958901641105683 -2.454895046076675 -2.2362665857287283 -1.4414123556112461 -1.4589092926563301 4.4923616214989774 5.1980648947290096 -2.0118079821086123 3.6947822767822065 -2.8258655998313627 4.0985421918687326 -0.88760180642549846 0.91679837046681101 -1.0292318678341854 -2.0751292005426754 5.1980648947290096 -2.580479241629301 1.9570572695244164 -2.2616689298443622 0.23427762022211462 -0.65032227646129237 5.1980648947290096 -0.4855789758643827 -1.4400407989404924 -2.7066127639881583 -2.0671146615947178 -2.3850215734033444 -2.7058117654473532 4.4335530153964733 -0.37303157248629559
leaf_weight=117.47692058980465 254.81945823132992 7.9707722738385183 95.771894551813602 50.154551692306995 12.017472043633466 38.259706914424896 2.4525453150272361 77.255177423357964 48.560397237539291 1719.3568930998445 10.913826651871206 8.216026805341242 4.9050906300544765 13.488999232649805 13.611626498401163 5.3955996930599204 122.25938395410776 9.5649267286062223 349.61033465713263 2.8204271122813225 24.280198618769646 3.5561907067894927 4.0466997697949409 96.26240361481905 979.54659882187843 26.977998465299606 470.52081868797541 23.91231682151556 3.9240725040435791 12.385353840887545
leaf_count=958 2078 65 781 409 98 312 20 630 396 14021 89 67 40 110 111 44 997 78 2851 23 198 29 33 785 7988 220 3837 195 32 101
internal_value=-1.78972 -2.18619 2.78741 1.56337 3.63543 0.308255 1.83697 -0.280937 1.08521 -2.59753 -1.88986 1.95706 -1.1219 -1.81009 0.0243289 1.0836 -2.6821 0.054985 -2.07923 -0.102551 -2.15703 0.125025 2.1729 -2.14001 -2.72356 -1.60805 -2.60226 -1.6919 2.67749 -1.78538
internal_weight=0 4238.61 371.683 419.017 158.067 260.951 72.5953 188.355 98.7149 3819.59 407.736 19.1299 34.3356 116.864 40.5896 26.978 3411.86 21.5824 388.606 14.7153 373.891 21.0919 7.60289 242.434 3169.42 31.8831 1450.07 120.175 6.7445 89.6405
internal_count=37596 34565 3031 3417 1289 2128 592 1536 805 31148 3325 156 280 953 331 220 27823 176 3169 120 3049 172 62 1977 25846 260 11825 980 55 731
is_linear=0
shrinkage=1


Tree=12
num_leaves=31
num_cat=0
split_feature=1 38 36 8 36 37 37 42 37 14 37 9 36 51 37 0 9 10 21 33 42 37 6 9 6 37 0 14 42 51
split_gain=8264.62 6328.08 3437.23 1020.42 705.909 241.617 517.973 408.205 608.416 231.657 253.916 144.867 139.548 93.7228 125.826 86.5552 72.3887 57.7009 56.8704 64.5821 50.8177 93.6432 45.3036 43.6864 43.1584 65.8364 66.1483 40.3245 38.8977 52.7029
threshold=1.5752150289127298 3.5000000000000004 1.0000000180025095e-35 -0.66309693963793515 1.0000000180025095e-35 3.5000000000000004 4.5000000000000009 0.20500000000000004 1.0000000180025095e-35 -1.1040471977610926 4.5000000000000009 1.2076642291503952 1.0000000180025095e-35 14.500000000000002 3.5000000000000004 -0.59977381803326557 0.14410195879834964 1.5533166730361787 0.12142790280143308 -1.1980357717543451 0.20500000000000004 1.0000000180025095e-35 -0.63193547807614692 1.0890052374495738 -0.12024106978388253 4.5000000000000009 -0.59497023791641002 -1.1636087354228659 0.115 11.500000000000002
decision_type=2 2 2 2 2 2 2 2 2 2 2 2 2 2 2 2 2 2 2 2 2 2 2 2 2 2 2 2 2 2
left_child=1 3 17 4 -1 7 -7 8 -5 10 18 -4 -12 14 20 -8 -11 23 -3 -20 21 -6 -17 -2 25 -18 -27 -21 -13 -30
right_child=2 9 11 5 13 6 15 -9 -10 16 12 28 -14 -15 -16 22 24 -19 19 27 -22 -23 -24 -25 -26 26 -28 -29 29 -31
leaf_value=4.825026474175262 -1.4034345077614521 -2.2721035650297563 -2.2256800884192436 -1.3635040713332622 -1.1839473153512841 4.4865728549027573 4.7903252257516584 -1.8550363430129297 3.727173781176758 -2.7837494095865436 4.0732658078949324 -2.1922166054854957 -1.2810860095686394 -2.0907327276979917 5.1980648947290096 2.7516268808648907 -2.3672253489471609 4.8907945442849954 1.9361475429101933 -1.8093823663643629 -1.4277047261529612 4.7903252257516566 -1.7232303265672184 4.421417906200718 -2.6424171416883895 3.9748458877969539 -1.3759531527827589 0.44110208999323586 4.6544120027592015 0.39256165321021763
leaf_weight=115.26962980628014 2.5751725807785979 296.51272858679295 97.120794475078583 47.702006377279758 5.6408542245626503 36.54292519390583 2.4525453150272361 88.046376809477806 46.230479188263416 2179.4543941989541 10.668572120368482 3.9240725040435818 8.951790399849413 13.856881029903887 5.8861087560653678 2.4525453150272396 478.36896369606256 247.33919502049685 5.5182269588112822 81.056622661650181 11.772217512130736 4.9050906300544739 29.18528924882412 2.5751725807785988 693.57981508970261 2.4525453150272361 39.8538613691926 8.8291631340980512 3.6788179725408581 13.734253764152525
leaf_count=940 21 2418 792 389 46 298 20 718 377 17773 87 32 73 113 48 20 3901 2017 45 661 96 40 238 21 5656 20 325 72 30 112
internal_value=-1.78972 -2.18666 2.7368 1.54634 3.5455 0.30123 1.87102 -0.308069 1.14196 -2.58882 -1.88028 -1.70734 1.63034 0.0389099 1.08521 -0.932697 -2.67474 4.82181 -2.05603 -1.38447 0.000504279 1.59478 -1.37634 1.50899 -2.47907 -2.26148 -1.06576 -1.58833 0.652002 1.29295
internal_weight=0 4215.19 370.947 409.943 157.331 252.612 70.6333 181.979 93.9325 3805.25 411.537 118.458 19.6204 42.0612 28.2043 34.0904 3393.71 252.49 391.917 95.404 22.3182 10.5459 31.6378 5.15035 1214.26 520.675 42.3064 89.8858 21.3371 17.4131
internal_count=37399 34374 3025 3343 1283 2060 576 1484 766 31031 3356 966 160 343 230 278 27675 2059 3196 778 182 86 258 42 9902 4246 345 733 174 142
is_linear=0
shrinkage=1


Tree=13
num_leaves=31
num_cat=0
split_feature=10 20 36 8 36 50 50 50 50 14 50 36 21 51 50 9 6 40 21 33 9 14 40 48 40 14 51 50 33 6
split_gain=8512.87 6622.59 3538.55 1062.89 738.879 255.436 540.226 388.827 655.497 206.941 274.917 148.581 130.435 115.928 115.418 86.9303 65.1904 61.5051 50.7537 81.5725 47.3086 46.2051 40.3641 38.4884 37.7536 36.495 32.3027 65.4606 31.6834 28.8478
threshold=1.5533166730361787 1.0036173498886563 1.0000000180025095e-35 -0.66309693963793515 1.0000000180025095e-35 38.500000000000007 43.500000000000007 20.500000000000004 8.0000000000000018 -1.1040471977610926 53.500000000000007 1.0000000180025095e-35 3.0370677020790411 14.500000000000002 41.500000000000007 0.14410195879834964 -0.10710382818707 76.500000000000014 0.39905588421525412 -1.1980357717543451 1.0003101947913879 -0.31673440502739719 504.50000000000006 2.5000000000000004 80.500000000000014 -1.1636087354228659 14.500000000000002 38.500000000000007 0.85908494464175211 -0.2534454103524782
decision_type=2 2 2 2 2 2 2 2 2 2 2 2 2 2 2 2 2 2 2 2 2 2 2 2 2 2 2 2 2 2
left_child=1 9 -2 4 -3 7 -7 8 -5 10 18 -12 -4 14 16 -11 -6 29 -1 -20 24 23 -18 -8 -19 -21 27 -14 -22 -17
right_child=2 3 12 5 13 6 21 -9 -10 15 11 -13 26 -15 -16 17 22 20 19 25 28 -23 -24 -25 -26 -27 -28 -29 -30 -31
leaf_value=-2.2638776187362151 4.9076632055632352 4.8863630816678114 -2.1572389378036156 -1.4405106202791342 2.2326854839846297 4.5163136797186461 3.9434812978756191 -1.7558887635995915 3.7928002392457079 -2.791642412915825 4.1901690837737551 -1.3487410578650936 0.072194770442297385 -2.3129290074853701 5.1980648947290096 -2.3816555688690619 -2.5915884827487607 -0.49132583518753048 3.4506091705403583 -1.791758002025597 -1.3978798153857621 -1.4804296833483084 0.86040884177845589 -1.3257698089086234 -2.4064192504921063 1.0212195052049156 -1.2216660636378098 4.9509499438336455 -2.8018906358392899 -2.8212904828849945
leaf_weight=326.18852689862251 254.81945823132992 118.70319324731827 100.06384885311127 48.805651769042015 9.442299462854864 38.137079648673534 3.1883089095354071 91.6025675162673 46.966242782771587 2180.6806668564677 10.913826651871206 8.7065358683466894 8.5839086025953311 13.979508295655249 5.7634814903140059 231.27502320706844 8.2160268053412455 10.545944854617117 3.4335634410381308 55.79540591686964 94.30036736279726 28.449525654315948 5.7634814903140059 2.4525453150272369 430.66695731878281 5.0277178958058348 5.7634814903140059 4.0466997697949401 19.375107988715172 420.85677605867386
leaf_count=2660 2078 968 816 398 77 311 26 747 383 17783 89 71 70 114 47 1886 67 86 28 455 769 232 47 20 3512 41 47 33 158 3432
internal_value=-1.78972 -2.17389 2.80842 1.58689 3.598 0.332924 1.93061 -0.282938 1.12589 -2.59125 -1.92031 1.73228 -1.70734 0.054985 1.1892 -2.67246 0.20272 -2.45715 -2.10386 -1.29153 -2.21243 -0.962031 -1.1684 1.6525 -2.36064 -1.55923 0.740111 1.63529 -1.63718 -2.66538
internal_weight=0 4219.24 373.277 421.47 161.868 259.602 72.2275 187.374 95.7719 3797.77 410.066 19.6204 118.458 43.1648 29.1853 3387.7 23.4218 1207.02 390.445 64.2567 554.888 34.0904 13.9795 5.64085 441.213 60.8231 18.3941 12.6306 113.675 652.132
internal_count=37451 34407 3044 3437 1320 2117 589 1528 781 30970 3344 160 966 352 238 27626 191 9843 3184 524 4525 278 114 46 3598 496 150 103 927 5318
is_linear=0
shrinkage=1


Tree=14
num_leaves=31
num_cat=0
split_feature=1 20 36 8 36 37 42 42 37 14 37 36 20 21 33 1 36 6 14 40 40 6 4 37 37 37 37 35 27 6
split_gain=8339.8 6648.75 3508.45 978.659 758.242 219.163 585.456 387.38 659.908 211.739 272.157 139.016 124.529 78.599 67.167 100.676 65.7141 64.3027 54.1999 52.1779 46.7009 41.6547 40.6205 37.114 50.4135 60.9429 62.9108 34.6972 32.733 29.3992
threshold=1.5752150289127298 1.0036173498886563 1.0000000180025095e-35 -0.66309693963793515 1.0000000180025095e-35 3.5000000000000004 0.43500000000000005 0.20500000000000004 1.0000000180025095e-35 -1.1040471977610926 4.5000000000000009 1.0000000180025095e-35 1.0036173498886563 -0.0047095764327631474 -1.1980357717543451 -1.0000000180025095e-35 1.5000000000000002 -0.10710382818707 -1.1636087354228659 76.500000000000014 167.50000000000003 -0.63193547807614692 0.50493004672728092 1.0000000180025095e-35 1.5000000000000002 3.5000000000000004 4.5000000000000009 -0.11055416296449883 0.70310423062513172 1.2452321867418163
decision_type=2 2 2 2 2 2 2 2 2 2 2 2 2 2 2 2 2 2 2 2 2 2 2 2 2 2 2 2 2 2
left_child=1 9 -2 4 29 7 -7 8 -5 10 14 -12 -4 -11 15 -1 17 -6 -16 -15 -19 -8 -9 -14 -25 -26 -27 -17 -23 -3
right_child=2 3 12 5 16 6 21 22 -10 13 11 -13 23 19 18 27 -18 20 -20 -21 -22 28 -24 24 25 26 -28 -29 -30 -31
leaf_value=-2.9567284848180311 4.8233113454535115 4.8976251386404339 -2.2368854374431351 -1.3822881788658798 2.4798004348799965 4.5228272263588725 2.6033579103276785 -2.0251378503995778 3.8424628783887225 -2.7534264308404639 4.0985421918687326 -1.3021327266490665 -2.2371878925050566 -2.6314341134193184 -2.2814185250643098 -0.47483484756458405 -2.3451189813520035 -1.8168111306877999 -0.75813223052838796 -2.0706881136700912 1.1206682049554892 0.74999577861244004 -0.0071223688116548445 4.5940061258736673 -2.0157907871779881 4.9432276016181635 -0.91803013993127125 3.870540391081819 -1.9566123156283 1.8757416660246595
leaf_weight=6.3766178190708169 256.1683581545949 116.49590246379375 97.243421740829945 49.541415363550186 11.772217512130736 38.50496144592762 2.6977998465299597 74.066868513822556 47.211497314274311 2729.9281901568174 10.913826651871206 8.4612813368439657 4.1693270355463055 356.60008880496025 352.43076176941395 2.8204271122813216 9.810181260108946 11.404335714876654 25.015962213277817 310.36960961669683 10.300690323114393 5.3955996930599239 11.526962980628012 3.3109361752867725 6.3766178190708143 3.9240725040435791 3.4335634410381317 5.2729724273085568 25.996980339288712 3.310936175286769
leaf_count=52 2089 950 793 404 96 314 22 604 385 22262 89 69 34 2908 2874 23 80 93 204 2531 84 44 94 27 52 32 28 43 212 27
internal_value=-1.78972 -2.18062 2.74228 1.60508 3.51805 0.381285 1.85074 -0.203732 1.16718 -2.59619 -1.91854 1.74002 -1.75799 -2.67824 -2.0994 0.0149335 -0.0690538 0.597925 -2.18046 -2.37049 -0.422753 -1.16737 -1.75337 0.437174 1.09133 0.24694 2.20797 2.35624 -1.49141 4.81411
internal_weight=0 4226.23 374.626 418.036 163.094 254.942 72.5953 182.347 96.7529 3808.19 411.292 19.3751 118.458 3396.9 391.917 14.47 43.2874 33.4772 377.447 666.97 21.705 34.0904 85.5938 21.2145 17.0452 13.7343 7.35764 8.0934 31.3926 119.807
internal_count=37519 34464 3055 3409 1330 2079 592 1487 789 31055 3354 158 966 27701 3196 118 353 273 3078 5439 177 278 698 173 139 112 60 66 256 977
is_linear=0
shrinkage=1


Tree=15
num_leaves=31
num_cat=0
split_feature=10 38 48 8 48 37 37 42 37 14 37 48 9 9 48 40 33 10 40 14 14 48 14 9 37 14 37 37 35 9
split_gain=8520.41 6545.33 3616.06 1021.52 662.69 258.984 560.679 371.194 681.616 222.956 305.638 164.393 115.487 82.0463 74.1175 82.5671 69.2114 86.9156 67.8179 53.8983 50.7237 60.737 50.7064 57.6022 44.9491 43.4988 42.3832 49.0983 35.4562 34.2811
threshold=1.5533166730361787 3.5000000000000004 10.500000000000002 -0.46296321150152436 7.0000000000000009 3.5000000000000004 4.5000000000000009 0.20500000000000004 1.0000000180025095e-35 -1.1040471977610926 4.5000000000000009 7.0000000000000009 1.2076642291503952 0.14410195879834964 17.000000000000004 76.500000000000014 -1.1980357717543451 0.12166700193489373 76.500000000000014 -1.1636087354228659 -0.31673440502739719 7.0000000000000009 0.93411713595279167 1.4381881939406149 1.0000000180025095e-35 1.0310733188182992 3.5000000000000004 4.5000000000000009 -0.097054178141824279 0.33313508064234537
decision_type=2 2 2 2 2 2 2 2 2 2 2 2 2 2 2 2 2 2 2 2 2 2 2 2 2 2 2 2 2 2
left_child=1 3 -2 4 -1 7 -7 8 -5 10 16 -12 -4 -11 15 -6 17 -3 -15 -18 21 -8 23 -20 -17 -26 -14 -28 -19 -21
right_child=2 9 12 5 14 6 20 -9 -10 13 11 -13 26 18 -16 24 19 28 22 29 -22 -23 -24 -25 25 -27 27 -29 -30 -31
leaf_value=4.8105615134411348 4.8908504564914246 -2.3389411075796191 -2.2823498974509095 -1.5535346115293884 -1.2906954287815391 4.5313207819358556 4.8582818372478833 -1.7722333570625952 3.7418517912384668 -2.7958808287830341 4.2732945114814047 -1.5176473001920829 -0.73989144960136022 -2.6881892423659703 -2.3043450144542681 -1.1153235281461193 -2.2842264666849075 -0.47483484756458449 -2.0964312678980339 -1.8121960806710782 -1.5567639561404276 -1.791758002025597 -2.7060147725018604 0.043620022751162946 3.4703544329605678 -0.23846402496901753 4.6883903085073193 -0.54049340939668622 3.9748458877969539 0.53818296355927187
leaf_weight=116.12802066653967 257.14937628060579 8.0933995395898801 96.385030880570412 49.173533566296101 11.40433571487665 38.995470508933067 2.9430543780326834 87.801122277975082 48.069888174533844 2188.4061845988035 11.894844777882101 8.3386540710926038 12.630608372390272 659.12155341356993 9.1970449313521367 3.8014452382922199 353.90228895843029 2.8204271122813225 388.23792336881161 13.979508295655252 28.57215292006731 2.5751725807785988 151.56730046868324 12.998490169644354 14.4700173586607 4.0466997697949401 3.9240725040435782 3.3109361752867699 4.905090630054473 11.159081183373926
leaf_count=947 2097 66 786 401 93 318 24 716 392 17846 97 68 103 5375 75 31 2886 23 3166 114 233 21 1236 106 118 33 32 27 40 91
internal_value=-1.78972 -2.18463 2.79849 1.57611 3.56962 0.347803 1.94162 -0.281697 1.06411 -2.59583 -1.90395 1.88672 -1.82985 -2.68028 0.211991 0.898265 -2.0982 -0.0488177 -2.47155 -2.18372 -1.0207 1.75493 -2.21325 -2.0271 2.0168 2.65982 0.365595 2.29551 2.35036 -0.768857
internal_weight=0 4232.6 373.4 417.178 159.048 258.13 73.0859 185.045 97.2434 3815.42 415.093 20.2335 116.251 3400.33 42.9195 33.7225 394.86 15.8189 1211.93 379.041 34.0904 5.51823 552.804 401.236 22.3182 18.5167 19.8656 7.23501 7.72552 25.1386
internal_count=37561 34516 3045 3402 1297 2105 596 1509 793 31114 3385 165 948 27729 350 275 3220 129 9883 3091 278 45 4508 3272 182 151 162 59 63 205
is_linear=0
shrinkage=1


Tree=16
num_leaves=31
num_cat=0
split_feature=10 38 36 2 36 14 37 37 37 50 37 36 51 37 21 0 9 40 40 14 24 14 40 37 37 27 2 48 9 40
split_gain=8006.13 6533.29 3548.59 912.213 693.631 224.882 258.169 224.844 496.238 447.399 642.609 151.388 122.032 132.325 109.864 97.0257 80.496 74.739 63.4341 60.1256 77.2986 55.6514 52.2509 49.6174 66.591 42.075 106.881 38.6554 38.447 34.7462
threshold=1.5533166730361787 3.5000000000000004 1.0000000180025095e-35 -0.56678628267000886 1.0000000180025095e-35 -1.1040471977610926 4.5000000000000009 3.5000000000000004 4.5000000000000009 20.500000000000004 1.0000000180025095e-35 1.0000000180025095e-35 14.500000000000002 3.5000000000000004 3.0370677020790411 -0.59977381803326557 0.19071137557242882 237.00000000000003 76.500000000000014 -2.5356937126209957 -1.2303901748533506 -1.1636087354228659 479.50000000000006 3.5000000000000004 4.5000000000000009 2.1441999831035701 -0.78883381738022273 1.5000000000000002 1.4381881939406149 78.500000000000014
decision_type=2 2 2 2 2 2 2 2 2 2 2 2 2 2 2 2 2 2 2 2 2 2 2 2 2 2 2 2 2 2
left_child=1 3 -2 4 25 6 19 9 -9 10 -5 -8 13 17 -4 -10 -7 -6 -18 20 -3 -21 -22 -16 -25 -1 -27 -17 29 -20
right_child=2 5 14 7 12 16 11 8 15 -11 -12 -13 -14 -15 23 27 18 -19 28 21 22 -23 -24 24 -26 26 -28 -29 -30 -31
leaf_value=4.8591126026695974 4.886312230319767 -2.7794503678713562 -2.1900385089631813 -1.3472297914863784 -1.3690695967646254 -2.7980923047676614 4.0330944119365739 4.4827321421371646 4.8097414004648567 -1.8966053454769161 3.9184563591085966 -1.3884989887512926 -2.1536048944080957 5.1980648947290096 -0.87272573226712113 1.2442256804031691 -2.68873798133398 2.1637231721068551 -0.2772963743954322 -2.265976096358457 4.4785243024160373 -0.77965694910185301 -0.84252279382435424 4.7688652431739023 -1.4740387794458423 4.6883903085073175 0.0086509259263471971 -2.1028234188968753 -0.8107302270424942 -2.3060696523235307
leaf_weight=100.30910338461399 243.78300431370735 5.640854224562645 100.43173065036535 46.598360985517502 13.856881029903894 2237.8249726966023 11.15908118337393 34.948770739138126 2.5751725807786014 85.839086025953293 46.107851922512054 9.5649267286062223 16.186799079179764 6.6218723505735388 11.036453917622568 4.0466997697949436 634.35084573179483 10.545944854617117 8.5839086025953275 357.58110693097115 4.169327035546301 27.100625731050968 3.3109361752867699 4.6598360985517493 2.6977998465299606 17.65832626819611 6.7444996163249007 23.421807758510113 18.639344394207001 510.25205279141665
leaf_count=818 1988 46 819 380 113 18249 91 285 21 700 376 78 132 54 90 33 5173 86 70 2916 34 221 27 38 22 144 55 191 152 4161
internal_value=-1.78972 -2.19323 2.70226 1.57318 3.33677 -2.60199 -1.9102 0.328183 1.92076 -0.251533 1.27168 1.53082 0.0721948 1.23348 -1.77853 -1.05949 -2.68691 0.157665 -2.47458 -2.08946 0.0155794 -2.16127 2.12331 0.468285 2.4798 4.57262 3.395 -1.60973 -2.22181 -2.2725
internal_weight=0 4243.64 362.609 415.461 171.923 3828.18 418.527 243.538 64.9925 178.545 92.7062 20.724 47.2115 31.0247 118.826 30.0437 3409.65 24.4028 1171.83 397.803 13.1211 384.682 7.48026 18.3941 7.35764 124.712 24.4028 27.4685 537.475 518.836
internal_count=37563 34606 2957 3388 1402 31218 3413 1986 530 1456 756 169 385 253 969 245 27805 199 9556 3244 107 3137 61 150 60 1017 199 224 4383 4231
is_linear=0
shrinkage=1


Tree=17
num_leaves=31
num_cat=0
split_feature=23 38 36 8 36 37 37 37 37 6 37 9 36 9 0 36 40 33 23 6 37 6 48 0 6 42 37 40 40 42
split_gain=8070.19 6556.52 3383.26 1051.67 738.32 231.055 562.44 353.5 677.996 230.686 247.394 124.806 123.482 80.879 78.5145 77.4124 78.17 69.7606 115.321 59.63 65.0393 52.0191 46.1495 45.6693 44.4927 41.7914 39.9151 37.9601 62.8303 34.8669
threshold=-0.59203497783298464 3.5000000000000004 1.0000000180025095e-35 -0.66309693963793515 1.0000000180025095e-35 3.5000000000000004 4.5000000000000009 1.5000000000000002 1.0000000180025095e-35 -0.7812579403989135 4.5000000000000009 1.2076642291503952 1.0000000180025095e-35 0.14410195879834964 -0.59628151992192191 1.5000000000000002 76.500000000000014 -1.1980357717543451 -0.32109187042135351 -0.12599904424276176 4.5000000000000009 -0.79029589155743973 1.5000000000000002 -0.58875742476864135 1.3104152922049743 0.115 3.5000000000000004 28.500000000000004 40.500000000000007 0.20500000000000004
decision_type=2 2 2 2 2 2 2 2 2 2 2 2 2 2 2 2 2 2 2 2 2 2 2 2 2 2 2 2 2 2
left_child=2 3 -1 4 -2 7 -7 8 -5 10 17 -4 -12 -11 -8 16 -6 18 -3 20 27 -19 -16 -22 26 -13 29 -15 -29 -18
right_child=1 9 11 5 15 6 14 -9 -10 13 12 25 -14 19 22 -17 24 21 -20 -21 23 -23 -24 -25 -26 -27 -28 28 -30 -31
leaf_value=4.7857213905103819 4.8982563145986031 2.5597493895814378 -2.2163316434525071 -1.4940751268157366 -1.3084191846968209 4.5296392078808925 4.3825855567743055 -1.6961379897580919 3.8173591373453841 -2.7923338084580589 3.8857992934225876 -2.1203394202491039 -1.2092727606293798 -2.8066402631085765 1.2154913837874317 -2.352669715962695 2.7516268808648934 -2.2327309996414528 -2.825199559341466 -2.6621500455568605 3.1593665498422498 -0.58442495622252855 -2.0215457578057561 -1.285868679222766 -2.141249146863327 1.2442256804031717 4.5323674759904762 -0.47690827583296613 -2.2612428122578336 -0.4083555537095811
leaf_weight=249.79174033552408 116.74115699529648 8.3386540710926038 95.894521817564964 49.909297160804272 11.526962980628012 37.401316054165363 2.4525453150272361 89.64053126424551 46.353106454014778 2202.0178110972047 10.668572120368482 4.7824633643031147 8.5839086025953275 119.92946590483189 5.2729724273085585 9.9328085258603078 8.5839086025953346 356.35483427345753 7.6028904765844336 695.90973313897848 2.4525453150272361 20.233498848974705 26.732743933796883 40.099115900695324 2.4525453150272361 16.186799079179764 6.0087360218167296 20.969262443482876 335.01769003272057 5.8861087560653678
leaf_count=2037 952 68 782 407 94 305 20 731 378 17957 87 39 70 978 43 81 70 2906 62 5675 20 165 218 327 20 132 49 171 2732 48
internal_value=-1.78972 -2.18184 2.70799 1.57424 3.57828 0.321483 1.8443 -0.267153 1.06353 -2.59285 -1.88577 -1.73308 1.61411 -2.67807 -1.07039 0.106951 0.815952 -2.05743 -0.00845703 -2.47088 -2.21416 -2.14417 -1.48824 -1.02966 1.88382 0.476869 2.36586 -2.32006 -2.15614 1.46621
internal_weight=0 4247.07 366.656 418.895 161.132 257.763 71.8596 185.903 96.2624 3828.18 411.782 116.864 19.2525 3416.4 34.4583 44.3911 34.4583 392.53 15.9415 1214.38 518.468 376.588 32.0057 42.5517 22.9313 20.9693 20.4788 475.916 355.987 14.47
internal_count=37624 34634 2990 3416 1314 2102 586 1516 785 31218 3358 953 157 27860 281 362 281 3201 130 9903 4228 3071 261 347 187 171 167 3881 2903 118
is_linear=0
shrinkage=1


Tree=18
num_leaves=31
num_cat=0
split_feature=10 20 36 8 36 37 37 37 37 14 37 36 0 21 51 37 9 14 14 10 14 14 37 0 37 51 36 14 36 1
split_gain=8270.48 6630.32 3600.81 1013.27 747.48 270.206 509.998 403.736 658.888 203.924 258.053 136.121 110.487 109.355 104.635 102.064 84.7423 57.9238 57.125 87.8879 49.5426 44.4813 80.5286 52.2526 33.2464 57.384 30.7874 63.9124 30.7715 28.8156
threshold=1.5533166730361787 1.0036173498886563 1.0000000180025095e-35 -0.46296321150152436 1.0000000180025095e-35 3.5000000000000004 4.5000000000000009 1.5000000000000002 1.0000000180025095e-35 -1.1040471977610926 4.5000000000000009 1.0000000180025095e-35 -0.61027759628814848 3.0370677020790411 14.500000000000002 3.5000000000000004 0.14410195879834964 0.091010059426123321 -2.5356937126209957 0.1160101461373705 -1.1636087354228659 0.079442662557050778 4.5000000000000009 -0.58958946935616152 3.5000000000000004 14.500000000000002 1.0000000180025095e-35 -0.31673440502739719 1.0000000180025095e-35 0.70227713027932726
decision_type=2 2 2 2 2 2 2 2 2 2 2 2 2 2 2 2 2 2 2 2 2 2 2 2 2 2 2 2 2 2
left_child=1 9 -2 4 -3 7 -7 8 28 10 18 -12 -8 -4 15 17 -11 -6 19 -1 -20 22 -18 -24 -15 -26 27 -25 -5 -19
right_child=2 3 13 5 14 6 12 -9 -10 16 11 -13 -14 24 -16 -17 21 29 20 -21 -22 -23 23 26 25 -27 -28 -29 -30 -31
leaf_value=-2.3095226610444568 4.884266221088378 4.8769434973996955 -2.1647161781713762 -0.68279571552126028 2.1124673997652614 4.4567200420429156 5.1980648947290096 -1.8129986980652906 3.8460859923304214 -2.7890928633705951 3.9933795091141042 -1.2810860095686394 -1.4895480859873922 -0.60089928628221978 -2.3072316669780015 5.1980648947290096 -2.3556277357070896 -1.8572057819577561 -2.2731272235217372 2.8195834923611218 -0.8064595837434384 -2.6244593483364 3.5671062188196019 3.1011180257026258 4.9262384487441082 -0.70713031114988234 -2.0848323373192912 -1.2499112658430693 -2.2883027979699131 1.9361475429101933
leaf_weight=7.7255177423357946 251.75377658754587 118.33531145006418 102.27113963663578 25.506471276283264 9.074417665600782 39.118097774684429 2.6977998465299597 87.433240480720997 46.598360985517502 2207.1681562587619 10.791199386119844 8.951790399849413 29.307916514575481 11.036453917622568 13.856881029903887 4.905090630054473 475.79379111528397 10.913826651871203 351.08186184614897 5.8861087560653687 24.648080416023731 704.24838721007109 2.4525453150272361 4.2919543012976655 3.6788179725408545 3.5561907067894936 19.497735254466534 15.818917281925678 22.440789632499218 2.4525453150272361
leaf_count=63 2053 965 834 208 74 319 22 713 380 17999 88 73 239 90 113 40 3880 89 2863 48 201 5743 20 35 30 29 159 129 183 20
internal_value=-1.78972 -2.18303 2.73229 1.62595 3.5997 0.381838 2.03457 -0.264108 1.16826 -2.59251 -1.92516 1.60185 -0.925841 -1.76213 -0.0685725 1.06582 -2.67212 0.162591 -2.10401 -0.0915308 -2.17691 -2.46086 -2.23838 -0.912086 0.491271 2.15729 -1.18944 -0.321338 -1.43422 -1.16118
internal_weight=0 4251 372.296 412.641 159.538 253.103 71.1238 181.979 94.5456 3838.36 409.085 19.743 32.0057 120.543 41.2028 27.3459 3429.27 22.4408 389.342 13.6116 375.73 1222.1 517.855 42.0612 18.2715 7.23501 39.6086 20.1109 47.9473 13.3664
internal_count=37702 34666 3036 3365 1301 2064 580 1484 771 31301 3336 161 261 983 336 223 27965 183 3175 111 3064 9966 4223 343 149 59 323 164 391 109
is_linear=0
shrinkage=1


Tree=19
num_leaves=31
num_cat=0
split_feature=10 38 48 8 36 37 37 50 37 14 37 36 21 0 51 37 9 40 14 25 40 6 14 6 9 40 37 37 6 48
split_gain=8290.64 6432.29 3541.01 1045.38 667.126 309.434 542.562 380.706 619.427 211.041 274.098 153.996 119.363 108.365 97.7379 119.377 78.5822 65.1668 59.8146 88.749 58.8526 48.2177 47.8292 42.4368 46.9023 39.9975 39.5143 66.1082 36.0171 31.5316
threshold=1.5533166730361787 3.5000000000000004 10.500000000000002 -0.66309693963793515 1.0000000180025095e-35 3.5000000000000004 4.5000000000000009 20.500000000000004 1.0000000180025095e-35 -1.1040471977610926 4.5000000000000009 1.0000000180025095e-35 3.0370677020790411 -0.61027759628814848 14.500000000000002 3.5000000000000004 0.14410195879834964 76.500000000000014 -2.5356937126209957 -1.7403479988578949 400.50000000000006 1.1866355654362202 -1.1636087354228659 0.61923758152287556 1.4381881939406149 479.50000000000006 3.5000000000000004 4.5000000000000009 -0.11108117361688562 1.5000000000000002
decision_type=2 2 2 2 2 2 2 2 2 2 2 2 2 2 2 2 2 2 2 2 2 2 2 2 2 2 2 2 2 2
left_child=1 3 -2 4 21 7 -7 8 -5 10 18 -12 -4 -8 15 20 -11 -18 19 -3 28 -1 -20 24 -19 -21 -14 -28 -6 -15
right_child=2 9 12 5 14 6 13 -9 -10 16 11 -13 26 29 -16 -17 17 23 22 25 -22 -23 -24 -25 -26 -27 27 -29 -30 -31
leaf_value=4.9144199076143309 4.8939607255211719 -2.6490004327596521 -2.1934719616091951 -1.4353118095294042 1.0258450261235459 4.6045198069771676 5.1980648947290096 -1.8402332838599129 3.6814052095841423 -2.7882730877932955 4.1343961930489588 -1.4635973026474463 -0.58614901401947339 0.91679837046681101 -1.9112421541068723 5.1980648947290096 -2.6852559136930694 -2.1180074804780009 -2.2691117608283506 4.6719491928227512 2.2226673102996837 0.53818296355927187 -0.83808118522982944 -2.6703670253606733 -0.26210110722857438 -0.2384640249690182 5.1980648947290096 -0.99957807372674168 -2.2771623698557777 -1.8464514519219553
leaf_weight=112.8170844912529 249.91436760127544 6.4992450848221779 99.57333979010582 49.296160832047462 5.2729724273085603 38.750215977430344 2.6977998465299597 91.357312984764576 45.494715593755245 2190.4908481165767 11.281708449125292 8.7065358683466894 10.545944854617121 4.9050906300544765 14.347390092909334 6.1313632875680915 659.36680794507265 395.84081384539604 351.9402527064085 3.8014452382922155 9.0744176656007749 2.5751725807785979 25.015962213277817 153.65196398645639 14.102135561406611 2.9430543780326843 3.9240725040435782 3.0656816437840462 8.8291631340980565 26.119607605040073
leaf_count=920 2038 53 812 402 43 316 22 745 371 17863 92 71 86 40 117 50 5377 3228 2870 31 74 21 204 1253 115 24 32 25 72 213
internal_value=-1.78972 -2.18645 2.7677 1.53966 3.55705 0.299002 2.05205 -0.38351 1.02045 -2.59346 -1.91574 1.69601 -1.7698 -0.880963 0.227306 1.27421 -2.6749 -2.47184 -2.10076 -0.011942 0.236154 4.81676 -2.17414 -2.22216 -2.05416 2.52922 0.635943 2.4798 -1.04212 -1.40957
internal_weight=0 4241.31 367.023 417.668 159.048 258.621 72.4727 186.148 94.7909 3823.64 410.188 19.9882 117.109 33.7225 43.6553 29.3079 3413.45 1222.96 390.2 13.2437 23.1766 115.392 376.956 563.595 409.943 6.7445 17.5357 6.98975 14.1021 31.0247
internal_count=37580 34587 2993 3406 1297 2109 591 1518 773 31181 3345 163 955 275 356 239 27836 9973 3182 108 189 941 3074 4596 3343 55 143 57 115 253
is_linear=0
shrinkage=1


Tree=20
num_leaves=31
num_cat=0
split_feature=10 38 36 8 36 37 37 42 37 6 37 38 36 0 51 37 9 40 6 33 10 37 51 9 1 6 33 49 6 48
split_gain=8372.9 6516.39 3551.58 1005.64 696.918 254.063 558.671 393.092 667.3 199.571 243.11 122.22 118.426 111.785 101.173 119.776 78.062 61.8481 61.3839 59.315 94.4225 59.0762 61.1866 52.9501 43.3027 43.1579 36.7462 36.36 32.5062 31.4019
threshold=1.5533166730361787 3.5000000000000004 1.0000000180025095e-35 -0.66309693963793515 1.0000000180025095e-35 3.5000000000000004 4.5000000000000009 0.20500000000000004 1.0000000180025095e-35 -0.76822690170279972 4.5000000000000009 3.5000000000000004 1.0000000180025095e-35 -0.59977381803326557 14.500000000000002 3.5000000000000004 0.14410195879834964 76.500000000000014 -0.10710382818707 -1.1980357717543451 0.1160101461373705 3.5000000000000004 14.500000000000002 1.4381881939406149 0.74049863796328041 -0.79029589155743973 -0.30510701355659531 2.5000000000000004 0.65222428367894703 1.5000000000000002
decision_type=2 2 2 2 2 2 2 2 2 2 2 2 2 2 2 2 2 2 2 2 2 2 2 2 2 2 2 2 2 2
left_child=1 3 -2 4 -1 7 -7 8 -5 10 19 21 -12 -8 15 18 -11 -18 -6 20 -3 -4 -23 28 -20 -21 29 -22 -19 -15
right_child=2 9 11 5 14 6 13 -9 -10 16 12 -13 -14 26 -16 -17 17 23 24 25 27 22 -24 -25 -26 -27 -28 -29 -30 -31
leaf_value=4.8431322741754759 4.8630443837278019 -2.3824472609062681 -0.91803013993127125 -1.5027730760615821 2.1691416394686787 4.6347403520629307 5.1980648947290096 -1.791758002025597 3.8037219852727797 -2.7937145795258407 4.1250657658412386 -2.2311766929034449 -1.0041723235180355 3.2564474234082783 -2.2085823032082113 5.1980648947290096 -2.6862265305114672 -2.141249146863327 -2.1981430541624922 -2.2773992350056429 -0.51029047095391911 4.9776650736601713 -0.51029047095391933 -0.56465576015089924 2.1400173773988693 -0.91803013993127103 -2.1160281364111198 4.2919767414460033 -2.6947824591013894 -1.0748530895379451
leaf_weight=115.51488433778286 253.71581283956766 8.7065358683466894 12.753235638141634 47.456751845777035 8.5839086025953311 37.278688788414001 2.6977998465299597 87.555867746472359 47.334124580025673 2196.1317023411393 9.3196721971035021 97.856558069586754 8.7065358683466894 2.5751725807786014 13.36637196689844 5.7634814903140059 654.33909004926682 394.85979571938515 10.545944854617121 351.81762544065714 2.4525453150272361 4.5372088328003866 3.6788179725408554 18.394089862704277 2.9430543780326834 25.015962213277817 23.789689555764198 4.4145815670490265 145.06805538386106 4.782463364303112
leaf_count=942 2069 71 104 387 70 304 22 714 386 17909 76 798 71 21 109 47 5336 3220 86 2869 20 37 30 150 24 204 194 36 1183 39
internal_value=-1.78972 -2.19516 2.75002 1.5924 3.5837 0.361211 1.96427 -0.264056 1.14704 -2.60194 -1.94317 -1.7617 1.64768 -0.977123 0.0527786 1.13863 -2.68126 -2.47762 0.0786668 -2.10812 -0.195657 0.42918 2.52037 -2.23313 -1.25164 -2.18716 -1.51198 2.57688 -2.28997 0.441102
internal_weight=0 4229.41 372.542 410.188 156.718 253.471 71.1238 182.347 94.7909 3819.23 410.433 118.826 18.0262 33.8451 41.2028 27.8364 3408.79 1212.66 22.0729 392.407 15.5737 20.9693 8.21603 558.322 13.489 376.834 31.1473 6.86713 539.928 7.35764
internal_count=37528 34490 3038 3345 1278 2067 580 1487 773 31145 3347 969 147 276 336 227 27798 9889 180 3200 127 171 67 4553 110 3073 254 56 4403 60
is_linear=0
shrinkage=1


Tree=21
num_leaves=31
num_cat=0
split_feature=10 38 48 8 36 14 37 37 37 37 37 36 20 0 9 36 40 6 10 40 14 40 6 48 37 37 9 4 48 37
split_gain=8413.57 6502.25 3636.59 1032.51 680.624 227.039 260.688 225.696 562.514 390.372 643.513 129.265 111.384 85.9179 83.3503 71.6583 75.9434 66.9869 83.8765 66.7725 63.6639 52.8603 42.2179 38.9238 35.0558 72.6942 34.8962 33.3141 32.7905 31.7704
threshold=1.5533166730361787 3.5000000000000004 10.500000000000002 -0.66309693963793515 1.0000000180025095e-35 -1.1040471977610926 4.5000000000000009 3.5000000000000004 4.5000000000000009 1.5000000000000002 1.0000000180025095e-35 1.0000000180025095e-35 1.0036173498886563 -0.58875742476864135 0.14410195879834964 1.5000000000000002 47.500000000000007 -1.1961339953951045 0.1160101461373705 76.500000000000014 -1.1636087354228659 80.500000000000014 1.5007394701121848 1.5000000000000002 3.5000000000000004 4.5000000000000009 1.0003101947913879 0.50493004672728092 13.500000000000002 3.5000000000000004
decision_type=2 2 2 2 2 2 2 2 2 2 2 2 2 2 2 2 2 2 2 2 2 2 2 2 2 2 2 2 2 2
left_child=1 3 -2 4 -1 6 17 9 28 10 -5 -8 -4 -10 -7 16 -6 18 -3 -16 -19 -21 29 -15 -14 -26 -23 -11 -9 -18
right_child=2 5 12 7 15 14 11 8 13 27 -12 -13 24 23 19 -17 22 20 -20 21 -22 26 -24 -25 25 -27 -28 -29 -30 -31
leaf_value=4.8363950721936604 4.8958901641105683 -2.2413957322261857 -2.225539041072842 -1.4200211896772572 -1.6933097922121518 -2.7955593418260314 3.8684790176289465 4.8569898864589813 4.4214179062007197 -2.0270289138598998 3.7381274610505115 -1.3021327266490665 -0.68756858790059416 0.92650645782341501 -2.6872765197513422 -2.3212900396585217 1.406801305992226 -2.2613145001368533 2.7995962536857619 -0.28657490036457545 -0.65375442855706134 -2.3933735627881676 -2.141249146863327 -2.0802787290723215 4.7320767016120353 -1.3257698089086232 -1.76896510127531 -0.2098507148653439 2.3752518018088797 4.1003042474822919
leaf_weight=116.12802066653967 254.81945823132992 6.9897541478276235 98.469694398343563 48.805651769042015 8.7065358683466929 2190.2455935850739 11.281708449125292 32.250970892608166 2.5751725807785979 75.293141171336174 47.947260908782482 8.4612813368439657 14.102135561406614 5.1503451615572002 645.75518144667149 9.4422994628548604 13.979508295655256 352.30813450366259 6.2539905533194542 13.856881029903887 26.487489402294159 433.11950263381004 2.4525453150272361 26.242234870791435 4.2919543012976638 3.6788179725408554 112.8170844912529 11.649590246379374 6.3766178190708152 6.3766178190708152
leaf_count=947 2078 57 803 398 71 17861 92 263 21 614 391 69 115 42 5266 77 114 2873 51 113 216 3532 20 214 35 30 920 95 52 52
internal_value=-1.78972 -2.18534 2.75509 1.58151 3.60021 -2.59429 -1.89306 0.344207 1.83697 -0.245722 1.13617 1.6525 -1.77043 -1.13147 -2.67933 0.0952151 0.819226 -2.07161 0.139073 -2.46815 -2.1489 -2.21538 1.77831 -1.58698 0.259884 1.93615 -2.26434 -1.78354 4.44731 2.25055
internal_weight=0 4220.95 375.362 413.377 157.086 3807.58 411.782 256.291 72.5953 183.696 96.7529 19.743 120.543 33.9678 3395.79 40.9575 31.5152 392.039 13.2437 1205.55 378.796 559.793 22.8087 31.3926 22.0729 7.97077 545.937 86.9427 38.6276 20.3561
internal_count=37482 34421 3061 3371 1281 31050 3358 2090 592 1498 789 161 983 277 27692 334 257 3197 108 9831 3089 4565 186 256 180 65 4452 709 315 166
is_linear=0
shrinkage=1


Tree=22
num_leaves=31
num_cat=0
split_feature=10 20 36 8 36 37 42 42 37 6 37 21 36 51 37 0 21 40 33 10 40 6 37 37 6 48 6 6 27 35
split_gain=8248.23 6535.98 3611.76 1050.78 705.114 249.182 534.537 383.235 739.786 206.19 237.791 138.795 118.922 101.998 115.848 88.1468 85.3876 71.2079 60.4419 111.006 48.8759 48.6558 46.3443 62.0498 42.4427 38.3061 36.5425 30.1361 29.551 29.3532
threshold=1.5533166730361787 1.0036173498886563 1.0000000180025095e-35 -0.66309693963793515 1.0000000180025095e-35 3.5000000000000004 0.43500000000000005 0.20500000000000004 1.0000000180025095e-35 -0.76822690170279972 4.5000000000000009 3.0370677020790411 1.0000000180025095e-35 14.500000000000002 3.5000000000000004 -0.59977381803326557 0.047088040752925324 377.50000000000006 -1.1980357717543451 0.1160101461373705 76.500000000000014 -0.79029589155743973 3.5000000000000004 4.5000000000000009 -0.11108117361688562 1.5000000000000002 1.1866355654362202 0.048517532695291639 1.7938993120880913 -0.097054178141824279
decision_type=2 2 2 2 2 2 2 2 2 2 2 2 2 2 2 2 2 2 2 2 2 2 2 2 2 2 2 2 2 2
left_child=1 9 -2 4 26 7 -7 8 -5 10 18 -4 -12 14 17 -8 -11 24 19 -1 -18 -20 28 -24 -6 -17 -3 -19 -13 -21
right_child=2 3 11 5 13 6 15 -9 -10 16 12 22 -14 -15 -16 25 20 27 21 29 -22 -23 23 -25 -26 -27 -28 -29 -30 -31
leaf_value=-2.6072373399803008 4.902108685760652 4.9437756388076508 -2.2118194741863304 -1.5809809464592395 1.1206682049554884 4.4662244632311978 4.7903252257516584 -1.7805563627679772 3.9418434602818153 -2.7463459701348856 3.7757172122498726 -1.3472297914863787 -1.2778004360877582 -2.2085823032082113 5.1980648947290096 1.025845026123545 -2.59270298866885 4.2660885084950628 -2.2677940140821731 -0.10255080197656752 -2.0162163582759711 -0.81710447929331265 4.9776650736601713 -0.91803013993127136 -2.5218061712421886 -1.9278526845948065 1.5737122815969915 0.56966865228339136 2.4798004348799965 4.1525785640178512
leaf_weight=8.5839086025953275 250.03699486702681 114.04335714876652 102.02588510513306 50.154551692306995 4.9050906300544748 38.259706914424896 2.4525453150272361 89.272649466991425 46.966242782771587 2832.9350933879614 10.545944854617121 9.3196721971035021 8.3386540710926038 13.36637196689844 5.6408542245626441 5.2729724273085621 321.4060635343194 4.2919543012976629 346.91253481060266 2.4525453150272369 271.12888457626104 24.770707681775093 4.5372088328003874 2.9430543780326843 9.1970449313521421 26.242234870791435 3.310936175286769 4.5372088328003883 2.5751725807785979 4.7824633643031111
leaf_count=70 2039 930 832 409 40 312 20 728 383 23102 86 76 68 109 46 43 2621 35 2829 20 2211 202 37 24 75 214 27 37 21 39
internal_value=-1.78972 -2.18469 2.72928 1.57052 3.59096 0.326069 1.90292 -0.284961 1.08978 -2.59424 -1.92077 -1.74587 1.54429 0.0715135 1.13817 -0.984269 -2.67414 0.139476 -2.08964 -0.175249 -2.32892 -2.17111 0.707767 2.65805 -1.25486 -1.43365 4.8487 2.36654 -0.518697 2.71016
internal_weight=0 4249.77 371.438 417.914 159.293 258.621 72.2275 186.393 97.1208 3831.86 406.387 121.401 18.8846 41.9385 28.5722 33.9678 3425.47 22.9313 387.502 15.8189 592.535 371.683 19.3751 7.48026 14.1021 31.5152 117.354 8.82916 11.8948 7.23501
internal_count=37685 34656 3029 3408 1299 2109 589 1520 792 31248 3314 990 154 342 233 277 27934 187 3160 129 4832 3031 158 61 115 257 957 72 97 59
is_linear=0
shrinkage=1


Tree=23
num_leaves=31
num_cat=0
split_feature=10 38 48 8 48 37 37 42 37 14 37 48 9 51 37 21 6 33 10 40 14 27 6 23 37 9 51 35 10 44
split_gain=8435.7 6540.7 3505.56 1025.75 679.965 264.476 549.237 363.448 649.619 223.857 279.595 152.479 131.205 100.496 107.098 92.0667 68.0142 67.5071 114.539 58.8867 55.3435 51.889 44.5162 39.3584 37.6095 31.6814 30.9337 30.5665 30.2689 28.3873
threshold=1.5533166730361787 3.5000000000000004 10.500000000000002 -0.66309693963793515 7.0000000000000009 3.5000000000000004 4.5000000000000009 0.20500000000000004 1.0000000180025095e-35 -1.1040471977610926 4.5000000000000009 7.0000000000000009 1.5103426696609259 14.500000000000002 3.5000000000000004 -0.044751410084351746 -0.11108117361688562 -1.1980357717543451 0.1160101461373705 76.500000000000014 -1.1636087354228659 0.64405308748742895 -0.63193547807614692 -0.48549433698736999 3.5000000000000004 1.0003101947913879 14.500000000000002 -0.32006278858523252 -1.1848538555561414 0.21875000000000003
decision_type=2 2 2 2 2 2 2 2 2 2 2 2 2 2 2 2 2 2 2 2 2 2 2 2 2 2 2 2 2 2
left_child=1 3 -2 4 -1 7 -7 8 -5 10 17 -12 29 14 16 -11 -6 18 -3 -17 -19 -8 -23 -18 -14 -21 -26 -20 -10 -4
right_child=2 9 12 5 13 6 21 -9 28 15 11 -13 24 -15 -16 19 23 20 27 25 -22 22 -24 -25 26 -27 -28 -29 -30 -31
leaf_value=4.8757066094264019 4.9004446983951766 -2.5098904914181932 0.57701531298568653 -1.4946316920204556 2.4415150199525431 4.5334108888725115 2.2532783965592453 -1.7636266125263478 0.30518886700078518 -2.7645684051821657 4.2817959756787776 -1.3977238681399204 -0.2830257374255587 -2.1800814962897417 5.1980648947290096 -2.6238797754487644 2.1400173773988671 -2.267511448236986 -0.10255080197656752 -2.2310734702840231 -0.71416030544259512 2.3616150235822073 -1.8128434406281748 -1.9709842301475098 5.1980648947290078 -1.5162110914249911 0.53818296355927098 4.2035778972232727 3.9140228432533708 -2.2524972668095886
leaf_weight=114.77912074327469 251.9990311190486 8.9517903998494166 3.6788179725408545 48.560397237539291 8.7065358683466929 39.118097774684429 4.4145815670490256 86.32959508895874 2.4525453150272361 2664.4452302455902 10.913826651871206 8.3386540710926038 7.4802632108330709 12.875862903892992 5.3955996930599204 402.58531346172094 2.9430543780326852 354.02491622418165 2.4525453150272369 254.94208549708128 24.525453150272369 2.8204271122813251 27.100625731050968 11.159081183373928 3.188308909535408 81.915013521909714 2.5751725807785988 5.0277178958058348 44.391070201992989 97.979185335338116
leaf_count=936 2055 73 30 396 71 319 36 704 20 21728 89 68 61 105 44 3283 24 2887 20 2079 200 23 221 91 26 668 21 41 362 799
internal_value=-1.78972 -2.18542 2.81322 1.6048 3.62613 0.370239 1.97154 -0.276982 1.06826 -2.59346 -1.89936 1.82188 -1.76441 0.13479 1.19158 -2.67793 0.243809 -2.08074 -0.0964651 -2.36574 -2.16687 -0.947154 -1.41935 -1.11304 1.19618 -2.05724 3.11599 2.79173 3.72508 -2.1501
internal_weight=0 4229.17 366.901 411.047 155.859 255.187 73.4537 181.734 95.404 3818.12 414.235 19.2525 114.902 41.0801 28.2043 3403.89 22.8087 394.982 16.4321 739.442 378.55 34.3356 29.9211 14.1021 13.2437 336.857 5.76348 7.48026 46.8436 101.658
internal_count=37480 34488 2992 3352 1271 2081 599 1482 778 31136 3378 157 937 335 230 27758 186 3221 134 6030 3087 280 244 115 108 2747 47 61 382 829
is_linear=0
shrinkage=1


Tree=24
num_leaves=31
num_cat=0
split_feature=10 38 36 8 36 37 37 42 37 14 37 36 21 51 37 21 40 14 10 14 48 40 37 37 6 40 48 1 6 40
split_gain=8187.89 6484.4 3622 1078.4 687.535 255.02 533.997 368.192 670.404 228.561 306.121 152.359 140.309 99.0124 105.019 72.9074 63.9001 59.4456 97.6622 61.0552 56.3647 55.037 46.9749 50.8186 37.8582 35.9935 28.6254 29.7764 28.037 27.835
threshold=1.5533166730361787 3.5000000000000004 1.0000000180025095e-35 -0.66309693963793515 1.0000000180025095e-35 3.5000000000000004 4.5000000000000009 0.20500000000000004 1.0000000180025095e-35 -1.1040471977610926 4.5000000000000009 1.0000000180025095e-35 3.0370677020790411 14.500000000000002 3.5000000000000004 1.0000000180025095e-35 237.00000000000003 -2.5356937126209957 0.1160101461373705 -1.1636087354228659 1.5000000000000002 76.500000000000014 3.5000000000000004 4.5000000000000009 0.025198360586475989 78.500000000000014 13.500000000000002 0.19824648538113582 -0.37263182195768213 400.50000000000006
decision_type=2 2 2 2 2 2 2 2 2 2 2 2 2 2 2 2 2 2 2 2 2 2 2 2 2 2 2 2 2 2
left_child=1 3 -2 4 -1 7 26 8 -5 10 17 -12 -4 14 16 -11 -6 18 -3 -19 28 -17 -14 -24 -18 -23 -7 -28 -8 -20
right_child=2 9 12 5 13 6 20 -9 -10 15 11 -13 22 -15 -16 21 24 19 29 -21 -22 25 23 -25 -26 -27 27 -29 -30 -31
leaf_value=4.896035510301342 4.8825758266662209 -2.6490004327596526 -2.2493247217729868 -1.5271227318604019 -1.3257698089086234 4.8530544055943263 4.3825855567743037 -1.8099606658192287 3.7464262826630441 -2.7463432601537665 4.3212053915519064 -1.2338848130827409 -0.5532104361094301 -2.0267959064486321 5.1980648947290096 -2.6405667094077852 4.1525785640178512 -2.2627035163459426 4.6544120027592051 -0.70585791399283004 -1.609731364089279 0.69146855340038194 4.7572652525913313 -0.57824708245014467 0.26725959546800793 -2.1091332330258905 0.0086509259263471971 4.3825855567743037 -0.044302277836945292 0.30518886700078429
leaf_weight=115.88276613503695 250.40487666428089 6.4992450848221761 101.78063057363033 49.664042629301548 11.649590246379381 31.88308909535408 2.4525453150272369 86.32959508895874 46.843615517020226 2747.3412618935108 11.404335714876654 8.7065358683466894 11.649590246379377 13.979508295655249 5.3955996930599204 366.90077912807465 4.7824633643031103 357.33585239946842 3.6788179725408554 27.100625731050968 27.468507528305054 4.6598360985517493 4.5372088328003874 2.9430543780326843 5.2729724273085594 302.03095554560423 2.6977998465299597 3.6788179725408554 3.4335634410381308 2.4525453150272369
leaf_count=945 2042 53 830 405 95 260 20 704 382 22404 93 71 95 114 44 2992 39 2914 30 221 224 38 37 24 43 2463 22 30 28 20
internal_value=-1.78972 -2.18441 2.71231 1.58857 3.64993 0.316979 1.9166 -0.309566 1.03259 -2.58884 -1.89004 1.91626 -1.78231 0.13479 1.24982 -2.67406 0.268331 -2.08282 0.0518361 -2.15295 -1.00797 -2.37923 0.702474 2.65805 2.11516 -2.06658 4.46622 2.53207 1.80023 2.91472
internal_weight=0 4249.53 371.315 411.414 156.963 254.452 71.6143 182.837 96.5077 3838.11 417.178 20.1109 120.91 41.0801 27.1006 3420.93 21.705 397.067 12.6306 384.436 33.3546 673.592 19.1299 7.48026 10.0554 306.691 38.2597 6.37662 5.88611 6.13136
internal_count=37682 34654 3028 3355 1280 2075 584 1491 787 31299 3402 164 986 335 221 27897 177 3238 103 3135 272 5493 156 61 82 2501 312 52 48 50
is_linear=0
shrinkage=1


Tree=25
num_leaves=31
num_cat=0
split_feature=10 38 48 8 36 37 37 50 37 14 37 36 20 51 37 21 0 6 7 6 14 50 51 37 37 37 48 27 33 48
split_gain=8418.9 6452.82 3556.54 1045.68 725.039 254.871 550.814 404.25 655.436 230.126 262.095 143.706 118.936 112.687 116.733 83.9416 77.2841 63.6835 85.9712 54.4325 54.1834 53.8566 47.1237 45.389 34.6765 71.5825 30.3602 28.5322 27.0693 26.809
threshold=1.5533166730361787 3.5000000000000004 10.500000000000002 -0.66309693963793515 1.0000000180025095e-35 3.5000000000000004 4.5000000000000009 20.500000000000004 1.0000000180025095e-35 -1.1040471977610926 4.5000000000000009 1.0000000180025095e-35 0.99016561130741865 14.500000000000002 3.5000000000000004 1.0000000180025095e-35 -0.59628151992192191 -1.1961339953951045 -1.2079337783711881 -0.12024106978388253 -1.1636087354228659 33.500000000000007 11.500000000000002 4.5000000000000009 1.5000000000000002 1.0000000180025095e-35 1.5000000000000002 -0.51381404240137341 -0.59015412648633014 13.500000000000002
decision_type=2 2 2 2 2 2 2 2 2 2 2 2 2 2 2 2 2 2 2 2 2 2 2 2 2 2 2 2 2 2
left_child=1 3 -2 4 -1 7 29 8 28 10 17 -12 -4 14 19 -11 -8 18 -3 -6 27 -14 -10 -23 25 -21 -18 -19 -5 -7
right_child=2 9 12 5 13 6 16 -9 22 15 11 -13 21 -15 -16 -17 26 20 -20 24 -22 23 -24 -25 -26 -27 -28 -29 -30 -31
leaf_value=4.8561448368863669 4.8938405293098608 -2.7936326172270904 -2.2476160170313322 0.14439012430549125 2.3044285342445741 4.9402058155338455 4.3825855567743055 -1.8770797838639159 3.9916023125494475 -2.7566018940436567 4.0985421918687326 -1.3487410578650936 -0.84252279382435424 -2.2597375976772587 5.1980648947290096 -2.3618907227633201 0.90606837917793337 -2.6328042194934218 2.187064262280872 -2.113129169692475 -0.74328456751240579 4.7183711665203596 -0.51029047095391911 -0.1447307677328451 -2.3481618147025802 4.809741400464862 -1.8618719662677341 -2.0348822766953223 -1.7987970985983608 2.6888977010222281
leaf_weight=116.9864115267992 253.10267651081085 6.1313632875680923 95.894521817564964 8.7065358683466894 7.6028904765844372 31.024698235094547 2.4525453150272361 87.065358683466911 44.758951999247074 2738.26684422791 10.913826651871206 8.7065358683466894 13.243744701147081 14.347390092909334 5.7634814903140059 670.7711436599493 4.6598360985517528 123.48565661162138 7.9707722738385183 3.5561907067894962 25.751725807785988 4.1693270355463019 2.4525453150272361 3.5561907067894936 8.216026805341242 2.5751725807785988 26.487489402294159 225.6341689825058 40.589624963700771 6.3766178190708152
leaf_count=954 2064 50 782 71 62 253 20 710 365 22330 89 71 108 117 47 5470 38 1007 65 29 210 34 20 29 67 21 216 1840 331 52
internal_value=-1.78972 -2.18745 2.78704 1.56431 3.57591 0.307546 1.91643 -0.314728 1.09476 -2.59394 -1.88476 1.68131 -1.77587 0.015135 1.19283 -2.67894 -1.0222 -2.06464 0.0215439 0.141182 -2.14312 0.381491 3.75774 2.4798 -1.00515 0.794476 -1.44777 -2.24637 -1.4556 4.55638
internal_weight=0 4231.25 369.966 413.622 159.048 254.574 71.0012 183.573 96.5077 3817.63 408.594 19.6204 116.864 42.0612 27.7138 3409.04 33.5999 388.974 14.1021 21.9503 374.872 20.9693 47.2115 7.72552 14.3474 6.13136 31.1473 349.12 49.2962 37.4013
internal_count=37522 34505 3017 3373 1297 2076 579 1497 787 31132 3332 160 953 343 226 27800 274 3172 115 179 3057 171 385 63 117 50 254 2847 402 305
is_linear=0
shrinkage=1


Tree=26
num_leaves=31
num_cat=0
split_feature=1 38 48 8 36 37 37 42 37 14 37 36 9 0 51 37 9 14 7 40 40 51 9 14 42 48 51 37 51 14
split_gain=8247.65 6252 3445.87 1016.79 709.204 239.483 525.583 364.033 628.057 204.268 247.195 157.344 119.774 103.146 97.6766 125.185 79.1894 68.9932 110.656 62.708 58.9458 47.6778 45.08 43.8309 41.7068 40.7585 39.9223 50.1149 48.3774 38.1033
threshold=1.5752150289127298 3.5000000000000004 10.500000000000002 -0.66309693963793515 1.0000000180025095e-35 3.5000000000000004 4.5000000000000009 0.20500000000000004 1.0000000180025095e-35 -1.1040471977610926 4.5000000000000009 1.0000000180025095e-35 1.2076642291503952 -0.61027759628814848 14.500000000000002 3.5000000000000004 0.14410195879834964 -2.5356937126209957 -1.2079337783711881 76.500000000000014 377.50000000000006 11.500000000000002 1.490897182495422 -1.1636087354228659 0.115 1.5000000000000002 11.500000000000002 3.5000000000000004 14.500000000000002 0.32403327745544069
decision_type=2 2 2 2 2 2 2 2 2 2 2 2 2 2 2 2 2 2 2 2 2 2 2 2 2 2 2 2 2 2
left_child=1 3 -2 4 -1 7 -7 8 -5 10 17 -12 -4 -8 15 20 -11 18 -3 -18 -6 -10 -21 -19 -14 -15 -26 -28 -29 -22
right_child=2 9 12 5 14 6 13 -9 21 16 11 -13 24 25 -16 -17 19 23 -20 22 29 -23 -24 -25 26 -27 27 28 -30 -31
leaf_value=4.836609188176114 4.8415930819688491 -2.6546991003903631 -2.1854680769163566 -1.4328529542966146 -1.2435365983585691 4.4011795481934683 5.1980648947290096 -1.791758002025597 4.0262617404832479 -2.7908899022069846 4.0860476156998651 -1.5432309656965442 -2.4470538985963408 1.2308681154899062 -2.3171368472064988 5.1980648947290096 -2.6819160473393469 -2.2748334935193752 3.2409144836377206 -2.2760863773643201 3.94348129787562 -0.51029047095391911 -0.60089928628221956 -0.91803013993127103 4.5184987797667482 -2.0128866584815683 -1.4740387794458421 4.9168651230204894 -0.44756129111124987 -0.16079932611618908
leaf_weight=113.43022082000971 249.66911306977272 6.6218723505735397 97.243421740829945 48.560397237539291 14.592644624412065 37.646570585668087 2.4525453150272361 87.555867746472359 41.81589762121439 2194.9054296836257 10.791199386119844 9.1970449313521367 3.9240725040435818 4.537208832800391 12.507981106638907 5.7634814903140059 658.63104435056448 357.82636146247387 6.1313632875680906 542.13514188677073 4.7824633643031103 2.4525453150272361 16.554680876433849 25.506471276283264 2.943054378032687 26.487489402294159 6.7444996163248998 3.5561907067894936 3.188308909535408 4.2919543012976646
leaf_count=925 2036 54 793 396 119 307 20 714 341 17899 88 75 32 37 102 47 5371 2918 50 4421 39 20 135 208 24 216 55 29 26 35
internal_value=-1.78972 -2.20068 2.73937 1.5262 3.5375 0.283718 1.83773 -0.329011 1.05065 -2.59678 -1.93528 1.49589 -1.72373 -1.04498 0.0238247 1.01873 -2.67744 -2.10843 0.179731 -2.47288 0.000968596 3.77493 -2.22645 -2.18455 0.48204 -1.5385 1.18152 0.453458 2.38095 2.00227
internal_weight=0 4235.18 367.269 406.877 155.369 251.509 71.1238 180.385 92.8288 3828.3 416.074 19.9882 117.6 33.4772 41.9385 29.4305 3412.23 396.086 12.7532 1217.32 23.6671 44.2684 558.69 383.333 20.3561 31.0247 16.4321 13.489 6.7445 9.07442
internal_count=37532 34537 2995 3318 1267 2051 580 1471 757 31219 3393 163 959 273 342 240 27826 3230 104 9927 193 361 4556 3126 166 253 134 110 55 74
is_linear=0
shrinkage=1


Tree=27
num_leaves=31
num_cat=0
split_feature=1 38 48 8 36 37 37 37 37 14 37 36 20 1 36 0 9 14 1 4 40 14 48 42 42 40 14 9 1 20
split_gain=8364.33 6339.92 3378.1 1083.15 686.267 246.815 532.493 350.338 623.641 224.455 249.103 156.106 129.325 107.113 77.6604 77.6001 77.0953 71.7731 101.871 70.7059 58.6744 48.9899 47.506 46.2424 49.1987 42.3267 39.9919 41.3265 38.6985 32.0367
threshold=1.5314598132473829 3.5000000000000004 10.500000000000002 -0.66309693963793515 1.0000000180025095e-35 3.5000000000000004 4.5000000000000009 1.5000000000000002 1.0000000180025095e-35 -1.1040471977610926 4.5000000000000009 1.0000000180025095e-35 0.99016561130741865 1.5752150289127298 1.5000000000000002 -0.59628151992192191 0.15068866296214728 -2.5356937126209957 0.057387799393282063 -0.2751155263456308 76.500000000000014 -1.1636087354228659 1.5000000000000002 0.33500000000000008 0.52500000000000013 246.50000000000003 0.93411713595279167 0.96372665652284228 1.3510219930456473 0.98104706056683355
decision_type=2 2 2 2 2 2 2 2 2 2 2 2 2 2 2 2 2 2 2 2 2 2 2 2 2 2 2 2 2 2
left_child=1 3 13 4 -1 7 -7 8 -5 10 17 -12 -4 29 19 -8 -11 18 -3 25 -18 -19 -17 -14 -25 -6 27 -22 -9 -2
right_child=2 9 12 5 14 6 15 28 -10 16 11 -13 23 -15 -16 22 20 21 -20 -21 26 -23 -24 24 -26 -27 -28 -29 -30 -31
leaf_value=4.860446060543941 -0.23846402496901731 -2.7755108541614306 -2.1776725416106837 -1.4390870370115101 -1.7777222130762904 4.5093154538888882 4.3825855567743055 -1.9109408612161773 3.7402247374915496 -2.7943022296439644 3.9704615902810665 -1.6752609537463534 -0.53793383834221431 4.8161165809597861 -2.4202289203741469 1.4343141041688345 -2.6814283840780302 -2.250498588038595 3.1193920724915283 2.6033579103276785 -2.2435589779839216 -0.82094926636523491 -1.9950783221355972 4.3825855567743055 -1.0151110134973074 1.2371652532347328 -2.6778739989452802 -1.4689541096743324 1.5737122815969915 4.0330944119365739
leaf_weight=115.51488433778286 5.5182269588112813 5.5182269588112813 98.837576195597649 49.418788097798824 10.178063057363035 36.297670662403107 2.4525453150272361 85.103322431445122 43.900561138987541 2210.2338379025459 11.404335714876654 8.5839086025953275 14.4700173586607 253.96106737107038 9.3196721971034986 4.7824633643031147 642.93475433439016 346.91253481060266 6.2539905533194542 13.488999232649801 300.06891929358244 25.751725807785988 25.996980339288712 4.905090630054473 2.5751725807785988 8.5839086025953275 147.03009163588285 89.395276732742786 3.310936175286769 2.5751725807785988
leaf_count=942 45 45 806 403 83 296 20 694 358 18024 93 70 118 2071 76 39 5243 2829 51 110 2447 210 212 40 21 70 1199 729 27 21
internal_value=-1.78972 -2.19717 2.68528 1.54677 3.60658 0.259022 1.86136 -0.354018 0.997435 -2.60012 -1.89596 1.54592 -1.69004 4.70198 0.122368 -1.03087 -2.68414 -2.07492 0.356156 0.85711 -2.47768 -2.15171 -1.46222 0.505642 2.52436 -0.398362 -2.23351 -2.06576 -1.78045 1.12067
internal_weight=0 4202.44 382.842 408.349 157.086 251.263 69.5297 181.734 93.3193 3794.09 404.425 19.9882 120.788 262.054 41.5706 33.232 3389.66 384.436 11.7722 32.251 1179.43 372.664 30.7794 21.9503 7.48026 18.762 536.494 389.464 88.4143 8.0934
internal_count=37392 34270 3122 3330 1281 2049 567 1482 761 30940 3298 163 985 2137 339 271 27642 3135 96 263 9618 3039 251 179 61 153 4375 3176 721 66
is_linear=0
shrinkage=1


Tree=28
num_leaves=31
num_cat=0
split_feature=10 38 48 2 36 37 37 42 37 14 37 36 51 37 21 40 9 0 14 10 40 27 2 14 14 37 37 9 48 48
split_gain=8295.98 6485.15 3520.27 931.231 679.204 243.385 512.114 403.666 708.824 204.163 257.219 127.658 103.869 120.659 97.8455 82.6016 79.7433 78.0025 68.3178 101.977 60.4508 59.5978 129.328 59.5032 49.3047 43.0215 42.0018 41.6781 34.4653 34.3589
threshold=1.5533166730361787 3.5000000000000004 10.500000000000002 -0.56678628267000886 1.0000000180025095e-35 3.5000000000000004 4.5000000000000009 0.20500000000000004 1.0000000180025095e-35 -1.1040471977610926 4.5000000000000009 1.0000000180025095e-35 14.500000000000002 3.5000000000000004 3.0370677020790411 237.00000000000003 0.14410195879834964 -0.58875742476864135 -2.5356937126209957 0.1160101461373705 76.500000000000014 2.5247586429819404 -0.78883381738022273 -1.1636087354228659 0.93411713595279167 3.5000000000000004 4.5000000000000009 1.4970819565142135 13.500000000000002 1.5000000000000002
decision_type=2 2 2 2 2 2 2 2 2 2 2 2 2 2 2 2 2 2 2 2 2 2 2 2 2 2 2 2 2 2
left_child=1 3 -2 4 21 7 28 8 -5 10 18 -12 13 15 -4 -6 -11 -8 19 -3 -18 -1 -23 -20 27 -16 -27 -22 -7 -19
right_child=2 9 14 5 12 6 17 -9 -10 16 11 -13 -14 -15 25 -17 20 29 23 -21 24 22 -24 -25 -26 26 -28 -29 -30 -31
leaf_value=4.8385728431944539 4.8677340745716631 -2.5275288332629238 -2.1513167930109161 -1.5500266268461667 -1.5352507397593729 4.9339420322335599 4.3825855567742966 -1.9075737810166575 3.9036532471818606 -2.7926389640178 3.9653635699137575 -1.1693765112186798 -2.0506403315350266 5.1980648947290096 -0.7709075789600619 2.0874736056234373 -2.6796755829928376 0.91679837046681101 -2.296206943139067 3.0025436002355748 -2.0975404534048057 4.6883903085073175 -0.76120719032459716 -0.74969724906906143 -2.7159245302743438 4.6544120027592069 -0.47483484756458449 0.16128074853819019 2.1637231721068551 -1.9899230841500832
leaf_weight=105.70470307767391 251.26326752454042 6.9897541478276235 99.328085258603096 49.050906300544739 13.366371966898447 30.288934640586376 2.4525453150272396 83.877049773931503 46.353106454014778 2193.9244115576148 10.545944854617121 8.951790399849413 15.451035484671591 5.8861087560653678 11.894844777882101 11.894844777882097 656.91426263004541 4.9050906300544765 358.80737958848476 6.376617819070816 400.37802267819643 13.734253764152529 6.3766178190708152 26.732743933796883 153.65196398645639 3.6788179725408545 2.8204271122813225 8.3386540710926038 5.2729724273085585 23.789689555764198
leaf_count=862 2049 57 810 400 109 247 20 684 378 17891 86 73 126 48 97 97 5357 40 2926 52 3265 112 52 218 1253 30 23 68 43 194
internal_value=-1.78972 -2.18967 2.75352 1.54848 3.33047 0.299498 1.93015 -0.307257 1.0997 -2.59787 -1.93857 1.6079 0.0691291 1.12067 -1.75899 0.170595 -2.67869 -1.0304 -2.11192 0.110671 -2.47366 4.53837 2.96047 -2.18897 -2.233 0.359554 2.42851 -2.05146 4.52319 -1.49305
internal_weight=0 4250.02 368.985 418.404 172.414 245.99 66.7092 179.281 95.404 3831.61 418.404 19.4977 46.5984 31.1473 117.722 25.2612 3413.21 31.1473 398.906 13.3664 1219.28 125.816 20.1109 385.54 562.369 18.3941 6.49925 408.717 35.5619 28.6948
internal_count=37667 34658 3009 3412 1406 2006 544 1462 778 31246 3412 159 380 254 960 206 27834 254 3253 109 9943 1026 164 3144 4586 150 53 3333 290 234
is_linear=0
shrinkage=1


Tree=29
num_leaves=31
num_cat=0
split_feature=10 38 36 8 36 42 42 42 42 6 42 36 21 0 51 42 40 21 6 10 40 42 51 42 27 48 6 48 40 33
split_gain=8346.02 6407.84 3528.03 1056.95 676.098 238.068 555.82 405.079 671.141 203.375 230.83 148.973 125.399 105.346 94.7342 113.183 87.0572 76.2362 59.1586 98.8232 58.4777 52.0692 54.4291 49.0798 35.8779 35.7245 30.3657 29.0267 27.835 26.1526
