tree
version=v4
num_class=1
num_tree_per_iteration=1
label_index=0
max_feature_idx=16
objective=binary sigmoid:1
average_output
feature_names=Column_0 Column_1 Column_2 Column_3 Column_4 Column_5 Column_6 Column_7 Column_8 Column_9 Column_10 Column_11 Column_12 Column_13 Column_14 Column_15 Column_16
feature_infos=[-1.2760900520082126:15.798838709001366] [-1.7054234517467617:31.705399903226265] [-1.2882189159935824:41.083930348803008] [-0.97982564792774718:14.821312213018025] [-1.1159255070654956:21.789678082857854] [-1.8875809455251713:19.869853026967405] [-1.5722418948165917:47.607737950131309] [-1.5664773797924951:4.662160982393516] [-1.2266947302931035:29.703735827282227] [-1.7683196423907916:4.1286221982487747] [-1.7340317224577881:7.3278782415406605] [-0.98424496133922579:6.0063855246415851] [0:3] [0:5] [0:6] [0:1] [0:3898]
tree_sizes=3353 3344 3337 3352 3331 3342 3343 3340 3358 3357 3342 3345 3330 3349 3345 3346 3354 3347 3349 3344 3347 3342 3341 3354 3326 3352 3332 3341 3377 3329 3333 3346 3344 3351 3364 3343 3364 3344 3357 3357 3351 3341 3330 3347 3359 3345 3350 3329 3347 3347 3330 3358 3337 3332 3350 3340 3349 3338 3335 3347 3358 3355 3364 3332 3344 3348 3358 3345 3350 3347 3340 3359 3358 3322 3349 3350 3360 3353 3347 3362 3347 3346 3340 3352 3366 3332 3340 3355 3347 3349 3340 3355 3336 3336 3327 3357 3336 3343 3358 3350

Tree=0
num_leaves=31
num_cat=0
split_feature=1 14 12 8 12 13 13 13 13 6 13 10 12 9 6 10 12 14 6 9 12 16 16 12 6 6 6 6 13 13
split_gain=24808.6 19027.4 10363.7 2901.89 2142.01 799.968 1611.65 1010.44 1788.73 651.884 758.238 563.126 452.061 432.139 292.327 328.328 283.696 249.978 218.097 210.771 205.945 157.834 154.974 131.561 117.082 107.889 106.014 99.6326 96.3055 93.9357
threshold=1.5255187812111439 2.5000000000000004 1.0000000180025095e-35 -0.44554041772281855 1.0000000180025095e-35 3.5000000000000004 4.5000000000000009 1.5000000000000002 1.0000000180025095e-35 -0.76973661976749852 4.5000000000000009 1.5474715070953717 1.0000000180025095e-35 1.0871694245349934 -1.1460831757535213 -0.085529806112141629 1.5000000000000002 2.5000000000000004 -0.48050721600648671 0.14408795678493572 1.5000000000000002 76.500000000000014 159.50000000000003 1.0000000180025095e-35 -0.2118227554794459 -0.79415110658630239 0.41040304000100708 -0.11212469405717417 4.5000000000000009 1.0000000180025095e-35
decision_type=2 2 2 2 2 2 2 2 2 2 2 2 2 2 2 2 2 2 2 2 2 2 2 2 2 2 2 2 2 2
left_child=1 9 11 4 -3 7 16 8 -5 10 14 17 -12 -4 15 -1 -7 -2 -8 -11 22 -21 24 -17 -6 -16 28 -9 -23 -15
right_child=2 3 13 5 20 6 18 27 -10 19 12 -13 -14 29 25 23 -18 -19 -20 21 -22 26 -24 -25 -26 -27 -28 -29 -30 -31
leaf_value=-2.3225608581978223 -1.4088609930664728 4.8052095474067773 -2.2552628511343236 -1.347364241315564 1.9198246768202503 4.923425338708876 2.7037839326734692 -1.0480607600675986 3.7825400330118479 -2.7890245915352554 3.8019803780315207 4.857794443969004 -1.6409389218915287 -1.5424043973394004 -2.2958951412188213 3.5418474188602187 -2.9605977328575328 4.4208851380457901 -1.5106434949860243 -2.6826146194447698 -2.3060469626183946 -2.1892907297672499 2.0585415767493025 -2.4930614684010055 -1.5066739836329666 -1.1398723636248818 -2.6250231924372467 -2.2964378407755057 -1.2253093706116736 1.0601138117981161
leaf_weight=26.644228458404541 21.266494274139404 343.68610286712646 297.73091983795166 146.90992021560669 13.933220386505125 107.43246245384216 14.299884080886839 116.59905481338501 126.49897456169128 6545.3136084079742 35.933042049407959 756.54942274093628 26.52200722694397 18.333184719085693 992.92528438568115 23.222033977508548 4.7666280269622794 11.244353294372557 86.899295568466187 1960.550773859024 30.555307865142822 1028.1249990463257 43.63297963142395 4.2777431011199942 35.07749342918396 87.877065420150757 554.2732846736908 141.53218603134155 115.25462126731873 56.955093860626221
leaf_count=218 174 2812 2436 1202 114 879 117 954 1035 53553 294 6190 217 150 8124 190 39 92 711 16041 250 8412 357 35 287 719 4535 1158 943 466
internal_value=-1.79436 -2.19922 2.62938 1.56811 3.5228 0.343031 1.97852 -0.313573 1.02611 -2.59966 -1.90164 4.68267 1.4906 -1.71401 -2.08831 0.179177 4.58848 0.607442 -0.915127 -2.68158 -0.05473 -2.48933 0.687789 2.60308 -0.532557 -2.2019 -2.26611 -1.73254 -2.09212 0.426384
internal_weight=0 12612.7 1162.08 1211.82 466.885 744.938 213.398 531.54 273.409 11400.9 1197.4 789.06 62.455 373.019 1134.95 54.144 112.199 32.5108 101.199 10203.5 123.199 3658.2 92.6437 27.4998 49.0107 1080.8 1697.65 258.131 1143.38 75.2883
internal_count=112704 103196 9508 9915 3820 6095 1746 4349 2237 93281 9797 6456 511 3052 9286 443 918 266 828 83484 1008 29931 758 225 401 8843 13890 2112 9355 616
is_linear=0
shrinkage=1


Tree=1
num_leaves=31
num_cat=0
split_feature=1 14 12 8 12 13 13 13 13 10 5 13 12 9 0 0 12 14 4 5 12 16 9 0 16 16 7 5 13 13
split_gain=24859.2 19047.4 10232.4 2947.14 2114.88 794.31 1456.92 965.471 1796.7 557.661 441.482 427.382 528.728 422.672 415.084 349.034 312.382 269.93 212.829 181.678 179.141 174.896 162.259 148.186 132.574 154.595 129.925 125.887 111.07 115.945
threshold=1.5255187812111439 2.5000000000000004 1.0000000180025095e-35 -0.44554041772281855 1.0000000180025095e-35 3.5000000000000004 4.5000000000000009 1.5000000000000002 1.0000000180025095e-35 1.5474715070953717 0.29398469519787096 4.5000000000000009 1.0000000180025095e-35 1.226465520471274 0.72704153953074424 -0.61651525856165856 1.5000000000000002 2.5000000000000004 3.2638801891247469 1.3682531628978412 1.5000000000000002 159.50000000000003 0.10411278407721392 -0.59595347865824688 156.50000000000003 157.50000000000003 -0.71925246725477554 -0.040168868936400794 1.0000000180025095e-35 1.5000000000000002
decision_type=2 2 2 2 2 2 2 2 2 2 2 2 2 2 2 2 2 2 2 2 2 2 2 2 2 2 2 2 2 2
left_child=1 10 9 4 -3 7 16 8 -5 17 24 18 14 -4 -13 -8 -7 -2 22 -16 21 -6 -12 -14 -1 -26 -20 -17 -15 -30
right_child=2 3 13 5 20 6 15 -9 -10 -11 11 12 23 28 19 27 -18 -19 26 -21 -22 -23 -24 -25 25 -27 -28 -29 29 -31
leaf_value=-2.8024212558304611 -1.426494365109553 4.8007362850436248 -2.1976567225305628 -1.3945877745493083 -0.76184837546507955 4.8523926749102131 5.2212868951316924 -1.6980085946734542 3.7802504635876013 4.8622573405149048 -2.612039252210328 2.9627458259471662 4.3121886031328884 -1.7917570717162148 -2.0875307756025849 -2.0251009423614867 -2.9605977328575328 4.4774792016781255 2.7512839885689062 3.1138317636799218 -2.3312219922429769 1.970064319272816 -2.1173200156627319 -2.4812889725333949 0.28128108200612223 -2.5501984155664901 -2.544569700925877 0.47163353057862523 4.0061555147372534 0.46437722769609646
leaf_weight=5936.4074332714081 21.510936737060547 344.78609395027161 304.08642387390137 144.95438051223755 47.299616575241089 105.72136521339417 9.0443711280822736 260.57566547393799 124.91009855270386 752.02723717689514 1569.3206119537354 46.932952880859375 3.2999732494354239 14.544326543807982 40.088563919067383 67.34389853477478 5.3777341842651358 12.099901914596556 12.955450534820558 8.0666012763977033 27.010892152786255 46.44406795501709 1147.9018058776855 118.92125821113586 19.433175802230835 2490.25759100914 7.2110526561737052 28.844210624694824 12.344344377517698 36.788590669631958
leaf_count=48571 176 2821 2488 1186 387 865 74 2132 1022 6153 12840 384 27 119 328 551 44 99 106 66 221 380 9392 973 159 20375 59 236 101 301
internal_value=-1.79436 -2.20385 2.6463 1.56464 3.53937 0.333582 1.94853 -0.325051 1.00065 4.68414 -2.60457 -2.27186 -0.922029 -1.70708 0.846397 -0.717944 4.47421 0.698936 -2.37902 -1.21624 -0.0621568 0.591642 -2.40304 -2.29787 -2.72096 -2.52827 0.857615 -1.2764 0.635662 1.35423
internal_weight=0 12613.1 1153.4 1212.31 465.541 746.772 216.332 530.44 269.864 785.638 11400.8 2954.7 217.309 367.764 95.0881 105.232 111.099 33.6108 2737.39 48.1552 120.755 93.7437 2717.22 122.221 8446.1 2509.69 20.1665 96.1881 63.6773 49.1329
internal_count=112636 103199 9437 9919 3809 6110 1770 4340 2208 6428 93280 24175 1778 3009 778 861 909 275 22397 394 988 767 22232 1000 69105 20534 165 787 521 402
is_linear=0
shrinkage=1


Tree=2
num_leaves=31
num_cat=0
split_feature=1 9 12 8 12 6 13 13 13 13 13 12 9 1 9 9 9 0 6 1 9 9 9 12 9 9 9 9 16 12
split_gain=24607.7 14761.3 10472.3 2321.84 1997.03 727.357 798.935 652.977 1033.52 693.985 1592.76 478.66 413.85 406.051 362.851 566.785 318.763 307.302 265.12 303.523 205.638 200.464 179.452 167.027 164.727 192.548 164.058 226.069 153.161 139.615
threshold=1.5255187812111439 1.226465520471274 1.0000000180025095e-35 -0.65998021448485111 1.0000000180025095e-35 -0.75710579596954786 4.5000000000000009 3.5000000000000004 4.5000000000000009 1.5000000000000002 1.0000000180025095e-35 1.0000000180025095e-35 1.226465520471274 1.5840079809350693 1.3521377975449624 1.3011631654880376 1.0871694245349934 -0.61651525856165856 -1.1460831757535213 -0.037508731802681515 1.1487230198525402 1.5196995235263471 0.14408795678493572 1.5000000000000002 1.3685980566179439 1.3011631654880376 1.3011631654880376 1.3521377975449624 76.500000000000014 1.5000000000000002
decision_type=2 2 2 2 2 2 2 2 2 2 2 2 2 2 2 2 2 2 2 2 2 2 2 2 2 2 2 2 2 2
left_child=1 5 13 4 14 6 18 9 21 10 -5 -8 -4 -2 15 -3 22 -10 19 -1 -18 26 -7 -23 25 -12 -9 -28 -24 -6
right_child=2 3 12 7 29 16 11 8 17 -11 24 -13 -14 -15 -16 -17 20 -19 -20 -21 -22 23 28 -25 -26 -27 27 -29 -30 -31
leaf_value=-2.3251115481593403 1.0973531108629295 4.6063086387795611 -2.1929463213182778 -1.6268384578839465 -0.061052654166614317 -2.78863469987754 3.9816074060424156 4.6226124101568704 4.9695365988858686 -1.7411494827242509 3.7914429795607574 -1.5084017599243802 0.55235823585710708 4.830036838607489 4.3414775439211351 -0.92192216109942016 -0.55798081828926827 -1.4991793464745515 -2.1388915377193798 2.5063888140261761 -2.2473288254681458 4.5897520610673439 -2.7022904044285121 -2.9605977328575328 3.3704165881658423 -1.2808730741312679 -2.0255252039444782 2.6945284070761963 -2.2611101869413552 -2.4171515214043735
leaf_weight=25.177573680877686 30.31086540222168 37.399696826934814 312.64191007614136 178.44299793243408 104.49915289878845 6524.6582202911377 36.299705743789673 15.033211469650267 7.9443800449371329 293.57539796829224 12.588786840438845 28.233104467391968 66.610571146011353 756.54942274093628 292.10874319076538 36.788590669631958 107.79912614822388 97.165879011154175 1108.6687905788422 26.888670921325684 217.30934953689575 71.254977941513062 1703.3973028659821 3.0555307865142813 115.62128496170044 18.455405950546265 17.11097240447998 24.933131217956543 1462.499255657196 33.121953725814819
leaf_count=206 248 306 2558 1460 855 53384 297 123 65 2402 103 231 545 6190 2390 301 882 795 9071 220 1778 583 13937 25 946 151 140 204 11966 271
internal_value=-1.79436 -2.19584 2.60576 0.916968 2.61967 -2.5722 -1.84492 -0.0863556 1.32696 -0.626611 0.379826 1.57973 -1.71077 4.68625 3.83989 1.86496 -2.66117 -1.01026 -2.03532 0.170029 -1.68718 3.19675 -2.69384 4.27929 2.82127 0.776011 1.78735 0.773576 -2.49849 -0.628107
internal_weight=0 12600 1166.11 1359.1 503.918 11240.9 1225.27 855.182 236.498 618.684 325.108 64.5328 379.252 786.86 366.297 74.1883 10015.7 105.11 1160.74 52.0662 325.108 131.388 9690.55 74.3105 146.665 31.0442 57.0773 42.0441 3165.9 137.621
internal_count=112633 103092 9541 11120 4123 91972 10025 6997 1935 5062 2660 528 3103 6438 2997 607 81947 860 9497 426 2660 1075 79287 608 1200 254 467 344 25903 1126
is_linear=0
shrinkage=1


Tree=3
num_leaves=31
num_cat=0
split_feature=1 14 12 8 12 13 13 13 13 6 13 10 14 12 0 6 10 12 14 9 16 12 16 6 6 6 12 16 13 13
split_gain=24617.1 18664.6 10434.1 2786.51 2346.25 749.227 1603.78 926.907 1910.31 672.419 710.824 628.208 439.667 418.574 341.225 294.235 329.169 288.348 264.972 203.801 183.678 172.295 158.902 141.651 124.632 119.643 103.875 110.532 101.144 136.039
threshold=1.5255187812111439 2.5000000000000004 1.0000000180025095e-35 -0.65998021448485111 1.0000000180025095e-35 3.5000000000000004 4.5000000000000009 1.5000000000000002 1.0000000180025095e-35 -0.76973661976749852 4.5000000000000009 1.5474715070953717 2.5000000000000004 1.0000000180025095e-35 -0.61651525856165856 -1.1460831757535213 -0.085529806112141629 1.5000000000000002 2.5000000000000004 0.14408795678493572 76.500000000000014 1.5000000000000002 159.50000000000003 -0.78272564700988523 -0.47014121295181138 0.41040304000100708 1.0000000180025095e-35 198.50000000000003 1.0000000180025095e-35 1.5000000000000002
decision_type=2 2 2 2 2 2 2 2 2 2 2 2 2 2 2 2 2 2 2 2 2 2 2 2 2 2 2 2 2 2
left_child=1 9 11 4 -3 7 17 8 -5 10 15 18 -4 -12 -8 16 -1 -7 -2 -11 -21 22 -6 -17 -16 -22 27 -18 -14 -30
right_child=2 3 12 5 21 6 14 -9 -10 19 13 -13 28 -15 24 23 26 -19 -20 20 25 -23 -24 -25 -26 -27 -28 -29 29 -31
leaf_value=-2.3372160469154961 -1.5298856667610561 4.8391496333610142 -2.2080187222641841 -1.4816169294564951 -0.90452827970998129 4.8932617382249077 5.2212868951316924 -1.6774754581873927 3.7953012885392838 -2.7852031201657521 3.7739499031769195 4.879986183910372 -1.5167357396829635 -1.422123700244174 1.6639457525276811 -2.2693896342424011 -2.9605977328575293 -2.9605977328575328 4.4208851380457901 -2.6995830763002275 -2.0645407823776076 -2.4058936902819918 1.6994257954197947 -0.70239757553250648 -1.8824577379541207 -2.6326664852427339 -2.3963298274789651 4.1397734098227712 4.3508736368349652 0.43125950216331699
leaf_weight=25.666458606719971 22.366485357284546 337.5750412940979 310.93081283569336 147.39880514144897 47.177395343780518 106.69913506507874 8.3110437393188459 252.50906419754028 128.33229303359985 6568.0467574596405 33.855281114578247 750.071697473526 16.622087478637695 28.599768161773682 11.244353294372557 1030.0805387496948 2.444424629211432 4.8888492584228507 11.244353294372557 1946.2508897781372 1141.6685230731964 28.844210624694824 46.566289186477661 61.110615730285645 83.47710108757019 548.89555048942566 3.5444157123565665 21.266494274139404 11.488795757293699 38.621909141540527
leaf_count=210 183 2762 2544 1206 386 873 68 2066 1050 53739 277 6137 136 234 92 8428 20 40 92 15924 9341 236 381 500 683 4491 29 174 94 316
internal_value=-1.79436 -2.20163 2.60966 1.54472 3.47843 0.346887 1.92244 -0.29325 0.974396 -2.59658 -1.89062 4.69046 -1.70816 1.39453 -0.922406 -2.06995 0.232794 4.54917 0.460918 -2.68005 -2.49013 -0.268652 0.388961 -2.18163 -1.46147 -2.249 2.65298 3.40778 0.62085 1.3299
internal_weight=0 12614.5 1161.35 1203.02 460.163 742.861 214.62 528.24 275.731 11411.4 1206.57 783.683 377.664 62.455 103.032 1144.11 52.9218 111.588 33.6108 10204.9 3636.81 122.588 93.7437 1091.19 94.7215 1690.56 27.2553 23.7109 66.7328 50.1107
internal_count=112712 103210 9502 9843 3765 6078 1756 4322 2256 93367 9872 6412 3090 511 843 9361 433 913 275 83495 29756 1003 767 8928 775 13832 223 194 546 410
is_linear=0
shrinkage=1


Tree=4
num_leaves=31
num_cat=0
split_feature=1 14 8 3 13 13 13 13 6 13 16 6 16 1 0 14 16 6 1 6 16 16 9 16 16 16 16 16 16 16
split_gain=24400.1 19012.6 2815.72 953.082 823.623 1472.36 1040.63 1847.03 666.487 790.901 496.903 492.291 450.576 410.543 334.34 328.291 311.958 260.326 304.015 233.48 256.089 208.377 201.749 188.856 182.121 219.711 177.684 220.151 229.442 168.214
threshold=1.5255187812111439 2.5000000000000004 -0.65998021448485111 -0.7371992192049942 3.5000000000000004 4.5000000000000009 1.5000000000000002 1.0000000180025095e-35 -0.76973661976749852 4.5000000000000009 43.500000000000007 1.1849723303858168 47.500000000000007 1.6241247164701424 -0.61651525856165856 2.5000000000000004 5.5000000000000009 -1.1460831757535213 -0.037508731802681515 -0.12154135656336366 62.500000000000007 60.500000000000007 0.14408795678493572 8.5000000000000018 21.500000000000004 11.500000000000002 24.500000000000004 43.500000000000007 47.500000000000007 76.500000000000014
decision_type=2 2 2 2 2 2 2 2 2 2 2 2 2 2 2 2 2 2 2 2 2 2 2 2 2 2 2 2 2 2
left_child=1 8 11 16 6 -6 7 -4 9 17 13 19 -12 -5 -7 21 -2 18 -1 -3 23 -14 -10 -21 25 -15 -18 -28 -29 -24
right_child=3 2 4 10 5 14 -8 -9 22 -11 12 -13 15 24 -16 -17 26 -19 -20 20 -22 -23 29 -25 -26 -27 27 28 -30 -31
leaf_value=-2.3709123542637145 4.4361565520418171 4.2538566304017316 -1.3608257591993245 -0.20044388245152911 4.5605816099068974 5.2212868951316924 -1.7340913085479523 3.815146194193034 -2.7856528509925962 1.5292701222723095 -2.706895883927634 -0.61243353469022144 4.7781014777822755 3.8100378011869389 -1.3197861814450593 3.8981037728010901 -1.4812163794572668 -2.194036694226642 2.3067099675647147 4.83167334141792 3.5227690736250676 2.0066784169267886 -2.6920344197307555 -0.73539898465962628 4.9134166639758821 -1.1010784992236178 3.4065079738859612 -2.9021556998004665 0.93391102535028203 -2.2593955522340572
leaf_weight=27.133113384246826 24.199803829193115 302.86421155929565 147.52102637290955 20.288724422454834 110.48799324035645 8.5554862022399885 257.64235591888428 129.432284116745 6539.2025468349457 63.921704053878784 15.766538858413695 27.255334615707397 29.333095550537109 59.521739721298218 90.199268817901611 164.7542200088501 33.121953725814819 1082.757889509201 28.47754693031311 7.6999375820159903 96.554772853851318 361.16373896598816 1936.2287487983704 29.210874319076538 214.37603998184204 10.755468368530272 32.510847568511963 17.11097240447998 175.63190960884094 1677.1197381019592
leaf_count=222 198 2478 1207 166 904 70 2108 1059 53503 523 129 223 240 487 738 1348 271 8859 233 63 790 2955 15842 239 1754 88 266 140 1437 13722
internal_value=-1.79436 -2.19632 1.57634 2.59987 0.370771 2.05272 -0.287549 1.05813 -2.59749 -1.89347 3.11503 3.51071 2.56463 4.14567 -0.753109 2.71431 1.00294 -2.08566 0.0244415 3.76826 2.66632 2.21486 -2.68087 0.425944 4.45544 3.05842 0.681386 0.999381 0.59336 -2.49123
internal_weight=0 12562.3 1207.42 1158.54 743.838 209.243 534.596 276.953 11354.8 1202.29 875.96 463.585 571.018 304.942 98.7548 555.251 282.575 1138.37 55.6107 436.33 133.466 390.497 10152.6 36.9108 284.653 70.2772 258.376 225.254 192.743 3613.35
internal_count=112262 102783 9879 9479 6086 1712 4374 2266 92904 9837 7167 3793 4672 2495 808 4543 2312 9314 455 3570 1092 3195 83067 302 2329 575 2114 1843 1577 29564
is_linear=0
shrinkage=1


Tree=5
num_leaves=31
num_cat=0
split_feature=1 9 12 8 12 6 10 16 6 12 9 9 9 9 9 9 6 6 7 9 9 16 12 16 9 8 6 6 9 6
split_gain=24332 14493.8 10399.9 2469.52 1909.72 678.437 540.279 437.215 527.72 437.743 428.576 422.678 581.837 326.005 325.479 209.846 204.173 198.227 198.733 179.3 175.414 146.401 134.924 202.142 121.126 124.444 119.992 110.674 100.324 93.5298
threshold=1.5255187812111439 1.226465520471274 1.0000000180025095e-35 -0.65998021448485111 1.0000000180025095e-35 -0.76973661976749852 1.5474715070953717 156.50000000000003 -0.12154135656336366 1.5000000000000002 1.0871694245349934 1.3521377975449624 1.3011631654880376 1.0871694245349934 0.39686417798360824 1.226465520471274 1.1849723303858168 -1.1460831757535213 -1.2922758538240968 1.1487230198525402 0.14408795678493572 76.500000000000014 1.5000000000000002 183.50000000000003 1.090502709529757 -0.426597950464706 -0.78272564700988523 -0.13302311861848989 1.3685980566179439 0.41040304000100708
decision_type=2 2 2 2 2 2 2 2 2 2 2 2 2 2 2 2 2 2 2 2 2 2 2 2 2 2 2 2 2 2
left_child=1 5 6 4 11 14 15 8 28 16 -4 12 -3 20 -1 -2 -9 18 -16 24 -7 -22 23 27 -15 -26 -19 -6 -5 -23
right_child=2 3 10 7 22 13 -8 9 -10 -11 -12 -13 -14 19 17 -17 -18 26 -20 -21 21 29 -24 -25 25 -27 -28 -29 -30 -31
leaf_value=-2.2208318623419787 -1.2279633410480497 4.5418224277554238 -2.2784953772752679 -0.91956360656954816 1.0407619027284385 -2.7859210864701582 4.8405787940742346 1.2723118652685241 -1.8719837274439715 -2.5259351119956048 0.38055772616057526 4.3653985903358077 -1.1639000949544933 -2.0486042233682875 -2.2263260354738841 3.9940042009333081 -1.2209279116239433 -1.4652458617688628 3.4091916419528707 -2.1994921860678374 -2.6993245203478038 -2.0937830823470462 -2.3170787171729867 1.6781345775978966 1.568120695918791 -1.1060372171799751 0.77969238279468422 -1.9742883530451327 0.60698893346596705 -2.6284841498622296
leaf_weight=809.71565842628479 20.777609348297119 35.321935892105103 299.07535338401794 56.343987703323364 16.744308710098267 6554.9690856933594 748.60504269599915 306.40862727165222 231.48701238632202 39.110794067382812 76.021605968475342 294.43094658851624 36.177484512329102 38.377466678619385 9.5332560539245623 12.222123146057127 36.788590669631958 329.01955509185791 18.210963487625122 215.47603106498718 1710.8527979850769 993.29194808006287 32.633068799972534 42.899652242660522 33.121953725814819 36.666369438171387 25.666458606719971 44.610749483108521 182.47629857063293 487.78493475914001
leaf_count=6625 170 289 2447 461 137 53632 6125 2507 1894 320 622 2409 296 314 78 100 301 2692 149 1763 13998 8127 267 351 271 300 210 365 1493 3991
internal_value=-1.79436 -2.20327 2.5888 0.886142 2.64381 -2.57508 4.66602 -0.150421 -0.796055 0.643826 -1.73958 3.83578 1.65482 -2.65952 -1.86174 0.706099 1.00505 -1.10144 1.47276 -1.67214 -2.69231 -2.50006 -0.542559 0.0128891 -0.621596 0.163134 -1.30279 -1.15146 0.246835 -2.26988
internal_weight=0 12618.1 1156.7 1355.43 502.818 11262.7 781.605 852.615 470.307 382.308 375.097 365.93 71.4994 10070.5 1192.15 32.9997 343.197 382.43 27.7442 323.642 9746.9 3191.93 136.888 104.255 108.166 69.7883 354.686 61.3551 238.82 1481.08
internal_count=112704 103240 9464 11090 4114 92150 6395 6976 3848 3128 3069 2994 585 82396 9754 270 2808 3129 227 2648 79748 26116 1120 853 885 571 2902 502 1954 12118
is_linear=0
shrinkage=1


Tree=6
num_leaves=31
num_cat=0
split_feature=10 14 12 8 12 13 13 13 13 6 13 12 14 12 6 10 6 9 10 12 16 16 12 6 6 6 6 12 13 13
split_gain=24480.8 19517.8 10886.1 2776.65 2221.26 760.204 1570.28 1056.87 1896.76 672.196 827.641 417.882 320.859 299.463 295.92 362.303 213.937 196.888 195.456 192.618 169.963 158.192 126.246 112.266 106.268 101.612 98.0734 94.7962 91.9328 197.588
threshold=1.5474715070953717 2.5000000000000004 1.0000000180025095e-35 -0.44554041772281855 1.0000000180025095e-35 3.5000000000000004 4.5000000000000009 1.5000000000000002 1.0000000180025095e-35 -0.76973661976749852 4.5000000000000009 1.0000000180025095e-35 2.5000000000000004 1.5000000000000002 -1.1460831757535213 -0.085529806112141629 -0.63108565243177051 0.14408795678493572 1.6491002964855868 1.5000000000000002 76.500000000000014 163.50000000000003 1.0000000180025095e-35 0.47645781388688968 1.1849723303858168 -0.2118227554794459 -0.79415110658630239 1.5000000000000002 3.5000000000000004 4.5000000000000009
decision_type=2 2 2 2 2 2 2 2 2 2 2 2 2 2 2 2 2 2 2 2 2 2 2 2 2 2 2 2 2 2
left_child=1 9 18 4 24 7 13 8 -5 10 14 -12 -4 -7 15 -1 -8 -11 -2 21 -19 25 -17 -22 -3 -6 -16 -10 -14 -30
right_child=2 3 12 5 19 6 16 -9 27 17 11 -13 28 -15 26 22 -18 20 -20 -21 23 -23 -24 -25 -26 -27 -28 -29 29 -31
leaf_value=-2.41270367294754 2.2142694677510364 4.9070550942016702 -2.2534000219148864 -1.4322700221558096 1.627374955734556 4.8769772430125435 3.2647492666994862 -1.6882950993185384 3.9607724566459566 -2.7858819943448943 3.8998141201643599 -1.3242208072596875 -0.69210012572033319 -2.6048636185971317 -2.2906368672246393 3.5849099695338462 -1.3569483457716445 -2.697395613635964 4.8783014307001196 -2.4105550687910302 -2.0917855691830916 1.894586551883326 -2.464725937221822 -2.6490707077787556 1.4105461094928748 -1.6562393139027285 -1.1993746113012689 -1.1130753975051269 4.6368665645610321 -1.2333109780598075
leaf_weight=27.377555847167969 28.599768161773682 337.33059883117676 305.43085741996765 140.67663741111755 13.077671766281126 110.36577200889587 11.244353294372557 255.44237375259399 130.89893889427185 6553.5024309158325 35.566378355026245 26.888670921325684 39.233015298843384 5.6221766471862784 1004.5363013744354 23.833140134811405 91.665923595428467 1945.2731199264526 743.47175097465515 29.088653087615967 1169.4127426147461 44.488528251647949 4.0333006381988517 523.22909188270569 8.9221498966217023 33.733059883117676 89.710383892059326 3.7888581752777091 11.977680683135986 10.999910831451416
leaf_count=224 234 2760 2499 1151 107 903 92 2090 1071 53620 291 220 321 46 8219 195 750 15916 6083 238 9568 364 33 4281 73 276 734 31 98 90
internal_value=-1.79436 -2.19243 2.64695 1.6154 3.53048 0.4234 1.99148 -0.223255 1.13579 -2.5986 -1.89454 1.65072 -1.83178 4.51432 -2.08717 0.170964 -0.851965 -2.68232 4.77962 -0.16962 -2.49577 0.54436 2.7093 -2.26405 4.81696 -0.738885 -2.20117 3.81804 0.238214 1.82668
internal_weight=0 12619.7 1139.71 1216.35 466.641 749.705 218.898 530.807 275.364 11403.4 1211.95 62.455 367.641 115.988 1149.49 55.244 102.91 10191.4 772.072 120.388 3637.91 91.2993 27.8664 1692.64 346.253 46.8107 1094.25 134.688 62.2106 22.9776
internal_count=112578 103253 9325 9952 3818 6134 1791 4343 2253 93301 9916 511 3008 949 9405 452 842 83385 6317 985 29765 747 228 13849 2833 383 8953 1102 509 188
is_linear=0
shrinkage=1


Tree=7
num_leaves=31
num_cat=0
split_feature=1 14 12 8 12 10 5 9 12 5 14 9 4 9 12 4 5 10 4 7 7 5 1 7 4 4 0 7 12 0
split_gain=24349 18935.9 10445.7 2902.46 2210.63 558.853 439.553 436.22 397.697 428.357 269.723 232.844 248.346 198.461 177.092 164.859 101.547 84.8782 79.5462 137.421 78.6012 75.6997 67.2774 93.8949 89.7824 61.6577 59.8646 59.7889 54.5658 52.161
threshold=1.5255187812111439 2.5000000000000004 1.0000000180025095e-35 -0.65998021448485111 1.0000000180025095e-35 1.5474715070953717 0.6895544246475227 1.0871694245349934 1.5000000000000002 -0.66094720929657158 2.5000000000000004 0.10411278407721392 3.2638801891247469 0.14408795678493572 1.5000000000000002 0.52209863530809597 -0.71731112510299766 1.4411379916296048 1.0354216898827426 -0.89919942492779315 -0.21145466565155871 -0.23838608715659618 -0.037508731802681515 -1.078850958512463 2.2962551616728555 1.6724009334543173 -0.42183931077685982 -0.71925246725477554 1.0000000180025095e-35 -0.092237461998591466
decision_type=2 2 2 2 2 2 2 2 2 2 2 2 2 2 2 2 2 2 2 2 2 2 2 2 2 2 2 2 2 2
left_child=1 6 5 4 -3 10 13 -4 9 26 -2 28 18 -1 16 20 29 -9 -13 22 -11 -15 -20 -24 -25 -23 -5 -14 -8 -6
right_child=2 3 7 8 14 -7 11 17 -10 15 -12 12 27 21 -16 -17 -18 -19 19 -21 -22 25 23 24 -26 -27 -28 -29 -30 -31
leaf_value=-2.7901894107967107 -1.3332615637547034 4.8618378765452004 -2.2328820327719523 -0.19882378131123302 0.16776991902069982 4.8768997749795648 -2.3059906523318978 3.7858685393441083 -2.5897474381044798 1.1348155563436313 4.6184111857009071 -2.0427939852581942 3.3934190527085675 -2.6076293073325401 -2.4001946761459418 2.174518513315729 1.2328151978652686 0.12050837029516637 -1.7092506721062393 -1.660755343644881 0.25235496823325265 -2.3157800595736235 3.7713326572601837 -1.3396583254257053 4.5919111545171365 1.0394347519371996 -1.3263997379196049 -1.8448861926771838 -2.796002394693887 -2.5018004639983236
leaf_weight=6126.4614481925964 22.122042894363403 339.40835976600647 305.06419372558594 96.67699408531189 16.622087478637699 743.34952974319458 710.34979724884033 6.9666101932525626 43.144094705581665 223.66485357284546 11.611016988754271 536.06232118606567 11.488795757293699 2090.838606595993 26.766449689865112 99.121418714523315 63.432819128036499 67.832783460617065 10.388804674148558 224.64262342453003 183.94295334815979 1315.1004505157471 9.6554772853851301 12.955450534820562 3.1777520179748526 5.4999554157257071 91.788144826889038 2.6888670921325675 334.1528468132019 13.077671766281126
leaf_count=50126 181 2777 2496 791 136 6082 5812 57 353 1830 95 4386 94 17107 219 811 519 555 85 1838 1505 10760 79 106 26 45 751 22 2734 107
internal_value=-1.79436 -2.19831 2.59541 1.58415 3.55791 4.69625 -2.59591 -1.70225 0.356309 0.539143 0.715321 -2.1506 -1.7486 -2.68255 -0.133219 1.01786 0.518314 0.46189 -1.82241 -1.36946 0.736584 -2.48924 0.439307 1.30484 -0.171319 -2.30181 -0.747987 2.39995 -2.46275 -1.00772
internal_weight=0 12591.1 1156.95 1197.65 459.307 777.083 11393.5 379.864 738.338 695.194 33.7331 1855.56 811.06 9537.9 119.899 506.729 93.1326 74.7994 796.882 260.82 407.608 3411.44 36.1775 25.7887 16.1332 1320.6 188.465 14.1777 1044.5 29.6998
internal_count=112485 103019 9466 9799 3758 6358 93220 3108 6041 5688 276 15182 6636 78038 981 4146 762 612 6520 2134 3335 27912 296 211 132 10805 1542 116 8546 243
is_linear=0
shrinkage=1


Tree=8
num_leaves=31
num_cat=0
split_feature=1 14 12 8 12 13 13 13 13 6 13 10 12 14 0 12 14 6 10 9 12 12 6 6 6 13 0 13 13 13
split_gain=24467.8 18579.8 10331.9 3026.99 2146.26 772.07 1658.69 968.657 1819.57 687.523 785.376 594.871 436.61 394.736 327.082 295.492 255.364 249.423 291.041 199.354 162.405 136.722 125.783 118.791 118.193 191.283 233.729 107.833 222.019 115.757
threshold=1.5255187812111439 2.5000000000000004 1.0000000180025095e-35 -0.65998021448485111 1.0000000180025095e-35 3.5000000000000004 4.5000000000000009 1.5000000000000002 1.0000000180025095e-35 -0.76973661976749852 4.5000000000000009 1.5474715070953717 1.0000000180025095e-35 2.5000000000000004 -0.61651525856165856 1.5000000000000002 2.5000000000000004 -1.1460831757535213 -0.085529806112141629 0.14408795678493572 1.5000000000000002 1.0000000180025095e-35 -0.78272564700988523 -0.63108565243177051 -0.12154135656336366 4.5000000000000009 -0.61651525856165856 1.0000000180025095e-35 1.5000000000000002 3.5000000000000004
decision_type=2 2 2 2 2 2 2 2 2 2 2 2 2 2 2 2 2 2 2 2 2 2 2 2 2 2 2 2 2 2
left_child=1 9 11 4 -3 7 15 8 -5 10 17 16 -12 -4 -8 -7 -2 18 -1 -11 27 -20 -19 -16 25 -21 -27 -6 -29 -30
right_child=2 3 13 5 20 6 14 -9 -10 19 12 -13 -14 -15 23 -17 -18 22 21 24 -22 -23 -24 -25 -26 26 -28 28 29 -31
leaf_value=-2.3545322048583306 -1.3417221647527127 4.8416996416403464 -2.2073448623442387 -1.4148345132374185 -1.6929818045775118 4.8955008177942361 5.2212868951316924 -1.7427571570475491 3.7229743697760429 -2.7896338891335324 3.8860487787584499 4.8463505643317948 -1.3804054227308582 0.50630253323959629 2.2002833401818243 -2.9605977328575328 4.3777936345142461 -2.2652203225034908 3.2732191265628283 -2.3906704329138058 -2.2070030960690512 -2.739465715884851 -0.79812723946393083 -1.8371489420517999 -2.6538549432193683 5.2212868951316924 -1.3841097367218262 4.597244847234208 -1.0372442568749909 1.7625811205726105
leaf_weight=26.399785995483398 22.855370283126831 337.20837759971619 307.99750328063965 150.08767223358154 17.355414867401123 107.43246245384216 7.8221588134765616 259.47567439079285 127.47674441337585 6562.7912445068359 35.199714660644531 749.46059131622314 28.47754693031311 64.899473905563354 7.9443800449371329 5.011070489883422 11.855459451675413 1026.7805655002594 23.099812746047977 1444.0438497066498 27.866440773010254 4.5221855640411368 61.966164350509644 88.121507883071899 2086.4386422634125 5.6221766471862784 113.54352402687073 14.42210531234741 32.755290031433105 26.888670921325684
leaf_count=216 187 2759 2520 1228 142 879 64 2123 1043 53696 288 6132 233 531 65 41 97 8401 189 11815 228 37 507 721 17071 46 929 118 268 220
internal_value=-1.79436 -2.20629 2.59828 1.52006 3.55205 0.288794 1.88382 -0.353716 0.944802 -2.60111 -1.8872 4.65891 1.5308 -1.73506 -0.996945 4.54539 0.611774 -2.07765 0.0196815 -2.68544 -0.0935849 2.28884 -2.18172 -1.50326 -2.49809 -2.29018 -1.07247 0.550612 1.07634 0.224972
internal_weight=0 12628.8 1157.07 1209.87 456.496 753.372 216.332 537.04 277.564 11418.9 1206.45 784.171 63.6773 372.897 103.888 112.444 34.7108 1142.77 54.0218 10212.4 119.288 27.622 1088.75 96.0659 3649.65 1563.21 119.166 91.4215 74.0661 59.644
internal_count=112794 103327 9467 9899 3735 6164 1770 4394 2271 93428 9871 6416 521 3051 850 920 284 9350 442 83557 976 226 8908 786 29861 12790 975 748 606 488
is_linear=0
shrinkage=1


Tree=9
num_leaves=31
num_cat=0
split_feature=10 14 12 8 12 13 13 13 13 6 13 12 14 0 6 10 12 10 16 12 6 16 14 12 12 6 6 6 13 0
split_gain=24120.1 19042.1 10875.4 2897.67 2248.57 790.41 1588.69 1049.72 1956.87 656.346 723.283 388.388 361.236 357.869 255.983 330.065 231.775 201.953 185.677 181.503 167.753 160.911 154.674 132.787 121.891 120.798 117.269 111.278 108.628 254.621
threshold=1.5474715070953717 2.5000000000000004 1.0000000180025095e-35 -0.44554041772281855 1.0000000180025095e-35 3.5000000000000004 4.5000000000000009 1.5000000000000002 1.0000000180025095e-35 -0.76973661976749852 4.5000000000000009 1.0000000180025095e-35 2.5000000000000004 -0.61651525856165856 -1.1460831757535213 -0.085529806112141629 1.5000000000000002 1.6491002964855868 76.500000000000014 1.5000000000000002 -0.48050721600648671 47.500000000000007 1.0000000180025095e-35 1.0000000180025095e-35 1.5000000000000002 -0.79415110658630239 0.64503704177512444 1.3185264533624712 4.5000000000000009 -0.61651525856165856
decision_type=2 2 2 2 2 2 2 2 2 2 2 2 2 2 2 2 2 2 2 2 2 2 2 2 2 2 2 2 2 2
left_child=1 9 17 4 -3 7 16 8 -5 10 14 -12 -4 -8 15 -1 -7 -2 -11 21 -15 -6 -20 -17 -10 -16 28 -23 -24 -30
right_child=2 3 12 5 19 6 13 -9 24 18 11 -13 -14 20 25 23 -18 -19 22 -21 -22 27 26 -25 -26 -27 -28 -29 29 -31
leaf_value=-2.3469563857583404 2.1165538889750666 4.8262793305571314 -2.2612360076317026 -1.4638296671958451 -1.5232396225351013 4.9007983267542343 5.2212868951316924 -1.7514712510064336 3.9755488220731823 -2.8033379988821778 3.73367150822456 -1.3462348466175063 0.3865368876835138 1.980936547413187 -2.284064595577143 3.4711511458291828 -2.5060485868581313 4.8826417368256223 -2.7471038407436783 -2.3128651998083853 -1.9782741984940846 1.879632962858198 -2.3304966592085758 -2.3312219922429769 -1.2380957059124327 -1.0716107080895285 -2.7212813681745782 -1.8067422083975138 4.7399995640735018 -1.7544615815713098
leaf_weight=29.333095550537109 27.377555847167969 344.29720902442932 308.85305190086365 148.9876811504364 27.133113384246826 106.08802890777588 8.799928665161131 258.86456823348999 130.04339027404785 5481.3777885437012 33.610838651657104 27.255334615707397 61.843943119049072 12.344344377517698 1008.080717086792 22.855370283126835 4.3999643325805655 735.28292846679688 1953.2174999713898 29.333095550537109 80.421570301055908 58.055084943771362 1802.8853852748871 4.7666280269622794 4.6444067955017081 89.465941429138184 731.24962782859802 9.5332560539245588 6.2332828044891349 191.52066969871521
leaf_count=240 224 2817 2527 1219 222 868 72 2118 1064 44848 275 223 506 101 8248 187 36 6016 15981 240 658 475 14751 39 38 732 5983 78 51 1567
internal_value=-1.79436 -2.19248 2.6237 1.55718 3.51103 0.344491 1.98154 -0.295357 1.0334 -2.59537 -1.90084 1.45893 -1.8195 -0.873282 -2.07797 -0.0109054 4.60584 4.78335 -2.6784 -0.139258 -1.45142 0.533859 -2.53222 2.46986 3.79577 -2.18523 -2.37858 1.35967 -2.25332 -1.54975
internal_weight=0 12604.8 1133.36 1222.95 468.352 754.594 212.054 542.54 283.675 11381.9 1215.37 60.8662 370.697 101.566 1154.5 56.9551 110.488 762.66 10166.5 124.055 92.7659 94.7215 4685.11 27.622 134.688 1097.55 2731.89 67.5883 2000.64 197.754
internal_count=112404 103131 9273 10006 3832 6174 1735 4439 2321 93125 9944 498 3033 831 9446 466 904 6240 83181 1015 759 775 38333 226 1102 8980 22352 553 16369 1618
is_linear=0
shrinkage=1


Tree=10
num_leaves=31
num_cat=0
split_feature=1 14 12 8 12 6 10 6 16 9 12 6 10 14 9 12 16 16 12 16 6 12 6 6 9 6 6 16 16 16
split_gain=24623.2 18731 10314.7 2910.51 2254.82 661.736 618.78 538.18 444.409 398.593 294.844 287.926 326.15 285.506 220.141 189.986 183.063 173.181 167.972 155.563 141.671 141.052 115.883 110.735 104.342 103.043 101.246 118.272 138.272 91.2999
threshold=1.5255187812111439 2.5000000000000004 1.0000000180025095e-35 -0.65998021448485111 1.0000000180025095e-35 -0.76973661976749852 1.5474715070953717 -0.12154135656336366 183.50000000000003 1.090502709529757 1.5000000000000002 -1.1460831757535213 -0.085529806112141629 2.5000000000000004 0.14408795678493572 1.5000000000000002 159.50000000000003 76.500000000000014 1.5000000000000002 156.50000000000003 -0.78272564700988523 1.0000000180025095e-35 1.1895058011155493 0.41040304000100708 0.10411278407721392 -0.24066041267404795 -0.75539515759359466 28.500000000000004 40.500000000000007 572.50000000000011
decision_type=2 2 2 2 2 2 2 2 2 2 2 2 2 2 2 2 2 2 2 2 2 2 2 2 2 2 2 2 2 2
left_child=1 5 6 4 -3 11 13 10 -9 -4 19 12 -1 -2 -7 16 25 -16 22 26 24 -14 29 -19 -13 -6 -5 -28 -29 -10
right_child=2 3 9 7 15 14 -8 8 18 -11 -12 20 21 -15 17 -17 -18 23 -20 -21 -22 -23 -24 -25 -26 -27 27 28 -30 -31
leaf_value=-2.1178285007899729 -1.6119354315406274 4.828884411183747 -2.215580595999977 2.2597458334668805 1.6569015126413364 -2.7884841728809788 4.8574705387426871 -1.5457610679560112 2.202727517815279 0.37426283333609511 -2.4764625477694127 -2.3733973262572716 3.6178019680383255 4.6634311250415177 -2.684499954430501 -2.4338669628153076 1.9529201134416265 -2.069449230077292 -2.3761774022868734 2.2014527883485067 -0.57485193478964658 -2.3312219922429769 -0.77065091793104856 -2.6143509070753126 -1.7487699370682854 -1.6890886352646124 -1.1617436657109654 2.9042930181789912 0.36263561218693408 0.55386204792561466
leaf_weight=28.47754693031311 22.244264125823975 341.48612070083618 300.66422939300537 39.84412145614624 12.344344377517698 6548.0024755001068 753.12722826004028 198.60950112342834 62.943934202194214 74.066066265106201 20.655388116836548 590.93965411186218 24.32202506065369 10.755468368530272 1959.4507827758789 28.47754693031311 45.588519334793091 1138.9796559810638 17.11097240447998 144.70993804931641 65.38835883140564 4.7666280269622794 32.877511262893677 554.51772713661194 488.51826214790344 36.177484512329102 34.466387271881104 27.621998310089111 95.088118076324463 71.988305330276489
leaf_count=233 182 2794 2460 326 101 53575 6162 1625 515 606 169 4835 199 88 16032 233 373 9319 140 1184 535 39 269 4537 3997 296 282 226 778 589
internal_value=-1.79436 -2.1991 2.61373 1.54192 3.5082 -2.59606 4.67176 0.318591 -0.507075 -1.70369 1.19243 -1.89441 0.287836 0.433369 -2.67876 -0.170763 0.514047 -2.48208 0.608499 1.41419 -2.00414 2.64296 0.912836 -2.24787 -2.09072 -0.837842 0.835959 0.47503 0.934762 1.32303
internal_weight=0 12613.4 1160.86 1209.99 464.074 11403.4 786.127 745.916 383.53 374.73 362.386 1202.41 57.5662 32.9997 10201 122.588 94.1103 3652.95 184.921 341.731 1144.85 29.0887 167.81 1693.5 1079.46 48.5218 197.021 157.177 122.71 134.932
internal_count=112699 103201 9498 9900 3797 93301 6432 6103 3138 3066 2965 9838 471 270 83463 1003 770 29888 1513 2796 9367 238 1373 13856 8832 397 1612 1286 1004 1104
is_linear=0
shrinkage=1


Tree=11
num_leaves=31
num_cat=0
split_feature=1 9 12 8 12 6 10 16 6 9 9 9 12 9 9 6 10 9 9 6 9 12 16 16 6 6 9 6 9 6
split_gain=24398.6 14653 10495.6 2444.57 1968.44 708.388 559.921 473.679 521.872 429.911 417.891 589.029 413.215 351.386 326.063 324.144 328.623 236.871 222.537 190.689 179.493 154.687 191.218 146.821 138.294 114.692 114.499 103.364 88.6054 88.0862
threshold=1.5255187812111439 1.226465520471274 1.0000000180025095e-35 -0.65998021448485111 1.0000000180025095e-35 -0.75710579596954786 1.5474715070953717 156.50000000000003 -0.12154135656336366 1.3521377975449624 1.3521377975449624 1.3011631654880376 1.5000000000000002 1.090502709529757 1.1487230198525402 -1.1460831757535213 1.0000000180025095e-35 1.226465520471274 0.4926484952269245 0.56714490181863786 0.13759531072085976 1.5000000000000002 163.50000000000003 76.500000000000014 -0.12154135656336366 -0.2367560648387893 0.019001519425491293 0.47645781388688968 1.5196995235263471 -0.78272564700988523
decision_type=2 2 2 2 2 2 2 2 2 2 2 2 2 2 2 2 2 2 2 2 2 2 2 2 2 2 2 2 2 2
left_child=1 5 6 4 10 15 17 8 28 -4 11 -3 19 20 24 16 -1 -2 -17 -9 -7 22 25 -22 -15 -6 -18 -25 -5 -20
right_child=2 3 9 7 21 13 -8 12 -10 -11 -12 -13 -14 14 -16 18 26 -19 29 -21 23 -23 -24 27 -26 -27 -28 -29 -30 -31
leaf_value=-2.0151355091787777 -1.5464448341927284 4.5753486350272787 -2.2047654346599135 -0.51982799947553304 1.1952801734227085 -2.7895233836566886 4.8577363574622492 1.430495240044293 -1.8901527734852157 0.75219024959135927 4.4044712317669958 -1.0417192533291151 -2.4185801392052495 1.5997969778249859 -2.1950138095726626 -2.2443222865764545 -1.7018462516284212 4.0180685674862175 -1.4512212106685412 -0.29700609484060259 -2.6991275479279633 -2.4250561935709651 1.5632485297079382 -2.100696956138191 -1.1424011488599271 -1.977857400445419 3.6493977301485407 -2.6535512898645592 0.731486529815776 0.24740739106630016
leaf_weight=27.49977707862854 19.799839496612549 37.155254364013672 317.53075933456421 94.232569456100464 15.399875164031981 6400.7258915901184 750.92724609375 269.86447906494141 227.94259667396545 58.177306175231934 291.37541580200195 37.521918058395386 38.744130373001099 37.277475595474243 212.90938520431519 832.08214378356934 4.7666280269622829 12.46656560897827 300.78645062446594 83.721543550491333 1782.2299971580505 33.610838651657104 46.199625492095947 1052.4470241069794 36.299705743789673 43.755200862884521 24.810909986495972 498.29596066474915 141.65440726280212 33.977502346038818
leaf_count=225 162 304 2598 771 126 52370 6144 2208 1865 476 2384 307 317 305 1742 6808 39 102 2461 685 14582 275 378 8611 297 358 203 4077 1159 278
internal_value=-1.79436 -2.19655 2.59811 0.902233 2.64712 -2.57168 4.68247 -0.127014 -0.811101 -1.74689 3.86356 1.75302 0.681743 -2.65941 -1.56786 -1.8535 0.473341 0.603481 -1.96732 1.02146 -2.69153 -0.557124 0.0387938 -2.50335 0.246919 -1.15179 2.78701 -2.27834 0.231609 -1.27882
internal_weight=0 12605.3 1158.9 1361.18 505.018 11244.1 783.194 856.16 463.83 375.708 366.053 74.6772 392.33 10020.2 286.487 1223.92 57.0773 32.2664 1166.85 353.586 9733.7 138.966 105.355 3332.97 73.5772 59.1551 29.5775 1550.74 235.887 334.764
internal_count=112617 103135 9482 11137 4132 91998 6408 7005 3795 3074 2995 611 3210 81984 2344 10014 467 264 9547 2893 79640 1137 862 27270 602 484 242 12688 1930 2739
is_linear=0
shrinkage=1


Tree=12
num_leaves=31
num_cat=0
split_feature=1 9 8 3 6 13 13 13 13 13 16 16 6 9 16 0 16 6 10 9 9 16 16 2 9 9 10 9 9 9
split_gain=24470.3 14820.4 2449.99 979.864 680.803 842.189 619.66 983.852 762.048 1540.79 542.71 450.214 446.177 378.731 323.929 314.134 308.25 288.458 319.664 265.393 319.571 239.725 276.755 234.357 228.206 312.98 220.106 208.258 202.326 192.386
threshold=1.5840079809350693 1.226465520471274 -0.65998021448485111 -0.7371992192049942 -0.76973661976749852 4.5000000000000009 3.5000000000000004 4.5000000000000009 1.5000000000000002 1.0000000180025095e-35 43.500000000000007 47.500000000000007 -0.12154135656336366 1.0871694245349934 62.500000000000007 -0.61651525856165856 5.5000000000000009 -1.1460831757535213 -0.085529806112141629 1.3685980566179439 1.3011631654880376 21.500000000000004 5.5000000000000009 -0.25855169682259804 1.3521377975449624 1.3011631654880376 1.6491002964855868 1.1487230198525402 1.3685980566179439 0.14408795678493572
decision_type=2 2 2 2 2 2 2 2 2 2 2 2 2 2 2 2 2 2 2 2 2 2 2 2 2 2 2 2 2 2
left_child=1 4 12 16 5 17 8 24 9 -4 21 -12 19 26 -14 -9 -2 18 -1 20 -3 22 -5 -13 25 -8 29 -15 -11 -6
right_child=3 2 6 10 13 -7 7 15 -10 28 11 23 14 27 -16 -17 -18 -19 -20 -21 -22 -23 -24 -25 -26 -27 -28 -29 -30 -31
leaf_value=-2.3733811327626122 4.4440078554727158 4.0268511830164773 -1.5571772445843808 4.2161413634376839 -2.7888336322736742 1.6236864186317916 4.5732168255879895 4.8655527808712904 -1.7845774607755431 0.68243118909387412 -2.6409928645767033 3.3788770394343604 -0.55619611913554068 -0.45725395466510399 2.316717852195517 -1.4973387691617266 0.7226561718386475 -2.1678731090871088 2.4939920191352836 3.8438253731016681 -0.10045468238565469 4.8703708501389258 0.24581651324635256 2.0377422616863923 3.864390187024568 -1.9946807976088046 1.2352405379061722 -2.1558984488085637 3.4833048663104518 -2.4893683639691622
leaf_weight=25.544237375259399 24.444246292114258 33.488617420196533 175.99857330322266 49.744041204452515 6561.3245897293091 65.877243757247925 12.344344377517702 8.4332649707794172 298.46424722671509 33.488617420196533 15.644317626953123 302.86421155929565 57.81064248085022 108.65467476844788 122.22123146057129 97.043657779693604 248.96464848518372 1076.0357217788696 28.599768161773682 253.36461281776428 42.65520977973938 216.57602214813232 27.133113384246826 228.67592406272888 98.754755020141602 17.599857330322266 14.299884080886839 214.9871461391449 112.19909048080444 3187.4074952602386
leaf_count=209 200 274 1440 407 53684 539 101 69 2442 274 128 2478 473 889 1000 794 2037 8804 234 2073 349 1772 222 1871 808 144 117 1759 918 26079
internal_value=-1.79436 -2.18893 0.924679 2.69985 -2.5653 -1.85195 -0.110399 1.27553 -0.633743 0.434014 3.2347 2.64629 2.66015 -2.64989 1.39419 -0.988602 1.05537 -2.05455 0.197647 3.35184 1.71476 4.33188 2.81485 2.8019 3.13114 0.712901 -2.68517 -1.58562 2.83948 -2.69092
internal_weight=0 12646.6 1363.87 1114.05 11282.7 1196.06 854.326 234.176 620.151 321.686 840.638 547.184 509.54 10086.7 180.032 105.477 273.409 1130.18 54.144 329.508 76.1438 293.453 76.8772 531.54 128.699 29.9442 9763.03 323.642 145.688 9748.73
internal_count=112588 103473 11159 9115 92314 9786 6990 1916 5074 2632 6878 4477 4169 82528 1473 863 2237 9247 443 2696 623 2401 629 4349 1053 245 79880 2648 1192 79763
is_linear=0
shrinkage=1


Tree=13
num_leaves=31
num_cat=0
split_feature=1 14 12 8 12 13 13 13 13 6 13 12 1 14 0 12 6 1 16 16 12 16 6 6 3 6 14 13 13 14
split_gain=24410.1 18764.1 10440.7 2922.59 2139.27 803.548 1622.34 962.828 1820.79 640.32 803.206 440.715 436.314 407.727 326.36 291.224 262.711 305.267 178.104 307.824 163.182 141.038 131.956 123.454 113.054 105.623 105.384 105.079 100.676 98.2131
threshold=1.5255187812111439 2.5000000000000004 1.0000000180025095e-35 -0.44554041772281855 1.0000000180025095e-35 3.5000000000000004 4.5000000000000009 1.5000000000000002 1.0000000180025095e-35 -0.76973661976749852 4.5000000000000009 1.0000000180025095e-35 1.5840079809350693 2.5000000000000004 -0.61651525856165856 1.5000000000000002 -1.1460831757535213 -0.013865916334496771 156.50000000000003 157.50000000000003 1.5000000000000002 47.500000000000007 -0.48050721600648671 0.8273330272102899 0.56674231444383849 -0.79415110658630239 2.5000000000000004 1.0000000180025095e-35 4.5000000000000009 1.0000000180025095e-35
decision_type=2 2 2 2 2 2 2 2 2 2 2 2 2 2 2 2 2 2 2 2 2 2 2 2 2 2 2 2 2 2
left_child=1 9 12 4 -3 7 15 8 -5 10 16 -12 26 -4 -8 -7 17 -1 -11 28 21 -6 -16 27 -19 -18 -2 -23 -20 -21
right_child=2 3 13 5 20 6 14 -9 -10 18 11 -13 -14 -15 22 -17 25 24 19 29 -22 23 -24 -25 -26 -27 -28 -29 -30 -31
leaf_value=-2.3871011467835217 -0.011796674039081356 4.8031276736154442 -2.2138765740947086 -1.4200755225666744 -1.3899680944488868 4.9317453158307032 5.2212868951316924 -1.7255227675848734 3.7802504635876013 -2.7673525736641587 3.953670966851671 -1.3667241040284628 4.803803358486352 0.49925547643736623 1.819829240799093 -2.9605977328575328 -2.3012188326989276 -1.45780259710441 -0.29736683045835544 -2.7330982691265833 -2.2881140648036236 -1.1819271615555271 -1.8849880845694365 -1.2822624245520506 3.4547436231794726 -1.1742563450755186 4.3748850370638408 2.6820813209281398 4.7667377491322913 -2.366885762298184
leaf_weight=26.155343532562256 24.077582597732547 341.97500562667847 312.0308039188385 146.05437159538269 27.377555847167969 107.06579875946045 7.9443800449371329 256.66458606719971 124.91009855270386 7104.9646272659302 34.710829734802246 28.233104467391968 756.91608643531799 67.34389853477478 10.877689599990843 4.8888492584228507 1002.4585404396057 5.9888403415679958 36.421926975250244 1235.1677651405334 26.766449689865112 8.4332649707794172 82.743773698806763 14.299884080886839 21.510936737060547 90.688153743743896 7.0888314247131339 42.532988548278809 4.3999643325805655 1798.8520846366882
leaf_count=214 197 2798 2553 1195 224 876 65 2100 1022 58132 284 231 6193 551 89 40 8202 49 298 10106 219 69 677 117 176 742 58 348 36 14718
internal_value=-1.79436 -2.20195 2.57794 1.55486 3.53073 0.324839 1.96165 -0.337543 0.977188 -2.5986 -1.91079 1.56724 4.65282 -1.73226 -0.932357 4.5871 -2.10169 0.0586854 -2.68034 -2.47927 -0.113268 0.515084 -1.45453 1.31421 2.3849 -2.20773 0.985958 2.04271 0.248465 -2.51597
internal_weight=0 12592.1 1167.46 1202.53 461.385 741.15 213.52 527.629 270.964 11389.6 1209.75 62.9439 788.083 379.375 101.566 111.955 1146.8 53.6551 10179.8 3074.84 119.41 92.6437 93.6215 65.2661 27.4998 1093.15 31.1664 50.9663 40.8219 3034.02
internal_count=112579 103027 9552 9839 3775 6064 1747 4317 2217 93188 9898 515 6448 3104 831 916 9383 439 83290 25158 977 758 766 534 225 8944 255 417 334 24824
is_linear=0
shrinkage=1


Tree=14
num_leaves=31
num_cat=0
split_feature=1 14 12 8 12 13 13 13 13 6 13 12 14 1 0 6 1 12 12 16 16 16 12 6 13 13 13 13 12 6
split_gain=24687.8 18623.4 10263.2 2936.45 2186.48 789.245 1666.44 903.87 1866.15 665.107 782.053 435.004 410.609 355.021 305.937 290.916 300.895 274.352 183.721 176.869 278.078 164.813 137.788 129.057 111.846 116.264 173.357 164.939 109.029 105.383
threshold=1.5255187812111439 2.5000000000000004 1.0000000180025095e-35 -0.44554041772281855 1.0000000180025095e-35 3.5000000000000004 4.5000000000000009 1.5000000000000002 1.0000000180025095e-35 -0.76973661976749852 4.5000000000000009 1.0000000180025095e-35 2.5000000000000004 1.5840079809350693 -0.61651525856165856 -1.1460831757535213 -0.037508731802681515 1.5000000000000002 1.5000000000000002 156.50000000000003 157.50000000000003 163.50000000000003 1.0000000180025095e-35 -0.48050721600648671 1.0000000180025095e-35 1.5000000000000002 3.5000000000000004 4.5000000000000009 1.5000000000000002 -0.78272564700988523
decision_type=2 2 2 2 2 2 2 2 2 2 2 2 2 2 2 2 2 2 2 2 2 2 2 2 2 2 2 2 2 2
left_child=1 9 13 4 -3 7 17 8 -5 10 15 -12 -4 -2 -8 16 -1 -7 21 -11 -21 -6 -18 -16 -14 -26 -27 -28 -10 -17
right_child=2 3 12 5 18 6 14 -9 28 19 11 -13 24 -15 23 29 22 -19 -20 20 -22 -23 -24 -25 25 26 27 -29 -30 -31
leaf_value=-2.2950855860832893 1.28186096313688 4.8079419533378971 -2.1945647099183025 -1.5058886963285636 -0.74814933855432386 4.888464469586367 5.2212868951316924 -1.7048461359974132 3.9337822074785653 -2.7685025277578541 3.9401377007134504 -1.3969486706195919 -1.5969502948593284 4.806628558253351 1.7811763129089497 -2.2700451184516139 3.4314996327590479 -2.9605977328575328 -2.358467695299884 0.15510446294022162 -2.516112338191987 1.9007872980962772 -2.5299722261212576 -1.8964797899109571 4.2915272783147351 -2.2911708087493232 4.7995402648229675 -0.69332849859545842 -1.2760920741538686 -0.88945120568871217
leaf_weight=25.544237375259399 29.699759244918823 341.11945700645447 306.77529096603394 146.4210352897644 47.910722732543945 108.16578984260559 7.3332738876342765 256.42014360427856 120.38791298866272 7147.497615814209 34.344166040420532 27.49977707862854 16.866529941558838 754.83832550048828 10.755468368530272 1031.0583086013794 23.466476440429691 4.6444067955017081 28.233104467391968 39.477457761764526 3041.7197873592377 46.077404260635376 4.6444067955017081 84.577092170715332 10.755468368530272 13.44433546066284 11.855459451675415 10.144362211227417 4.1555218696594229 58.421748638153076
leaf_count=209 243 2791 2510 1198 392 885 60 2098 985 58480 281 225 138 6176 88 8436 192 38 231 323 24887 377 38 692 88 110 97 83 34 478
internal_value=-1.79436 -2.20513 2.62595 1.53202 3.50765 0.299772 1.91233 -0.359081 0.914449 -2.59938 -1.89668 1.56693 -1.71682 4.67319 -1.00279 -2.08406 0.189148 4.56532 -0.121484 -2.68217 -2.48189 0.550484 2.44656 -1.48156 0.607085 1.41173 0.537863 2.26672 3.75995 -2.19601
internal_weight=0 12639.9 1154.38 1206.2 463.341 742.861 215.476 527.385 270.964 11433.7 1204.98 61.8439 369.841 784.538 102.666 1143.14 53.6551 112.81 122.221 10228.7 3081.2 93.9881 28.1109 95.3326 63.0662 46.1996 35.4442 21.9998 124.543 1089.48
internal_count=112863 103418 9445 9869 3791 6078 1763 4315 2217 93549 9859 506 3026 6419 840 9353 439 923 1000 83690 25210 769 230 780 516 378 290 180 1019 8914
is_linear=0
shrinkage=1


Tree=15
num_leaves=31
num_cat=0
split_feature=1 14 12 2 12 13 13 13 13 10 5 13 12 9 11 12 14 9 4 12 16 5 9 5 16 12 11 13 11 2
split_gain=24703.4 18809.6 10355.8 2444.73 2096.02 777.472 1479.03 972.536 1873.68 579.616 453.577 455.278 552.432 440.473 346.689 273.183 246.838 219.478 267.77 182.368 195.07 153.756 141.181 140.884 129.463 103.398 98.8883 93.994 80.57 244.637
threshold=1.5255187812111439 2.5000000000000004 1.0000000180025095e-35 -0.58255181490808716 1.0000000180025095e-35 3.5000000000000004 4.5000000000000009 1.5000000000000002 1.0000000180025095e-35 1.5474715070953717 0.29398469519787096 4.5000000000000009 1.0000000180025095e-35 1.0871694245349934 1.0490379321926098 1.5000000000000002 2.5000000000000004 0.10411278407721392 3.2638801891247469 1.5000000000000002 159.50000000000003 0.75696124537079568 0.25131522770717502 0.6528269052056731 76.500000000000014 1.5000000000000002 -0.20387712259879023 1.0000000180025095e-35 1.0490379321926098 -0.78786828167111855
decision_type=2 2 2 2 2 2 2 2 2 2 2 2 2 2 2 2 2 2 2 2 2 2 2 2 2 2 2 2 2 2
left_child=1 10 9 4 28 7 15 8 -5 16 22 17 14 -4 23 -7 -2 -12 -19 20 -6 -8 -1 26 -24 -10 -13 -15 -3 -30
right_child=2 3 13 5 19 6 21 -9 25 -11 11 12 -14 27 -16 -17 -18 18 -20 -21 -22 -23 24 -25 -26 -27 -28 -29 29 -31
leaf_value=-2.8061028933969543 -1.3332615637547034 4.7573306889915745 -2.2431812585436322 -1.4400087738620928 -0.84006341413555463 4.877188943487285 -1.1670046209031963 -1.7238964527510532 4.0195211449441395 4.8651483405919631 -2.616448775735801 3.8286256818569266 -2.2579087272947858 -1.4825798645756081 -1.6575568476592486 -2.9605977328575328 4.4208851380457901 -2.094075624837386 2.3948176600081417 -2.3636361934763443 1.9048433687380015 3.6695501553406324 -2.7264914052924976 3.4698131215560166 -2.2918050464179545 -0.91512657586022639 -1.0278690805766133 1.0867311236318065 4.6684568526999879 0.067343822382574192
leaf_weight=5676.5650951862335 22.122042894363403 295.28649520874023 299.6864595413208 143.36550450325012 53.288456916809082 104.62137413024902 90.321490049362183 244.19802045822144 121.48790407180786 752.51612210273743 1557.4651525020599 5.7443978786468533 123.81010746955872 18.94429087638855 32.999732494354248 4.6444067955017081 11.244353294372557 1148.2684695720673 13.44433546066284 28.47754693031311 50.355147361755371 7.0888314247131339 1520.676561832428 39.966342687606812 1247.0232245922089 4.3999643325805655 15.522096395492552 57.321757555007935 45.221855640411377 15.522096395492552
leaf_count=46445 181 2416 2452 1173 436 856 739 1998 994 6157 12743 47 1013 155 270 38 92 9395 110 233 412 58 12442 327 10203 36 127 469 370 127
internal_value=-1.79436 -2.19982 2.61937 1.5516 3.27927 0.380477 2.01821 -0.278747 1.03192 4.68431 -2.59808 -2.25959 -0.869264 -1.69714 0.955246 4.54404 0.605865 -2.37108 -2.04213 -0.122294 0.493547 -0.815035 -2.71582 2.36334 -2.53064 3.84705 0.283943 0.448521 4.54157 3.49272
internal_weight=0 12589.8 1161.84 1208.28 488.152 720.127 206.676 513.451 269.253 785.883 11381.5 2937.22 218.043 375.953 94.2326 109.266 33.3664 2719.18 1161.71 132.121 103.644 97.4103 8444.26 61.2328 2767.7 125.888 21.2665 76.266 356.03 60.744
internal_count=112514 103008 9506 9886 3994 5892 1691 4201 2203 6430 93122 24032 1784 3076 771 894 273 22248 9505 1081 848 797 69090 501 22645 1030 174 624 2913 497
is_linear=0
shrinkage=1


Tree=16
num_leaves=31
num_cat=0
split_feature=1 14 12 8 12 13 13 13 13 6 13 12 14 0 12 6 10 10 12 6 14 12 12 10 14 6 6 6 13 13
split_gain=24688 19006.3 10450.2 2933.29 2316.42 728.685 1566.45 984.33 1835.34 691.158 752.809 410.98 359.5 312.013 292.755 283.63 310.691 198.532 177.233 170.65 162.641 143.712 125.663 117.62 114.615 113.85 110.279 103.705 98.395 110.075
threshold=1.5840079809350693 2.5000000000000004 1.0000000180025095e-35 -0.65998021448485111 1.0000000180025095e-35 3.5000000000000004 4.5000000000000009 1.5000000000000002 1.0000000180025095e-35 -0.76973661976749852 4.5000000000000009 1.0000000180025095e-35 2.5000000000000004 -0.61651525856165856 1.5000000000000002 -1.1460831757535213 -0.085529806112141629 1.6491002964855868 1.5000000000000002 -0.63108565243177051 1.5000000000000002 1.0000000180025095e-35 1.0000000180025095e-35 1.5474715070953717 2.5000000000000004 0.25606199390944856 -0.78272564700988523 -0.11627809590888936 1.0000000180025095e-35 1.5000000000000002
decision_type=2 2 2 2 2 2 2 2 2 2 2 2 2 2 2 2 2 2 2 2 2 2 2 2 2 2 2 2 2 2
left_child=1 9 23 4 -3 7 14 8 -5 10 15 -12 -4 -8 -7 16 -1 20 25 -15 -11 -19 -18 24 -2 28 -17 -9 -6 -30
right_child=2 3 12 5 18 6 13 27 -10 17 11 -13 -14 19 -16 26 22 21 -20 -21 -22 -23 -24 -25 -26 -27 -28 -29 29 -31
leaf_value=-2.3545322048583306 -0.77876183206040595 4.8446420645231232 -2.1924886300644992 -1.4060396535395798 -1.1335749518502301 4.8618515010697383 5.2212868951316924 -0.96605116898049126 3.7350502064515365 -2.7484055480049991 3.9862854418502995 -1.2456175488248566 0.42500969941387057 2.9351720726052908 -2.9605977328575328 -2.2476654057949719 3.2770766865005885 4.5919111545171365 -2.3712246876210203 -1.8064492029316783 -2.4335035057376508 -1.8100202070465479 -2.3312219922429769 4.8764461864116981 4.8121926637322296 -0.90837584596914622 -0.81855926801915191 -2.2254533569649899 4.5732168255879913 1.0692857406296974
leaf_weight=26.399785995483398 7.3332738876342756 345.15275764465332 295.53093767166138 146.66547775268555 12.588786840438841 105.72136521339417 7.6999375820159903 117.82126712799072 131.87670874595642 8129.4229893684387 32.388626337051392 27.988662004470825 63.799482822418213 8.3110437393188459 5.011070489883422 1039.3693523406982 24.688688755035404 6.3555040359497053 28.844210624694824 87.510401725769043 2054.6611220836639 7.8221588134765625 4.7666280269622794 742.37175989151001 7.3332738876342773 37.033033132553101 56.955093860626221 146.90992021560669 12.344344377517698 32.755290031433105
leaf_count=216 60 2824 2418 1200 103 865 63 964 1079 66514 265 229 522 68 41 8504 202 52 236 716 16811 64 39 6074 60 303 466 1202 101 268
internal_value=-1.79436 -2.19278 2.71315 1.54829 3.51451 0.331693 1.89346 -0.284229 1.02803 -2.5948 -1.88106 1.56097 -1.72775 -0.903052 4.50786 -2.06143 0.136702 -2.67967 -0.200931 -1.39519 -2.68487 1.05981 2.36951 4.82104 2.01672 0.459958 -2.17342 -1.66494 1.33836 2.02836
internal_weight=0 12637.1 1116.37 1226.25 468.718 757.527 214.254 543.273 278.542 11410.8 1212.56 60.3773 359.33 103.521 110.732 1152.18 55.8551 10198.3 123.566 95.8214 10184.1 14.1777 29.4553 757.038 14.6665 94.7215 1096.32 264.731 57.6884 45.0996
internal_count=112529 103395 9134 10033 3835 6198 1753 4445 2279 93362 9921 494 2940 847 906 9427 457 83441 1011 784 83325 116 241 6194 120 775 8970 2166 472 369
is_linear=0
shrinkage=1


Tree=17
num_leaves=31
num_cat=0
split_feature=10 14 12 8 12 6 6 16 14 6 10 12 9 10 12 16 16 6 16 6 12 1 3 9 6 6 6 6 1 6
split_gain=24783.5 18923.9 10555.2 2875.87 2289.08 655.513 519.54 481.454 312.499 295.679 312.363 289.123 203.853 203.061 187.068 171.29 154.897 147.676 142.658 168.292 140.51 132.628 132.435 130.78 99.6326 89.8502 87.8149 83.6648 78.5596 75.7545
threshold=1.5474715070953717 2.5000000000000004 1.0000000180025095e-35 -0.44554041772281855 1.0000000180025095e-35 -0.75710579596954786 -0.12154135656336366 183.50000000000003 2.5000000000000004 -1.1460831757535213 -0.085529806112141629 1.5000000000000002 0.14408795678493572 1.6491002964855868 1.5000000000000002 159.50000000000003 76.500000000000014 1.1895058011155493 28.500000000000004 -0.74292001686151932 1.5000000000000002 1.5255187812111439 0.56674231444383849 0.39686417798360824 0.41040304000100708 1.1849723303858168 -0.18474181264297143 -0.78272564700988523 1.2907711896043714 -0.76973661976749852
decision_type=2 2 2 2 2 2 2 2 2 2 2 2 2 2 2 2 2 2 2 2 2 2 2 2 2 2 2 2 2 2
left_child=1 5 13 4 25 9 11 28 -4 10 -1 18 -7 21 15 26 -14 20 19 -5 -9 -2 -12 -11 -18 -3 -6 -25 -8 -20
right_child=2 3 8 6 14 12 7 17 -10 23 22 -13 16 -15 -16 -17 24 -19 29 -21 -22 -23 -24 27 -26 -27 -28 -29 -30 -31
leaf_value=-2.1047520604737224 -0.63619869081513958 4.9038345632990197 -2.1736881046525327 1.9485330439360022 1.3930656471734308 -2.7919464130407632 -1.6918051581278697 1.4108455234145376 0.30887022089719762 -2.2568464306624643 -1.5712210979159662 -2.5115918691264163 -2.6893493475522572 4.8690598539662009 -2.3545322048583306 1.8646162785207281 -2.1053269853306151 -1.0927076730915037 2.8357757759737079 -1.4649844137627279 -2.0343466428964883 3.8576394571334878 3.5116393609249879 -1.6985138703685487 -2.6227720703638284 1.7303494538562894 -1.6156303967497148 -0.10517490966666232 1.4267896763540806 1.4566160540323554
leaf_weight=29.210874319076538 10.755468368530275 333.90840435028076 303.71976017951965 25.055352449417114 13.322114229202269 6534.1914763450623 191.52066969871521 137.25444293022156 60.866173267364502 805.68235778808594 6.477725267410281 20.044281959533691 1935.4954214096069 743.83841466903687 29.699759244918823 47.666280269622803 1135.3130190372467 38.010802984237671 47.788501501083374 34.09972357749939 12.955450534820555 16.866529941558838 24.566467523574829 346.25274872779846 553.53995728492737 9.1665923595428449 35.688599586486816 36.421926975250244 8.4332649707794172 239.06472873687744
leaf_count=239 88 2732 2485 205 109 53462 1567 1123 498 6592 53 164 15836 6086 243 390 9289 311 391 279 106 138 201 2833 4529 75 292 298 69 1956
internal_value=-1.79436 -2.2015 2.67474 1.53568 3.47883 -2.6024 0.32621 -0.479756 -1.75923 -1.91864 0.242452 1.18088 -2.68644 4.77019 -0.15945 0.514893 -2.49624 0.668121 1.39479 -0.0191764 1.1137 2.10783 2.45104 -2.02822 -2.27493 4.81904 -0.797805 -1.54686 -1.56028 1.68638
internal_weight=0 12630.8 1136.05 1223.68 469.452 11407.2 754.227 388.175 364.586 1248.61 60.2551 366.053 10158.5 771.46 126.377 96.677 3624.35 188.221 346.008 59.1551 150.21 27.622 31.0442 1188.36 1688.85 343.075 49.0107 382.675 199.954 286.853
internal_count=112639 103344 9295 10012 3841 93332 6171 3176 2983 10216 493 2995 83116 6312 1034 791 29654 1540 2831 484 1229 226 254 9723 13818 2807 401 3131 1636 2347
is_linear=0
shrinkage=1


Tree=18
num_leaves=31
num_cat=0
split_feature=1 14 12 8 12 13 13 13 13 6 13 10 9 12 0 14 12 6 10 9 12 6 6 12 6 6 13 0 12 13
split_gain=24470.5 19112.7 10312.3 2887.36 2259.08 802.461 1523.65 994.777 1880.03 663.095 710.271 579.793 452.903 429.265 334.427 293.13 287.66 269.214 343.398 211.117 158.163 139.31 138.84 134.057 125.649 121.863 224.76 235.428 97.9942 92.1859
threshold=1.5255187812111439 2.5000000000000004 1.0000000180025095e-35 -0.65998021448485111 1.0000000180025095e-35 3.5000000000000004 4.5000000000000009 1.5000000000000002 1.0000000180025095e-35 -0.76973661976749852 4.5000000000000009 1.5474715070953717 1.0871694245349934 1.0000000180025095e-35 -0.61651525856165856 2.5000000000000004 1.5000000000000002 -1.1460831757535213 -0.085529806112141629 0.14408795678493572 1.5000000000000002 -0.63108565243177051 -0.78272564700988523 1.0000000180025095e-35 0.25606199390944856 -0.12154135656336366 4.5000000000000009 -0.61651525856165856 1.5000000000000002 3.5000000000000004
decision_type=2 2 2 2 2 2 2 2 2 2 2 2 2 2 2 2 2 2 2 2 2 2 2 2 2 2 2 2 2 2
left_child=1 9 11 4 -3 7 16 8 -5 10 17 15 -4 -12 -8 -2 -7 18 -1 -11 24 -16 -19 -20 -6 26 -21 -28 -10 -14
right_child=2 3 12 5 20 6 14 -9 28 19 13 -13 29 -15 21 -17 -18 22 23 25 -22 -23 -24 -25 -26 -27 27 -29 -30 -31
leaf_value=-2.5060485868581313 -1.5436233000772757 4.820270688047593 -2.2689332591512268 -1.4517841384253201 1.3658572516655543 4.8838895908847135 5.2212868951316924 -1.7228054818106375 3.9235798554893004 -2.7898623255064381 3.9036051011109554 4.8648536637125748 -0.33769691910022126 -1.4467688589564425 2.6179599680442114 4.6308416126994789 -2.9605977328575328 -2.2702542601401268 3.4831663264914927 -2.3868301272998069 -2.3001765521229762 -1.7297984693347981 -0.71876134478848508 -2.3312219922429769 -0.98110951640852662 -2.6477623702672819 4.9125365318113445 -1.2899038518663555 -1.4995469064308853 1.9636846821359821
leaf_weight=26.399785995483398 21.877600431442261 346.61941242218018 296.38648629188538 145.80992913246155 57.321757555007935 106.69913506507874 8.4332649707794172 256.90902853012085 126.37675333023071 6559.8579349517822 32.633068799972534 746.28283929824829 51.088474750518799 27.744219541549683 8.0666012763977033 11.855459451675413 4.8888492584228507 1027.0250079631805 23.588697671890262 1448.3215928077698 27.255334615707397 85.31041955947876 61.110615730285645 4.7666280269622794 37.8885817527771 2096.9496681690216 6.4777252674102774 110.73243570327759 3.4221944808959952 26.399785995483398
leaf_count=216 179 2836 2425 1193 469 873 69 2102 1034 53672 267 6106 418 227 66 97 40 8403 193 11850 223 698 500 39 310 17157 53 906 28 216
internal_value=-1.79436 -2.19885 2.61185 1.57191 3.51584 0.349426 1.9879 -0.307166 1.01242 -2.59983 -1.89766 4.68155 -1.70617 1.44503 -0.809538 0.626388 4.54021 -2.07425 0.0893459 -2.68248 -0.176144 -1.35421 -2.18312 2.50575 0.431891 -2.49015 -2.27904 -0.94712 3.7806 0.44637
internal_weight=0 12640.6 1153.89 1215 469.085 745.916 213.398 532.518 275.609 11425.6 1203.27 780.016 373.875 60.3773 101.81 33.7331 111.588 1142.89 54.7551 10222.3 122.466 93.377 1088.14 28.3553 95.2103 3662.48 1565.53 117.21 129.799 77.4883
internal_count=112865 103424 9441 9941 3838 6103 1746 4357 2255 93483 9845 6382 3059 494 833 276 913 9351 448 83638 1002 764 8903 232 779 29966 12809 959 1062 634
is_linear=0
shrinkage=1


Tree=19
num_leaves=31
num_cat=0
split_feature=1 14 12 8 12 13 13 13 13 10 5 13 12 14 11 12 14 4 12 16 16 16 5 7 14 13 13 13 13 13
split_gain=24780.4 19091.3 10326.8 2859.7 2195.38 818.982 1569.39 966.534 1772.52 559.424 450.121 495.3 622.112 418.424 350.741 295.916 281.867 185.251 172.57 185.921 144.48 177.401 134.615 120.715 114.172 110.882 113.818 110.283 107.383 179.639
threshold=1.5255187812111439 2.5000000000000004 1.0000000180025095e-35 -0.44554041772281855 1.0000000180025095e-35 3.5000000000000004 4.5000000000000009 1.5000000000000002 1.0000000180025095e-35 1.5474715070953717 0.39076451992051309 4.5000000000000009 1.0000000180025095e-35 2.5000000000000004 1.0422894334139998 1.5000000000000002 2.5000000000000004 3.2638801891247469 1.5000000000000002 47.500000000000007 156.50000000000003 157.50000000000003 0.085565815563348982 -0.71925246725477554 1.0000000180025095e-35 1.0000000180025095e-35 1.5000000000000002 1.0000000180025095e-35 1.5000000000000002 3.5000000000000004
decision_type=2 2 2 2 2 2 2 2 2 2 2 2 2 2 2 2 2 2 2 2 2 2 2 2 2 2 2 2 2 2
left_child=1 10 9 4 -3 7 15 8 -5 16 20 17 14 -4 -13 -7 -2 24 19 -6 -1 -22 -8 -19 -12 -21 -27 -15 -29 -30
right_child=2 3 13 5 18 6 22 -9 -10 -11 11 12 -14 27 -16 -17 -18 23 -20 25 21 -23 -24 -25 -26 26 -28 28 29 -31
leaf_value=-2.7912189924655131 -1.4729823459504008 4.8016288579691739 -2.1712027746806362 -1.3962103166768518 -1.5854910726912763 4.8991654530848727 -1.5307538172866 -1.7081490129793537 3.725080851514798 4.8688487568974352 -2.6660905079361163 2.9602508621042243 -2.2974652481098956 -1.5874142987894109 -1.3444229915263277 -2.9605977328575328 4.5601245009507441 2.6592826176805189 -2.3118139297570655 -1.3412664002346653 0.21889111221600022 -2.5358792420449197 1.0924654856371294 -2.537396803823607 -2.2160268586608809 4.557890844213647 1.215826957847415 4.2355176628438329 -2.1558221956782644 2.2279144702575855
leaf_weight=6169.6055428981781 21.510936737060547 345.51942133903503 309.09749436378479 144.46549558639526 29.088653087615967 108.65467476844788 75.532721042633057 256.29792237281799 126.98785948753357 751.90501594543457 886.22614932060242 52.18846583366394 102.54361319541931 17.477636098861694 29.699759244918823 5.011070489883422 12.099901914596556 12.099901914596559 27.744219541549683 11.733238220214842 23.588697671890259 2601.723354101181 26.399785995483398 7.0888314247131339 1548.5430026054382 13.566556692123411 40.944112539291382 10.144362211227415 14.910990238189695 25.055352449417114
leaf_count=50479 176 2827 2529 1182 238 889 618 2097 1039 6152 7251 427 839 143 243 41 99 99 227 96 193 21287 216 58 12670 111 335 83 122 205
internal_value=-1.79436 -2.19889 2.62621 1.57508 3.50979 0.355474 1.9977 -0.315412 0.999567 4.69043 -2.59894 -2.23667 -0.656223 -1.67836 1.399 4.55266 0.698936 -2.35545 -0.116844 0.521948 -2.70761 -2.51113 -0.851359 0.73949 -2.37984 1.44735 2.0476 0.575515 1.3299 0.592392
internal_weight=0 12645.3 1162.2 1211.95 468.596 743.35 215.598 527.751 271.453 785.516 11433.3 2638.39 184.432 376.686 81.8882 113.666 33.6108 2453.96 123.077 95.3326 8794.92 2625.31 101.933 19.1887 2434.77 66.2439 54.5107 67.5883 50.1107 39.9663
internal_count=112971 103462 9509 9916 3834 6082 1764 4318 2221 6427 93546 21587 1509 3082 670 930 275 20078 1007 780 71959 21480 834 157 19921 542 446 553 410 327
is_linear=0
shrinkage=1


Tree=20
num_leaves=31
num_cat=0
split_feature=1 14 12 2 12 13 13 13 13 5 13 12 9 1 0 12 0 9 12 16 4 16 9 7 14 0 2 5 13 5
split_gain=24285.2 18760.4 10312.5 2341.24 2278.79 803.236 1397.7 963.637 1960.1 441.963 452.004 485.557 429.649 378.559 318.308 308.143 250.04 200.571 178.586 202.087 167.105 144.978 126.128 123.943 108.612 108.179 351.584 106.663 92.3332 90.9485
threshold=1.5255187812111439 2.5000000000000004 1.0000000180025095e-35 -0.55579879495545681 1.0000000180025095e-35 3.5000000000000004 4.5000000000000009 1.5000000000000002 1.0000000180025095e-35 0.6895544246475227 4.5000000000000009 1.0000000180025095e-35 1.0871694245349934 1.5840079809350693 -0.61651525856165856 1.5000000000000002 1.0688252957552902 0.13759531072085976 1.5000000000000002 159.50000000000003 3.2638801891247469 76.500000000000014 0.10411278407721392 -0.71925246725477554 2.5000000000000004 0.73574768597620832 -0.78786828167111855 -0.040168868936400794 1.0000000180025095e-35 1.3682531628978412
decision_type=2 2 2 2 2 2 2 2 2 2 2 2 2 2 2 2 2 2 2 2 2 2 2 2 2 2 2 2 2 2
left_child=1 9 13 4 25 7 15 8 -5 17 20 16 -4 24 -8 -7 -12 -1 19 -6 22 -19 -11 -22 -2 -3 -27 -16 -14 -18
right_child=2 3 12 5 18 6 14 -9 -10 10 11 -13 28 -15 27 -17 29 21 -20 -21 23 -23 -24 -25 -26 26 -28 -29 -30 -31
leaf_value=-2.7941189350659759 0.16651000454149001 4.817954554315321 -2.2381794060443889 -1.5138010608350476 -0.92375725584755686 4.8901153744749859 5.2212868951316924 -1.7407832903479827 3.9758588922825253 -2.5484716512316465 3.4620420775094352 -2.187506271945165 -1.5072366476226045 4.8049195808383232 -2.1171044722400865 -2.9605977328575328 -2.1688024462779301 -2.681332629298574 -2.3997427381969807 1.8205035534246794 2.368886749594163 -2.2731484907813808 -1.9987474162226788 -2.6966659706643314 4.5506406141489677 4.7118487956531183 0.084881545338456599 0.41605306599516334 1.0601138117981161 2.6179599680442114
leaf_weight=6018.7845432758331 23.34425520896912 277.68663787841797 301.76422047615051 140.30997371673584 57.932863712310791 102.66583442687988 7.9443800449371329 241.02026844024658 121.24346160888672 973.00322365760803 35.810820817947388 62.088385581970215 18.577627182006836 749.33837008476257 59.277297258377075 5.2555129528045645 15.155432701110842 1887.0958137512207 30.31086540222168 49.988483667373657 13.322114229202272 1614.6646888256073 730.88296413421631 7.577716350555419 7.4554951190948477 64.777252674102783 21.999821662902832 23.099812746047974 56.955093860626221 5.3777341842651358
leaf_count=49245 191 2272 2469 1148 474 840 65 1972 992 7961 293 508 152 6131 485 43 124 15440 248 409 109 13211 5980 62 61 530 180 189 466 44
internal_value=-1.79436 -2.19902 2.58788 1.55535 3.20217 0.374084 2.07868 -0.298302 1.03094 -2.59663 -2.14843 -0.258634 -1.70429 4.66369 -0.823786 4.5078 1.86689 -2.68341 -0.255005 0.347367 -2.27819 -2.49312 -2.31267 0.532254 1.22775 4.5134 3.53881 -1.40677 0.428662 -0.915127
internal_weight=0 12567.3 1157.44 1203.51 502.696 700.817 198.243 502.574 261.553 11363.8 1843.22 118.432 377.297 780.138 90.3215 107.921 56.344 9520.55 138.232 107.921 1724.79 3501.76 1703.89 20.8998 30.7998 364.464 86.7771 82.3771 75.5327 20.5332
internal_count=112294 102824 9470 9847 4113 5734 1622 4112 2140 92977 15081 969 3087 6383 739 883 461 77896 1131 883 14112 28651 13941 171 252 2982 710 674 618 168
is_linear=0
shrinkage=1


Tree=21
num_leaves=31
num_cat=0
split_feature=1 14 12 8 12 13 13 13 13 6 13 10 12 14 0 6 10 14 12 16 16 12 16 6 12 6 16 6 13 13
split_gain=24837.5 18917 10224.6 2920.57 2201.89 780.723 1598.92 1012.12 1965.55 680.39 775.884 610.129 428.694 413.604 337.273 279.886 304.875 278.949 259.061 165.18 232.521 157.189 170.935 145.281 134.867 110.555 108.16 106.746 105.008 164.885
threshold=1.5255187812111439 2.5000000000000004 1.0000000180025095e-35 -0.65998021448485111 1.0000000180025095e-35 3.5000000000000004 4.5000000000000009 1.5000000000000002 1.0000000180025095e-35 -0.76973661976749852 4.5000000000000009 1.5474715070953717 1.0000000180025095e-35 2.5000000000000004 -0.61651525856165856 -1.1460831757535213 -0.085529806112141629 2.5000000000000004 1.5000000000000002 156.50000000000003 157.50000000000003 1.5000000000000002 159.50000000000003 -0.63108565243177051 1.0000000180025095e-35 -0.78272564700988523 198.50000000000003 -0.2373924262777746 1.0000000180025095e-35 1.5000000000000002
decision_type=2 2 2 2 2 2 2 2 2 2 2 2 2 2 2 2 2 2 2 2 2 2 2 2 2 2 2 2 2 2
left_child=1 9 11 4 -3 7 18 8 -5 10 15 17 -12 -4 -8 16 -1 -2 -7 -11 -21 22 27 -16 26 -17 -18 -6 -15 -30
right_child=2 3 13 5 21 6 14 -9 -10 19 12 -13 -14 28 23 25 24 -19 -20 20 -22 -23 -24 -25 -26 -27 -28 -29 29 -31
leaf_value=-2.3254742685843963 -1.5893321527476065 4.812776250367607 -2.1424092700586099 -1.4639115204204793 1.857623214736122 4.8679782407412482 5.2212868951316924 -1.7313944084647852 3.8334928575789999 -2.7671257301659118 3.8340469409051452 4.8752735569278531 -1.3804054227308582 -1.5376612758159283 2.5742065743116487 -2.2676502103814777 -2.9605977328575293 4.4542352112577017 -2.9605977328575328 -0.11898510756786185 -2.5216228683036119 -2.2135560929106903 1.8371566039738449 -1.801593038009129 -2.3619232478827112 -0.86007248674849768 4.0590873741104954 -1.7039942916987778 4.6934233707452897 0.34922614577888522
leaf_weight=26.766449689865112 21.877600431442261 342.70833301544189 309.21971559524536 150.33211469650269 10.999910831451414 107.55468368530273 8.3110437393188459 260.33122301101685 131.14338135719299 7117.3089716434479 35.321935892105103 751.41613101959229 28.47754693031311 16.866529941558838 8.3110437393188459 1018.8361854553223 2.444424629211432 11.733238220214842 4.3999643325805655 40.821891307830811 3032.0643100738525 28.110883235931396 46.688510417938232 87.143738031387329 5.011070489883422 59.032854795455933 21.510936737060547 35.810820817947388 11.366574525833128 37.766360521316528
leaf_count=219 179 2804 2530 1230 90 880 68 2130 1073 58233 289 6148 233 138 68 8336 20 96 36 334 24808 230 382 713 41 483 176 293 93 309
internal_value=-1.79436 -2.19847 2.63649 1.54079 3.51556 0.330373 1.93926 -0.310206 1.00422 -2.59968 -1.88661 4.68882 1.50652 -1.65736 -0.888625 -2.07757 0.107609 0.520422 4.5603 -2.68347 -2.4897 -0.140109 0.483281 -1.4206 2.3559 -2.19056 3.34279 -0.867061 0.615189 1.35423
internal_weight=0 12609.4 1160.25 1221.85 464.318 757.527 215.72 541.807 281.475 11387.6 1197.4 785.027 63.7995 375.219 103.766 1133.6 55.7329 33.6108 111.955 10190.2 3072.89 121.61 93.4992 95.4548 28.9664 1077.87 23.9554 46.8107 65.9995 49.1329
internal_count=112662 103169 9493 9997 3799 6198 1765 4433 2303 93172 9797 6423 522 3070 849 9275 456 275 916 83375 25142 995 765 781 237 8819 196 383 540 402
is_linear=0
shrinkage=1


Tree=22
num_leaves=31
num_cat=0
split_feature=1 14 12 8 12 13 13 13 13 10 9 4 13 12 0 14 12 9 12 4 16 16 16 10 7 13 13 13 13 9
split_gain=24692.9 18608.1 10223.1 2904.02 2180.75 826.443 1564.46 940.875 1864.92 619.517 427.639 422.108 379.472 407.772 359.297 284.37 268.583 233.368 178.069 174.976 144.268 141.697 152.411 123.94 114.707 109.066 129.543 105.241 222.305 96.0022
threshold=1.5255187812111439 2.5000000000000004 1.0000000180025095e-35 -0.65998021448485111 1.0000000180025095e-35 3.5000000000000004 4.5000000000000009 1.5000000000000002 1.0000000180025095e-35 1.5474715070953717 1.0871694245349934 0.59650139844379935 4.5000000000000009 1.0000000180025095e-35 -0.61651525856165856 2.5000000000000004 1.5000000000000002 0.14408795678493572 1.5000000000000002 3.2638801891247469 47.500000000000007 156.50000000000003 157.50000000000003 1.6491002964855868 -0.71925246725477554 1.0000000180025095e-35 1.5000000000000002 3.5000000000000004 4.5000000000000009 0.43991984051073812
decision_type=2 2 2 2 2 2 2 2 2 2 2 2 2 2 2 2 2 2 2 2 2 2 2 2 2 2 2 2 2 2
left_child=1 11 9 4 -3 7 16 8 -5 15 -4 17 19 29 -8 -2 -7 -1 20 23 -6 -19 -23 -13 -21 -22 -27 -28 -29 -14
right_child=2 3 10 5 18 6 14 -9 -10 -11 -12 12 13 -15 -16 -17 -18 21 -20 24 25 22 -24 -25 -26 26 27 28 -30 -31
leaf_value=-2.7911231024260066 -1.6424052094592685 4.7922081754167394 -2.2280922507623986 -1.4584808149651161 -1.4357919612777226 4.9091456318673625 5.2212868951316924 -1.7340913085479523 3.7509192228553672 4.8598113923300819 0.4396660086444828 -2.2776370093242462 1.1303445811370798 -1.9349483777819603 -1.4204782734713255 4.5174688626164894 -2.9605977328575328 -2.6066359718696406 -2.3558497386148507 2.5742065743116478 -1.5816284135335059 0.90835546332341854 -2.2227614417598569 2.7667215067349242 -2.6459098625502548 4.6152213671324898 -0.52940915768359154 5.2212868951316906 -1.5543363124218845 4.5719309722754033
leaf_weight=6390.3370869159698 21.999821662902832 340.26390838623047 297.60869860649109 150.45433592796326 26.888670921325684 105.72136521339417 8.9221498966217023 257.64235591888428 126.49897456169128 749.70503377914429 75.288278579711914 1319.2559723854065 17.11097240447998 42.899652242660522 93.499242067337036 11.366574525833128 4.5221855640411368 2477.6688041687012 28.110883235931396 12.466565608978273 10.877689599990843 15.766538858413695 1111.3576576709747 4.8888492584228507 6.3555040359497061 13.199892997741697 21.388715505599976 12.711008071899416 7.8221588134765616 15.399875164031981
leaf_count=52285 180 2784 2435 1231 220 865 73 2108 1035 6134 616 10794 140 351 765 93 37 20272 230 102 89 129 9093 40 52 108 175 104 64 126
internal_value=-1.79436 -2.20882 2.62 1.52256 3.49559 0.304662 1.97204 -0.358631 0.920923 4.67217 -1.68947 -2.60392 -2.09341 0.0893755 -0.8419 0.456013 4.58633 -2.67636 -0.150658 -2.21598 0.516703 -2.47291 -2.17896 -2.25901 0.81157 1.31216 1.88322 1.023 2.6401 2.76057
internal_weight=0 12622 1155.97 1208.52 461.263 747.261 212.665 534.596 276.953 783.071 372.897 11413.5 1418.38 75.4105 102.421 33.3664 110.244 9995.13 120.999 1342.97 92.8881 3604.79 1127.12 1324.14 18.8221 65.9995 55.1218 41.9219 20.5332 32.5108
internal_count=112730 103272 9458 9888 3774 6114 1740 4374 2266 6407 3051 93384 11605 617 838 273 902 81779 990 10988 760 29494 9222 10834 154 540 451 343 168 266
is_linear=0
shrinkage=1


Tree=23
num_leaves=31
num_cat=0
split_feature=1 14 12 2 12 13 13 13 13 6 13 10 12 9 6 10 14 12 6 9 12 16 16 6 6 6 12 12 13 6
split_gain=24551.4 19077.1 10346.4 2485.27 2215.69 813.645 1421.3 952.152 1869.84 684.955 764.196 589.504 466.565 405.313 275.425 328.779 263.579 237.896 196.87 196.607 184.349 208.24 153.554 126.656 118.311 110.276 109.855 107.627 100.529 96.1596
threshold=1.5255187812111439 2.5000000000000004 1.0000000180025095e-35 -0.55579879495545681 1.0000000180025095e-35 3.5000000000000004 4.5000000000000009 1.5000000000000002 1.0000000180025095e-35 -0.76973661976749852 4.5000000000000009 1.5474715070953717 1.0000000180025095e-35 1.0871694245349934 -1.1460831757535213 -0.085529806112141629 2.5000000000000004 1.5000000000000002 -0.48050721600648671 0.13759531072085976 1.5000000000000002 159.50000000000003 76.500000000000014 1.1849723303858168 -0.78272564700988523 0.41040304000100708 1.0000000180025095e-35 1.0000000180025095e-35 4.5000000000000009 -0.11627809590888936
decision_type=2 2 2 2 2 2 2 2 2 2 2 2 2 2 2 2 2 2 2 2 2 2 2 2 2 2 2 2 2 2
left_child=1 9 11 4 23 7 17 8 -5 10 14 16 -12 -4 15 -1 -2 -7 27 -11 21 -6 -21 -3 -16 28 -17 -8 -24 -9
right_child=2 3 13 5 20 6 18 29 -10 19 12 -13 -14 -15 24 26 -18 -19 -20 22 -22 -23 25 -25 -26 -27 -28 -29 -30 -31
leaf_value=-2.4253342525217887 -1.4321137913650399 4.6400601182799974 -2.262473199471807 -1.4415086179890668 -0.88833001048471583 4.86937787887409 4.8755734601462315 -1.0026207178358337 3.931614190208109 -2.7908497329519699 3.8763195590238744 4.8480548203808844 -1.5007593967432724 0.3306611885791666 -2.2687833228041558 3.3331596732880242 4.3864007086021797 -2.9605977328575328 -1.3589845052238301 -2.6906257571807068 -2.3619232478827112 1.9091022746444879 -2.2076402639013466 1.1763102251145474 -0.83755381741122681 -2.6469265151573209 -2.2386667362702481 -0.77876183206040595 -1.2322703868827016 -2.2645693530459492
leaf_weight=26.155343532562256 22.244264125823975 357.86376571655273 296.50870752334595 141.53218603134155 55.97732400894165 102.29917073249817 8.6777074337005597 105.72136521339417 119.41014313697815 6444.8477561473846 35.688599586486816 752.88278579711914 29.455316781997681 75.654942274093628 1017.6139731407166 23.833140134811405 11.977680683135985 4.0333006381988517 80.543791532516479 2018.728080034256 30.066422939300537 50.721811056137085 1053.1803514957428 10.877689599990843 61.232836961746216 567.4731776714325 4.1555218696594229 5.4999554157257071 117.45460343360901 140.79885864257812
leaf_count=214 182 2928 2426 1158 458 837 71 865 977 52731 292 6160 241 619 8326 195 98 33 659 16517 246 415 8617 89 501 4643 34 45 961 1152
internal_value=-1.79436 -2.19953 2.60929 1.56897 3.26286 0.360426 2.06293 -0.314097 1.01729 -2.60086 -1.88559 4.66355 1.44503 -1.73533 -2.0771 0.12377 0.604366 4.57238 -0.754128 -2.68486 -0.174809 0.441492 -2.50303 4.53788 -2.18755 -2.28515 2.5059 2.68208 -2.10978 -1.72338
internal_weight=0 12613.8 1159.27 1214.02 505.507 708.516 201.054 507.463 260.942 11399.8 1198.13 787.105 65.1439 372.164 1132.99 54.144 34.2219 106.332 94.7215 10201.7 136.766 106.699 3756.84 368.741 1078.85 1738.11 27.9887 14.1777 1170.63 246.52
internal_count=112690 103205 9485 9933 4136 5797 1645 4152 2135 93272 9803 6440 533 3045 9270 443 280 870 775 83469 1119 873 30738 3017 8827 14221 229 116 9578 2017
is_linear=0
shrinkage=1


Tree=24
num_leaves=31
num_cat=0
split_feature=1 14 8 3 13 13 13 13 6 13 16 6 16 16 16 0 14 16 16 6 10 16 10 16 16 16 16 16 16 16
split_gain=24754 18713.9 2955.37 890.618 770.223 1574.81 911.405 1915.44 683.75 748.748 483.849 456.807 410.59 393.518 435.576 344.102 335.331 318.639 295.258 258.88 342.515 210.036 197.857 200.114 188.673 193.822 257.218 188.093 177.647 160.411
threshold=1.5255187812111439 2.5000000000000004 -0.65998021448485111 -0.7371992192049942 3.5000000000000004 4.5000000000000009 1.5000000000000002 1.0000000180025095e-35 -0.76973661976749852 4.5000000000000009 43.500000000000007 -0.12154135656336366 47.500000000000007 21.500000000000004 5.5000000000000009 -0.61651525856165856 2.5000000000000004 62.500000000000007 5.5000000000000009 -1.1460831757535213 -0.085529806112141629 8.5000000000000018 1.5474715070953717 60.500000000000007 24.500000000000004 43.500000000000007 47.500000000000007 76.500000000000014 86.500000000000014 221.50000000000003
decision_type=2 2 2 2 2 2 2 2 2 2 2 2 2 2 2 2 2 2 2 2 2 2 2 2 2 2 2 2 2 2
left_child=1 8 11 18 6 -6 7 -4 9 19 13 -3 -12 14 -5 -7 22 21 -2 20 -1 -13 -14 -24 -20 -26 -27 -10 -28 -30
right_child=3 2 4 10 5 15 -8 -9 27 -11 12 17 16 -15 -16 -17 -18 -19 24 -21 -22 -23 23 -25 25 26 28 -29 29 -31
leaf_value=-2.3987515781458262 4.4892235336800237 4.241696047746883 -1.5195085885038748 4.2182193085272441 4.5364595474145322 5.2212868951316924 -1.6691246089079452 3.7406819483136604 -2.8078479844496642 1.4920192454391574 -2.5647000895677312 4.6758279199324093 -1.1037161151578503 4.8519015846129907 -0.32575353062371448 -1.3942923632676558 3.9006598825435561 3.0157353867172056 -1.443230038212258 -2.1781745596449436 2.5548691369030609 -1.2053145254688409 4.7528583858956672 2.1405070141325879 3.3262180290900702 -2.9605977328575328 2.8215721299393217 -2.5357056875553745 -1.0250981434407267 1.2903255654832377
leaf_weight=28.47754693031311 23.222033977508545 304.20864510536194 148.49879622459412 50.844032287597656 110.97687816619873 8.5554862022399885 260.9423291683197 129.67672657966614 5525.3774318695068 62.210606813430786 15.155432701110838 7.3332738876342765 17.233193635940552 216.57602214813232 36.05526328086853 97.043657779693604 166.58753848075867 112.44353294372559 33.610838651657104 1087.6467387676239 27.377555847167969 35.321935892105103 32.021962642669678 347.96384596824646 33.244174957275391 17.355414867401123 43.755200862884521 4700.0174558162689 45.46629810333252 87.510401725769043
leaf_count=233 190 2489 1215 416 908 70 2135 1061 45208 509 124 60 141 1772 295 794 1363 920 275 8899 224 289 262 2847 272 142 358 38455 372 716
internal_value=-1.79436 -2.20218 1.52911 2.612 0.313215 1.90605 -0.326665 0.932628 -2.59878 -1.88654 3.10782 3.52961 2.57172 4.13059 2.33289 -0.858308 2.70979 2.13293 1.07228 -2.07035 0.0292813 -0.19423 2.21035 2.36065 0.768196 1.09515 0.713007 -2.68276 1.07376 0.498655
internal_weight=0 12646.1 1215 1166.6 755.694 216.576 539.118 278.176 11431.1 1205.71 882.437 459.307 578.962 303.475 86.8993 105.599 563.807 155.099 284.164 1143.5 55.8551 42.6552 397.219 379.986 260.942 227.331 194.087 10225.4 176.732 132.977
internal_count=113014 103469 9941 9545 6183 1772 4411 2276 93528 9865 7220 3758 4737 2483 711 864 4613 1269 2325 9356 457 349 3250 3109 2135 1860 1588 83663 1446 1088
is_linear=0
shrinkage=1


Tree=25
num_leaves=31
num_cat=0
split_feature=1 14 12 8 12 13 13 13 13 6 13 10 12 9 0 6 10 12 14 9 12 16 16 6 12 6 6 13 0 6
split_gain=23912.5 18689.6 10674.3 2850.29 2212.55 836.066 1626.68 933.013 1879.39 685.537 769.305 551.718 421.67 410.218 320.027 286.557 318.882 283.055 260.419 204.468 194.528 179.289 162.323 146.586 134.791 128.124 103.695 97.0769 209.272 96.092
threshold=1.5255187812111439 2.5000000000000004 1.0000000180025095e-35 -0.65998021448485111 1.0000000180025095e-35 3.5000000000000004 4.5000000000000009 1.5000000000000002 1.0000000180025095e-35 -0.76973661976749852 4.5000000000000009 1.5474715070953717 1.0000000180025095e-35 1.1997214638481604 -0.61651525856165856 -1.1460831757535213 -0.085529806112141629 1.5000000000000002 2.5000000000000004 0.14408795678493572 1.5000000000000002 163.50000000000003 76.500000000000014 -0.48050721600648671 1.0000000180025095e-35 -0.78272564700988523 0.41040304000100708 4.5000000000000009 -0.61651525856165856 1.1849723303858168
decision_type=2 2 2 2 2 2 2 2 2 2 2 2 2 2 2 2 2 2 2 2 2 2 2 2 2 2 2 2 2 2
left_child=1 9 11 4 29 7 17 8 -5 10 15 18 -12 -4 -8 16 -1 -7 -2 -11 21 -6 -21 -16 -18 -17 27 -24 -29 -3
right_child=2 3 13 5 20 6 14 -9 -10 19 12 -13 -14 -15 23 25 24 -19 -20 22 -22 -23 26 -25 -26 -27 -28 28 -30 -31
leaf_value=-2.3907152214552978 -1.3518001936461681 4.900428674426232 -2.2387590430080806 -1.4897739912039512 -0.85544439356057023 4.9111597185969824 5.2212868951316924 -1.7033433394985793 3.7746348304727273 -2.7827173528512503 3.8672426081053062 4.8464010015239385 -1.421802917501761 0.51096826817714769 1.8473138526619084 -2.2565502942039615 3.5329614957053432 -2.9605977328575328 4.6634311250415177 -2.6828351949419194 -2.4405626929429634 1.9397823651894894 -2.1811354083606118 -1.9163632082643132 -2.5060485868581313 -0.75778264070658752 -2.6148069916477912 4.5533779459080819 -1.5240110132919826 1.6999694603008866
leaf_weight=24.566467523574829 21.755379199981689 330.36398863792419 318.63075041770935 146.17659282684326 46.077404260635376 109.63244462013245 7.8221588134765616 256.90902853012085 126.49897456169128 6526.858202457428 34.710829734802246 746.89394545555115 26.644228458404541 65.38835883140564 11.855459451675413 1031.18052983284 23.099812746047977 4.7666280269622794 10.755468368530272 1940.5064918994904 28.844210624694824 45.710740566253662 1012.2362389564514 81.399340152740479 4.3999643325805655 60.377288341522217 546.5733470916748 5.9888403415679923 105.11025905609131 9.6554772853851301
leaf_count=201 178 2703 2607 1196 377 897 64 2102 1035 53402 284 6111 218 535 97 8437 189 39 88 15877 236 374 8282 666 36 494 4472 49 860 79
internal_value=-1.79436 -2.19442 2.5447 1.54877 3.50415 0.339805 2.00051 -0.335899 0.952478 -2.59233 -1.87925 4.67087 1.57041 -1.77055 -0.922547 -2.06432 0.227648 4.58317 0.638201 -2.67709 -0.175275 0.536586 -2.48614 -1.43789 2.56672 -2.17365 -2.25757 -2.08374 -1.19641 4.80955
internal_weight=0 12548 1163.42 1205.71 460.652 745.061 215.476 529.585 272.676 11342.3 1204.98 779.405 61.3551 384.019 101.077 1143.62 52.0662 114.399 32.5108 10137.3 120.632 91.7881 3610.42 93.2548 27.4998 1091.56 1669.91 1123.34 111.099 340.019
internal_count=112185 102666 9519 9865 3769 6096 1763 4333 2231 92801 9859 6377 502 3142 827 9357 426 936 266 82942 987 751 29540 763 225 8931 13663 9191 909 2782
is_linear=0
shrinkage=1


Tree=26
num_leaves=31
num_cat=0
split_feature=1 14 8 3 13 13 13 13 6 13 16 6 1 16 14 16 16 6 10 6 9 10 16 16 2 6 16 16 16 16
split_gain=24473.9 18994 2887.52 915.903 753.628 1576.01 1039.08 1830.15 638.765 761.804 503.83 481.65 449.758 401.401 331.928 326.051 305.567 253.565 310.623 223.476 215.42 213.361 196.447 191.296 174.404 167.774 165.476 244.923 157.229 153.493
threshold=1.5255187812111439 2.5000000000000004 -0.65998021448485111 -0.7371992192049942 3.5000000000000004 4.5000000000000009 1.5000000000000002 1.0000000180025095e-35 -0.76973661976749852 4.5000000000000009 43.500000000000007 -0.12154135656336366 1.6241247164701424 47.500000000000007 2.5000000000000004 5.5000000000000009 62.500000000000007 -1.1460831757535213 -0.085529806112141629 -0.47014121295181138 0.14408795678493572 1.5474715070953717 60.500000000000007 8.5000000000000018 -0.25855169682259804 1.1849723303858168 21.500000000000004 11.500000000000002 76.500000000000014 24.500000000000004
decision_type=2 2 2 2 2 2 2 2 2 2 2 2 2 2 2 2 2 2 2 2 2 2 2 2 2 2 2 2 2 2
left_child=1 8 11 15 6 -6 7 -4 9 17 12 -3 -5 -12 21 -2 23 18 -1 -7 -10 -15 -23 -13 -24 -18 27 -14 -22 -17
right_child=3 2 4 10 5 19 -8 -9 20 -11 13 16 26 14 -16 29 25 -19 -20 -21 28 22 24 -25 -26 -27 -28 -29 -30 -31
leaf_value=-2.4588783924619668 4.5292867027146926 4.2718084869216586 -1.3879577577910178 -0.34626773338168571 4.5842102277687928 2.5559759935897479 -1.7191548305547579 3.7653815674450084 -2.7886772956799479 1.4805419776658013 -2.5582099642678986 4.6570189897531247 3.9355621678762422 -1.2320305579302315 3.8858389610211908 -1.2597041542791274 3.5804753437192187 -2.201140620111008 2.3612475782682023 -1.4970775247524177 -2.678146180971976 4.7685343860730001 2.7870957934887639 -1.0087102235659855 1.3504269208140052 0.38200147491855319 4.9287396939002424 -1.3242208072596875 -2.261260910061762 1.0170159238781307
leaf_weight=25.910901069641113 24.566467523574829 305.43085741996765 144.34327435493469 20.655388116836548 109.87688708305359 16.13320255279541 257.76457715034485 131.87670874595642 6543.7247323989868 62.821712970733643 14.910990238189695 7.0888314247131339 59.888403415679932 17.355414867401123 165.48754739761353 34.09972357749939 90.199268817901611 1086.3023052215576 27.621998310089111 86.777074337005615 1954.3174910545349 30.921971559524536 186.50959920883179 37.399696826934814 154.48763656616211 20.044281959533691 211.93161535263062 10.388804674148558 1684.4530119895935 225.00928711891174
leaf_count=212 201 2499 1181 169 899 132 2109 1079 53540 514 122 58 490 142 1354 279 738 8888 226 710 15990 253 1526 306 1264 164 1734 85 13782 1841
internal_value=-1.79436 -2.19893 1.5732 2.60845 0.359025 1.95041 -0.275127 1.07242 -2.59881 -1.90959 3.11593 3.54362 4.1581 2.56187 2.69949 1.0475 2.10622 -2.09644 0.0282186 -0.861682 -2.68021 2.19515 2.35507 -0.105929 2.13622 2.99893 4.48779 3.15803 -2.48516 0.717391
internal_weight=0 12592.1 1206.93 1156.21 746.772 212.787 533.985 276.22 11385.2 1202.66 872.537 460.163 302.864 569.673 554.762 283.675 154.732 1139.84 53.5329 102.91 10182.5 389.275 371.919 44.4885 340.997 110.244 282.209 70.2772 3638.77 259.109
internal_count=112487 103027 9875 9460 6110 1741 4369 2260 93152 9840 7139 3765 2478 4661 4539 2321 1266 9326 438 842 83312 3185 3043 364 2790 902 2309 575 29772 2120
is_linear=0
shrinkage=1


Tree=27
num_leaves=31
num_cat=0
split_feature=1 14 12 2 12 13 13 13 13 6 13 10 14 12 0 14 6 10 12 9 12 13 6 12 13 13 13 6 6 13
split_gain=24589.9 18686.4 10278.4 2402.74 2191.01 740.214 1418.34 932.069 1931.27 649.968 786.936 589.1 450.72 396.825 349.977 280.891 258.898 311.381 251.943 210.817 173.468 139.598 135.839 134.073 131.388 184.349 171.478 127.151 120.362 108.827
threshold=1.5255187812111439 2.5000000000000004 1.0000000180025095e-35 -0.55579879495545681 1.0000000180025095e-35 3.5000000000000004 4.5000000000000009 1.5000000000000002 1.0000000180025095e-35 -0.76973661976749852 4.5000000000000009 1.5474715070953717 2.5000000000000004 1.0000000180025095e-35 -0.61651525856165856 2.5000000000000004 -1.1460831757535213 0.0099983735734893095 1.5000000000000002 0.14408795678493572 1.5000000000000002 1.0000000180025095e-35 -0.63108565243177051 1.0000000180025095e-35 1.5000000000000002 3.5000000000000004 4.5000000000000009 1.1849723303858168 0.25606199390944856 1.0000000180025095e-35
decision_type=2 2 2 2 2 2 2 2 2 2 2 2 2 2 2 2 2 2 2 2 2 2 2 2 2 2 2 2 2 2
left_child=1 9 11 4 27 7 18 8 -5 10 16 15 -4 -12 -8 -2 17 -1 -7 -11 28 -14 -16 -19 -23 -26 -27 -3 29 -6
right_child=2 3 12 5 20 6 14 -9 -10 19 13 -13 21 -15 22 -17 -18 23 -20 -21 -22 24 -24 -25 25 26 -28 -29 -30 -31
leaf_value=-2.3573251335587879 -1.4770692014089368 4.5927783618758884 -2.2046450312671304 -1.5260646571131664 -1.3092081749147533 4.8778497625988102 5.2212868951316924 -1.685234242538495 3.922963885301066 -2.7889348381871559 3.7133627657411865 4.8690466500570206 -1.8000467217952312 -1.2822624245520506 3.0939968918544936 4.6119976143239843 -2.2021156582754129 3.4680259034197145 -2.9605977328575328 -2.4887876129141082 -2.3810475717082955 4.5098186666108901 -1.800860192130088 -2.7199540673284375 -2.1491711581809154 4.8316733414179183 -0.53300559048710361 1.0833222556888655 -0.95736344340884338 1.9048433687380015
leaf_weight=26.52200722694397 22.244264125823975 354.80823493003845 306.89751219749451 138.72109770774841 13.322114229202269 98.999197483062744 8.6777074337005597 245.42023277282715 122.46567392349243 6541.8914139270782 35.810820817947388 746.64950299263 17.233193635940552 28.599768161773682 6.1110615730285636 11.488795757293699 1090.3356058597565 22.244264125823978 4.2777431011199942 3643.4149098396301 29.333095550537109 11.244353294372557 78.466030597686768 4.1555218696594229 14.788769006729124 12.833229303359985 11.122132062911987 10.6332471370697 41.432997465133667 50.355147361755371
leaf_count=217 182 2903 2511 1135 109 810 71 2008 1002 53525 293 6109 141 234 50 94 8921 182 35 29810 240 92 642 34 121 105 91 87 339 412
internal_value=-1.79436 -2.20353 2.61843 1.54472 3.22083 0.353115 2.00043 -0.285941 1.02888 -2.59932 -1.90567 4.68437 -1.69095 1.49519 -0.826659 0.596743 -2.09728 0.0627315 4.55318 -2.68157 -0.230823 0.654308 -1.44719 2.49399 1.50043 0.627043 2.34093 4.49066 0.369239 1.23242
internal_weight=0 12596 1154.5 1203.02 499.885 703.139 196.532 506.607 261.187 11393 1207.67 780.383 374.119 64.4106 93.2548 33.7331 1143.26 52.9218 103.277 10185.3 134.443 67.2217 84.5771 26.3998 49.9885 38.7441 23.9554 365.441 105.11 63.6773
internal_count=112505 103059 9446 9843 4090 5753 1608 4145 2137 93216 9881 6385 3061 527 763 276 9354 433 845 83335 1100 550 692 216 409 317 196 2990 860 521
is_linear=0
shrinkage=1


Tree=28
num_leaves=31
num_cat=0
split_feature=1 12 15 6 6 13 16 10 16 16 12 13 12 12 6 3 1 6 6 6 16 2 6 7 3 16 16 12 6 16
split_gain=24413.5 10407.8 3222.83 984.419 895.172 679.442 661.414 565.495 520.517 508.848 458.011 447.47 269.863 250.461 257.996 245.33 531.077 240.338 413.835 230.069 220.326 200.913 180.6 169.21 200.728 159.38 323.088 152.3 149.887 414.816
threshold=1.5255187812111439 1.0000000180025095e-35 1.0000000180025095e-35 -0.75710579596954786 -0.51461528335268469 4.5000000000000009 179.50000000000003 1.5474715070953717 156.50000000000003 157.50000000000003 1.0000000180025095e-35 3.5000000000000004 1.0000000180025095e-35 1.5000000000000002 1.3185264533624712 0.60264076014524026 -0.3269060015226935 -0.12154135656336366 -0.28861821703943608 -0.25038417067316249 312.50000000000006 -0.58255181490808716 -0.12154135656336366 -0.30608025478505568 0.10712839638795375 183.50000000000003 168.50000000000003 1.5000000000000002 -0.28861821703943608 34.500000000000007
decision_type=2 2 2 2 2 2 2 2 2 2 2 2 2 2 2 2 2 2 2 2 2 2 2 2 2 2 2 2 2 2
left_child=2 7 3 5 11 15 17 -2 22 -10 -7 21 25 14 20 23 -17 18 -6 -20 -8 27 28 -1 -25 26 -11 -4 -5 -30
right_child=1 -3 4 8 6 10 13 -9 9 12 -12 -13 -14 -15 -16 16 -18 -19 19 -21 -22 -23 -24 24 -26 -27 -28 -29 29 -31
leaf_value=-2.2777977884477139 0.56823037005385046 -1.714086946745722 0.45392603318327041 -2.5909077250051933 -2.1028195057296299 4.0769673667415898 1.6824554950583037 4.8594574672294275 1.1748113454196298 -2.7508058193193472 -1.4056694325156889 1.7394666355743178 -2.4604742360284302 -2.7268296006292689 -2.0117479946306451 -1.8132796334652759 0.8576150935374387 -2.3413982898680041 2.0177976757073393 -0.91121554114321435 -0.2660356326172022 -1.1708104704848896 -2.8046474421484646 -1.3006192169866417 4.5667361248925538 -1.9555892559043841 0.83991257101575822 -2.5299722261212576 -0.10694170430530625 -2.3926981183454084
leaf_weight=597.53960061073303 32.021962642669678 377.05249905586243 215.8426947593689 2155.860301733017 197.02062511444092 34.955272197723389 75.166057348251343 748.97170639038086 44.977413177490234 42.899652242660522 27.010892152786255 127.23230195045471 1767.563449382782 42.777431011199951 64.288367748260498 258.86456823348999 104.49915289878845 544.25114369392395 46.199625492095947 63.921704053878784 254.58682513237 187.7318115234375 3905.0905663967133 127.11008071899414 6.1110615730285636 1057.7025370597839 60.255067110061646 18.577627182006836 94.965896844863892 484.24051904678345
leaf_count=4889 262 3085 1766 17639 1612 286 615 6128 368 351 221 1041 14462 350 526 2118 855 4453 378 523 2083 1536 31951 1040 50 8654 493 152 777 3962
internal_value=-1.79436 2.60049 -2.19723 -2.40608 -0.973219 -1.53424 -1.42902 4.68351 -2.51092 -2.16319 1.6871 0.0955501 -2.21446 -0.428655 -0.179163 -1.71668 -1.04516 -1.94227 -1.23501 0.317605 0.178116 -0.399909 -2.66663 -2.05059 -1.03147 -1.83987 -0.653384 0.217454 -2.46957 -2.01793
internal_weight=0 1158.05 12607.2 10769.6 1837.6 1156.09 1288.21 780.994 9613.56 2973.4 61.9662 549.384 2928.42 436.819 394.041 1094.12 363.364 851.393 307.142 110.121 329.753 422.152 6640.16 730.761 133.221 1160.86 103.155 234.42 2735.07 579.206
internal_count=112626 9475 103151 88116 15035 9459 10540 6390 78657 24328 507 4495 23960 3574 3224 8952 2973 6966 2513 901 2698 3454 54329 5979 1090 9498 844 1918 22378 4739
is_linear=0
shrinkage=1


Tree=29
num_leaves=31
num_cat=0
split_feature=1 14 8 3 13 13 13 13 16 5 13 1 16 5 14 0 0 16 16 9 4 16 16 16 16 16 16 8 16 16
split_gain=24284.8 18777 2866.82 850.274 794.591 1604.92 928.537 1897.86 511.758 468.215 462.639 435.432 435.165 357.755 334.334 321.339 298.461 296.549 214.912 191.563 237.763 172.995 168.254 230.093 228.973 167.009 230.833 162.279 156.439 156.042
threshold=1.5255187812111439 2.5000000000000004 -0.65998021448485111 -0.7371992192049942 3.5000000000000004 4.5000000000000009 1.5000000000000002 1.0000000180025095e-35 43.500000000000007 0.41666980292938133 4.5000000000000009 1.6241247164701424 47.500000000000007 -0.032878652346804552 2.5000000000000004 -0.61651525856165856 -0.59595347865824688 5.5000000000000009 60.500000000000007 0.10411278407721392 3.2638801891247469 32.500000000000007 24.500000000000004 43.500000000000007 47.500000000000007 21.500000000000004 16.500000000000004 -0.43027528007439125 5.5000000000000009 156.50000000000003
decision_type=2 2 2 2 2 2 2 2 2 2 2 2 2 2 2 2 2 2 2 2 2 2 2 2 2 2 2 2 2 2
left_child=1 9 13 17 6 -6 7 -4 11 29 19 -5 -10 21 18 -7 -12 -2 -14 -11 -21 28 -19 -24 -25 26 -13 -18 -3 -1
right_child=3 2 4 8 5 15 -8 -9 12 10 16 25 14 -15 -16 -17 27 22 -20 20 -22 -23 23 24 -26 -27 -28 -29 -30 -31
